{"learner":{"attributes":{"scikit_learn":"{\"_estimator_type\": \"regressor\"}"},"feature_names":["Year","floor_area_sqm","lease_commence_date","average_storey","town","flat_type","flat_model"],"feature_types":["int","float","int","float","int","int","int"],"gradient_booster":{"model":{"gbtree_model_param":{"num_parallel_tree":"1","num_trees":"100"},"iteration_indptr":[0,1,2,3,4,5,6,7,8,9,10,11,12,13,14,15,16,17,18,19,20,21,22,23,24,25,26,27,28,29,30,31,32,33,34,35,36,37,38,39,40,41,42,43,44,45,46,47,48,49,50,51,52,53,54,55,56,57,58,59,60,61,62,63,64,65,66,67,68,69,70,71,72,73,74,75,76,77,78,79,80,81,82,83,84,85,86,87,88,89,90,91,92,93,94,95,96,97,98,99,100],"tree_info":[0,0,0,0,0,0,0,0,0,0,0,0,0,0,0,0,0,0,0,0,0,0,0,0,0,0,0,0,0,0,0,0,0,0,0,0,0,0,0,0,0,0,0,0,0,0,0,0,0,0,0,0,0,0,0,0,0,0,0,0,0,0,0,0,0,0,0,0,0,0,0,0,0,0,0,0,0,0,0,0,0,0,0,0,0,0,0,0,0,0,0,0,0,0,0,0,0,0,0,0],"trees":[{"base_weights":[-0E0,-2.792087E0,2.192965E0,-5.456128E0,-1.1980971E0,-2.2724567E-1,3.28691E0,-5.673182E0,-3.1460936E0,-2.4657495E0,3.5811654E-1,-1.7572266E0,1.4598621E-1,2.727147E0,4.919358E0,-6.0400686E0,-4.272582E0,-3.4394984E0,-1.9720907E0,-2.6529965E0,-6.6063726E-1,-1.1100704E-1,1.7318947E0,-2.3598638E0,-1.2485466E0,-1.1780783E-1,1.8806192E0,2.386548E0,5.214651E0,4.57389E0,7.628453E0,-9.44598E0,-5.9134717E0,-4.508184E0,-2.5748358E0,-5.8389115E0,-3.3547547E0,-2.3603523E0,1.5602298E-1,-2.92385E0,-1.8524297E0,-8.002155E-1,1.2053018E0,-2.661597E-1,1.2857105E0,2.6459043E0,1.3832498E0,-2.6422687E0,-1.2189473E0,-1.5136311E0,-2.2052668E-1,-4.576003E-1,1.1501023E0,-1.2341381E0,2.5589924E0,1.1492943E0,2.7807288E0,3.3845608E0,5.755191E0,4.098437E0,5.6154222E0,7.426721E0,1.0484185E1,-3.1913154E0,-2.454571E0,-1.9152387E0,-1.6041392E0,-1.4250681E0,-1.2297975E0,-1.136883E0,-6.0208356E-1,-2.2562578E0,-1.7108651E0,-1.0532693E0,-5.9011173E-1,-8.2255095E-1,-5.2252895E-1,-1.8046495E-2,5.382004E-1,-1.0146893E0,-8.120984E-1,-2.9741356E-1,-5.9541285E-1,-2.9858512E-1,3.9214127E-2,5.663813E-1,1.8735917E-1,-1.257664E-1,2.570054E-1,3.0244336E-1,8.5331535E-1,6.3951963E-1,9.2414165E-1,3.5248107E-1,7.7048165E-1,-1.368213E0,-7.6598746E-1,-4.5772427E-1,1.6701722E-1,-1.0009876E0,-4.2619208E-1,-1.4744745E-1,5.176211E-1,-1.9597563E-1,1.6782178E-1,2.6493034E-1,8.779313E-1,-6.4960754E-1,-5.690337E-2,6.5436584E-1,1.9502246E0,1.4150527E-1,5.968841E-1,6.579775E-1,1.09341E0,8.6524725E-1,1.1360152E0,1.6375259E0,2.3414214E0,1.1671324E0,2.1077664E0,1.6262294E0,2.1298444E0,2.0121129E0,2.3680067E0,2.5046887E0,3.23127E0],"categories":[],"categories_nodes":[],"categories_segments":[],"categories_sizes":[],"default_left":[0,0,0,0,0,0,0,0,0,0,0,0,0,0,0,0,0,0,0,0,0,0,0,0,0,0,0,0,0,0,0,0,0,0,0,0,0,0,0,0,0,0,0,0,0,0,0,0,0,0,0,0,0,0,0,0,0,0,0,0,0,0,0,0,0,0,0,0,0,0,0,0,0,0,0,0,0,0,0,0,0,0,0,0,0,0,0,0,0,0,0,0,0,0,0,0,0,0,0,0,0,0,0,0,0,0,0,0,0,0,0,0,0,0,0,0,0,0,0,0,0,0,0,0,0,0,0],"id":0,"left_children":[1,3,5,7,9,11,13,15,17,19,21,23,25,27,29,31,33,35,37,39,41,43,45,47,49,51,53,55,57,59,61,63,65,67,69,71,73,75,77,79,81,83,85,87,89,91,93,95,97,99,101,103,105,107,109,111,113,115,117,119,121,123,125,-1,-1,-1,-1,-1,-1,-1,-1,-1,-1,-1,-1,-1,-1,-1,-1,-1,-1,-1,-1,-1,-1,-1,-1,-1,-1,-1,-1,-1,-1,-1,-1,-1,-1,-1,-1,-1,-1,-1,-1,-1,-1,-1,-1,-1,-1,-1,-1,-1,-1,-1,-1,-1,-1,-1,-1,-1,-1,-1,-1,-1,-1,-1,-1],"loss_changes":[3.4937622E6,1.0659101E6,8.461374E5,4.711225E4,3.0981106E5,5.6811062E4,2.011235E5,4.41345E4,2.7789375E3,2.9252562E4,4.5434863E4,5.98016E3,3.6596594E4,1.3886162E5,5.2594125E4,2.934125E4,7.1300625E3,1.3100781E3,1.3339312E3,1.700175E4,2.1185374E3,1.1388423E4,5.7180156E3,2.8765703E3,2.883002E3,2.990799E4,2.2307262E4,7.0307375E4,1.9523812E4,2.4680062E4,3.652125E3,3.6638125E3,1.748825E4,1.546625E3,1.497793E3,4.4745117E1,1.3502266E3,3.2121338E2,8.838919E1,5.8233438E3,2.2573516E3,1.3744258E3,2.2406409E2,8.129021E3,2.2724346E3,1.1060039E3,3.206248E3,1.2199922E3,9.655803E2,1.4249121E3,1.1436814E3,1.0893771E4,6.9581016E3,1.8361316E3,1.2906777E4,1.9833367E4,5.5489938E4,9.0403906E2,9.2629375E3,2.0834625E4,4.5079062E3,1.9870938E3,2.4566797E2,0E0,0E0,0E0,0E0,0E0,0E0,0E0,0E0,0E0,0E0,0E0,0E0,0E0,0E0,0E0,0E0,0E0,0E0,0E0,0E0,0E0,0E0,0E0,0E0,0E0,0E0,0E0,0E0,0E0,0E0,0E0,0E0,0E0,0E0,0E0,0E0,0E0,0E0,0E0,0E0,0E0,0E0,0E0,0E0,0E0,0E0,0E0,0E0,0E0,0E0,0E0,0E0,0E0,0E0,0E0,0E0,0E0,0E0,0E0,0E0,0E0,0E0,0E0,0E0],"parents":[2147483647,0,0,1,1,2,2,3,3,4,4,5,5,6,6,7,7,8,8,9,9,10,10,11,11,12,12,13,13,14,14,15,15,16,16,17,17,18,18,19,19,20,20,21,21,22,22,23,23,24,24,25,25,26,26,27,27,28,28,29,29,30,30,31,31,32,32,33,33,34,34,35,35,36,36,37,37,38,38,39,39,40,40,41,41,42,42,43,43,44,44,45,45,46,46,47,47,48,48,49,49,50,50,51,51,52,52,53,53,54,54,55,55,56,56,57,57,58,58,59,59,60,60,61,61,62,62],"right_children":[2,4,6,8,10,12,14,16,18,20,22,24,26,28,30,32,34,36,38,40,42,44,46,48,50,52,54,56,58,60,62,64,66,68,70,72,74,76,78,80,82,84,86,88,90,92,94,96,98,100,102,104,106,108,110,112,114,116,118,120,122,124,126,-1,-1,-1,-1,-1,-1,-1,-1,-1,-1,-1,-1,-1,-1,-1,-1,-1,-1,-1,-1,-1,-1,-1,-1,-1,-1,-1,-1,-1,-1,-1,-1,-1,-1,-1,-1,-1,-1,-1,-1,-1,-1,-1,-1,-1,-1,-1,-1,-1,-1,-1,-1,-1,-1,-1,-1,-1,-1,-1,-1,-1,-1,-1,-1],"split_conditions":[2.009E3,8.5E1,8.5E1,2.008E3,4E0,2.011E3,2.021E3,7.5E1,7.5E1,2.008E3,5E0,2.01E3,2.001E3,8E0,8E0,2E0,1.7E1,5.1E1,1.7E1,1.6E1,1.7E1,1.7E1,2.002E3,7.5E1,7.5E1,7.5E1,2E0,2.011E3,2.011E3,1.12E2,1.8E1,2.004E3,2.004E3,8E0,3E0,3.4E1,1.7E1,8E0,1.7E1,4E0,2.001E3,1.8E1,1.2E1,2.008E3,2.008E3,1E1,2.008E3,5.4E1,1.7E1,5.6E1,1.7E1,2.022E3,1.7E1,2.022E3,3E0,4E0,4E0,2.01E3,1.3E1,1.8E1,1.7E1,2.022E3,9.2E1,-3.1913154E0,-2.454571E0,-1.9152387E0,-1.6041392E0,-1.4250681E0,-1.2297975E0,-1.136883E0,-6.0208356E-1,-2.2562578E0,-1.7108651E0,-1.0532693E0,-5.9011173E-1,-8.2255095E-1,-5.2252895E-1,-1.8046495E-2,5.382004E-1,-1.0146893E0,-8.120984E-1,-2.9741356E-1,-5.9541285E-1,-2.9858512E-1,3.9214127E-2,5.663813E-1,1.8735917E-1,-1.257664E-1,2.570054E-1,3.0244336E-1,8.5331535E-1,6.3951963E-1,9.2414165E-1,3.5248107E-1,7.7048165E-1,-1.368213E0,-7.6598746E-1,-4.5772427E-1,1.6701722E-1,-1.0009876E0,-4.2619208E-1,-1.4744745E-1,5.176211E-1,-1.9597563E-1,1.6782178E-1,2.6493034E-1,8.779313E-1,-6.4960754E-1,-5.690337E-2,6.5436584E-1,1.9502246E0,1.4150527E-1,5.968841E-1,6.579775E-1,1.09341E0,8.6524725E-1,1.1360152E0,1.6375259E0,2.3414214E0,1.1671324E0,2.1077664E0,1.6262294E0,2.1298444E0,2.0121129E0,2.3680067E0,2.5046887E0,3.23127E0],"split_indices":[0,1,1,0,5,0,0,1,1,0,5,0,2,6,6,5,4,1,4,4,3,3,0,1,1,1,5,0,0,1,3,0,0,4,5,1,4,4,3,6,0,4,4,0,0,4,0,1,4,1,4,0,4,0,5,5,5,0,6,3,3,0,1,0,0,0,0,0,0,0,0,0,0,0,0,0,0,0,0,0,0,0,0,0,0,0,0,0,0,0,0,0,0,0,0,0,0,0,0,0,0,0,0,0,0,0,0,0,0,0,0,0,0,0,0,0,0,0,0,0,0,0,0,0,0,0,0],"split_type":[0,0,0,0,0,0,0,0,0,0,0,0,0,0,0,0,0,0,0,0,0,0,0,0,0,0,0,0,0,0,0,0,0,0,0,0,0,0,0,0,0,0,0,0,0,0,0,0,0,0,0,0,0,0,0,0,0,0,0,0,0,0,0,0,0,0,0,0,0,0,0,0,0,0,0,0,0,0,0,0,0,0,0,0,0,0,0,0,0,0,0,0,0,0,0,0,0,0,0,0,0,0,0,0,0,0,0,0,0,0,0,0,0,0,0,0,0,0,0,0,0,0,0,0,0,0,0],"sum_hessian":[5.70601E5,2.51012E5,3.19589E5,9.3966E4,1.57046E5,9.9487E4,2.20102E5,8.5895E4,8.071E3,8.6547E4,7.0499E4,1.951E4,7.9977E4,1.63901E5,5.6201E4,6.8065E4,1.783E4,6.457E3,1.614E3,7.8413E4,8.134E3,5.2553E4,1.7946E4,8.93E3,1.058E4,6.942E4,1.0557E4,1.44162E5,1.9739E4,4.9845E4,6.356E3,2.439E3,6.5626E4,1.5657E4,2.173E3,2.2E2,6.237E3,1.365E3,2.49E2,5.859E4,1.9823E4,7.568E3,5.66E2,4.7299E4,5.254E3,4.955E3,1.2991E4,7.158E3,1.772E3,8.411E3,2.169E3,5.4748E4,1.4672E4,1.888E3,8.669E3,3.4832E4,1.0933E5,4.501E3,1.5238E4,3.4223E4,1.5622E4,5.937E3,4.19E2,1.255E3,1.184E3,3.584E4,2.9786E4,9.834E3,5.823E3,6.92E2,1.481E3,1.6E1,2.04E2,5.606E3,6.31E2,8.44E2,5.21E2,2.2E2,2.9E1,1.8814E4,3.9776E4,2.64E3,1.7183E4,6.257E3,1.311E3,2.6E2,3.06E2,4.1625E4,5.674E3,4.46E3,7.94E2,2.27E3,2.685E3,1.1049E4,1.942E3,3.17E2,6.841E3,1.511E3,2.61E2,4.08E2,8.003E3,1.904E3,2.65E2,4.5915E4,8.833E3,1.2755E4,1.917E3,9.98E2,8.9E2,7.911E3,7.58E2,1.9283E4,1.5549E4,6.5079E4,4.4251E4,2.006E3,2.495E3,1.3311E4,1.927E3,3.1953E4,2.27E3,1.3811E4,1.811E3,2.336E3,3.601E3,5E1,3.69E2],"tree_param":{"num_deleted":"0","num_feature":"7","num_nodes":"127","size_leaf_vector":"1"}},{"base_weights":[1.1262669E-6,-1.7827086E0,1.6988692E0,-3.6312191E0,-6.991312E-1,-1.1855373E-2,2.467259E0,-3.9712467E0,-1.9132613E0,-1.5799322E0,3.522882E-1,-3.1114018E-1,8.9861625E-1,2.2277906E0,4.2320113E0,-4.371406E0,-3.2908604E0,-2.101992E0,-1.0345172E0,-1.8571012E0,-3.0924603E-1,3.537903E-2,1.3124058E0,-6.471914E-1,2.3778333E-1,7.482649E-1,3.8840637E0,1.9189365E0,3.5780044E0,3.8348117E0,5.34009E0,-5.9950047E0,-4.2110214E0,-3.547333E0,-2.4250822E0,-2.8924806E0,-1.9053065E0,-1.3039889E0,2.0991392E-1,-2.0466976E0,-1.2967067E0,-4.7106403E-1,6.3068277E-1,-2.1141104E-1,8.2582057E-1,1.7260318E0,1.0483966E0,-1.4101768E0,-4.1049725E-1,-1.7225161E0,4.2626843E-1,-1.7556122E-1,1.1399926E0,2.2360383E-1,4.297355E0,1.7177387E0,3.7919493E0,3.0904984E0,4.3493366E0,3.7019284E0,6.5435205E0,5.209394E0,7.6287947E0,-3.0067828E0,-1.7309982E0,-1.4075551E0,-1.1592596E0,-1.1986601E0,-9.331049E-1,-8.463348E-1,-4.9331445E-1,-9.7787464E-1,-7.3273677E-1,-6.175113E-1,-4.1439608E-1,-1.0284317E0,-3.4849375E-1,-5.3005207E-2,3.6069146E-1,-6.281704E-1,-1.2315616E-1,-4.0092525E-1,4.332924E-1,-2.0609833E-1,1.874266E-2,9.318029E-2,4.8979914E-1,1.4981522E-1,-1.4470097E-1,2.101415E-1,8.425301E-1,4.446709E-1,6.7576164E-1,1.9526999E-1,5.9519786E-1,-3.211341E-1,-6.4311093E-1,-4.6880554E-2,-2.8758836E-1,-7.006723E-1,-4.0068582E-1,6.792111E-2,4.461133E-1,-2.385164E-1,7.766407E-2,2.5631118E-1,6.0656565E-1,-1.6319638E-1,2.0640124E-1,1.1450793E0,1.7515953E0,4.1531244E-1,7.4200404E-1,1.2927959E0,6.3898224E-1,7.333807E-1,1.1670817E0,1.257268E0,1.8528769E0,8.3588696E-1,1.1951894E0,1.8082532E0,2.1554122E0,1.4817686E0,1.7509147E0,2.1004763E0,2.4678004E0],"categories":[],"categories_nodes":[],"categories_segments":[],"categories_sizes":[],"default_left":[0,0,0,0,0,0,0,0,0,0,0,0,0,0,0,0,0,0,0,0,0,0,0,0,0,0,0,0,0,0,0,0,0,0,0,0,0,0,0,0,0,0,0,0,0,0,0,0,0,0,0,0,0,0,0,0,0,0,0,0,0,0,0,0,0,0,0,0,0,0,0,0,0,0,0,0,0,0,0,0,0,0,0,0,0,0,0,0,0,0,0,0,0,0,0,0,0,0,0,0,0,0,0,0,0,0,0,0,0,0,0,0,0,0,0,0,0,0,0,0,0,0,0,0,0,0,0],"id":1,"left_children":[1,3,5,7,9,11,13,15,17,19,21,23,25,27,29,31,33,35,37,39,41,43,45,47,49,51,53,55,57,59,61,63,65,67,69,71,73,75,77,79,81,83,85,87,89,91,93,95,97,99,101,103,105,107,109,111,113,115,117,119,121,123,125,-1,-1,-1,-1,-1,-1,-1,-1,-1,-1,-1,-1,-1,-1,-1,-1,-1,-1,-1,-1,-1,-1,-1,-1,-1,-1,-1,-1,-1,-1,-1,-1,-1,-1,-1,-1,-1,-1,-1,-1,-1,-1,-1,-1,-1,-1,-1,-1,-1,-1,-1,-1,-1,-1,-1,-1,-1,-1,-1,-1,-1,-1,-1,-1],"loss_changes":[1.7281165E6,5.57696E5,3.8406012E5,6.010575E4,1.6256077E5,2.46759E4,8.5201E4,2.3383875E4,2.8190312E3,3.364033E4,2.4346668E4,1.2572199E4,1.0055236E4,7.403006E4,1.05993125E4,1.40801875E4,7.0619375E3,2.1748945E3,1.0081992E3,8.330719E3,2.601503E3,1.1735697E4,2.167961E3,7.6342207E3,9.56231E3,7.71887E3,1.6243916E3,5.4444375E4,1.2424969E4,6.3794844E3,1.8960156E3,4.3989375E3,8.205875E3,4.804375E3,2.2468867E3,4.5924023E2,8.9822266E2,7.462881E2,2.0541827E2,4.5247656E3,2.1578828E3,1.6811846E3,8.054255E2,8.828723E3,3.5567695E3,9.922969E2,4.5073984E3,2.4937227E3,4.4960327E3,5.377671E2,5.0054106E3,1.7093687E3,3.7723438E3,3.8942696E1,7.1143945E2,3.2861938E4,1.2048781E4,1.0459031E4,3.7009688E3,4.363578E3,2.6866016E2,1.01459375E3,1.2123242E2,0E0,0E0,0E0,0E0,0E0,0E0,0E0,0E0,0E0,0E0,0E0,0E0,0E0,0E0,0E0,0E0,0E0,0E0,0E0,0E0,0E0,0E0,0E0,0E0,0E0,0E0,0E0,0E0,0E0,0E0,0E0,0E0,0E0,0E0,0E0,0E0,0E0,0E0,0E0,0E0,0E0,0E0,0E0,0E0,0E0,0E0,0E0,0E0,0E0,0E0,0E0,0E0,0E0,0E0,0E0,0E0,0E0,0E0,0E0,0E0,0E0,0E0,0E0,0E0],"parents":[2147483647,0,0,1,1,2,2,3,3,4,4,5,5,6,6,7,7,8,8,9,9,10,10,11,11,12,12,13,13,14,14,15,15,16,16,17,17,18,18,19,19,20,20,21,21,22,22,23,23,24,24,25,25,26,26,27,27,28,28,29,29,30,30,31,31,32,32,33,33,34,34,35,35,36,36,37,37,38,38,39,39,40,40,41,41,42,42,43,43,44,44,45,45,46,46,47,47,48,48,49,49,50,50,51,51,52,52,53,53,54,54,55,55,56,56,57,57,58,58,59,59,60,60,61,61,62,62],"right_children":[2,4,6,8,10,12,14,16,18,20,22,24,26,28,30,32,34,36,38,40,42,44,46,48,50,52,54,56,58,60,62,64,66,68,70,72,74,76,78,80,82,84,86,88,90,92,94,96,98,100,102,104,106,108,110,112,114,116,118,120,122,124,126,-1,-1,-1,-1,-1,-1,-1,-1,-1,-1,-1,-1,-1,-1,-1,-1,-1,-1,-1,-1,-1,-1,-1,-1,-1,-1,-1,-1,-1,-1,-1,-1,-1,-1,-1,-1,-1,-1,-1,-1,-1,-1,-1,-1,-1,-1,-1,-1,-1,-1,-1,-1,-1,-1,-1,-1,-1,-1,-1,-1,-1,-1,-1,-1],"split_conditions":[2.01E3,8.5E1,8.5E1,2.008E3,4E0,2.021E3,8E0,7.2E1,1.6E1,2.008E3,1.38E2,1E1,1.8E1,2.022E3,2.021E3,5.8E1,1.6E1,6.47E1,3E0,1.6E1,1.3E1,2.008E3,2.003E3,6.7E1,5.7E1,6.7E1,5.91E1,1.7E1,2.005E3,2E1,2.3E1,3.4E1,2.003E3,7.8E1,3E0,1E1,7.5E1,5.6E1,2E0,1.7E1,1.8E1,1.6E1,1.8E1,2.002E3,1.8E1,1.6E1,2.008E3,2.017E3,2.017E3,4.7E1,3E0,5.91E1,1.999E3,1E1,3E0,1.12E2,2.3E1,4E0,2.3E1,2.012E3,1.6E1,2.023E3,4E0,-3.0067828E0,-1.7309982E0,-1.4075551E0,-1.1592596E0,-1.1986601E0,-9.331049E-1,-8.463348E-1,-4.9331445E-1,-9.7787464E-1,-7.3273677E-1,-6.175113E-1,-4.1439608E-1,-1.0284317E0,-3.4849375E-1,-5.3005207E-2,3.6069146E-1,-6.281704E-1,-1.2315616E-1,-4.0092525E-1,4.332924E-1,-2.0609833E-1,1.874266E-2,9.318029E-2,4.8979914E-1,1.4981522E-1,-1.4470097E-1,2.101415E-1,8.425301E-1,4.446709E-1,6.7576164E-1,1.9526999E-1,5.9519786E-1,-3.211341E-1,-6.4311093E-1,-4.6880554E-2,-2.8758836E-1,-7.006723E-1,-4.0068582E-1,6.792111E-2,4.461133E-1,-2.385164E-1,7.766407E-2,2.5631118E-1,6.0656565E-1,-1.6319638E-1,2.0640124E-1,1.1450793E0,1.7515953E0,4.1531244E-1,7.4200404E-1,1.2927959E0,6.3898224E-1,7.333807E-1,1.1670817E0,1.257268E0,1.8528769E0,8.3588696E-1,1.1951894E0,1.8082532E0,2.1554122E0,1.4817686E0,1.7509147E0,2.1004763E0,2.4678004E0],"split_indices":[0,1,1,0,5,0,6,1,4,0,1,4,3,0,0,1,4,1,5,4,3,0,0,1,1,1,1,3,2,3,3,1,0,1,5,4,1,1,6,3,3,4,3,0,3,4,0,0,0,1,5,1,2,4,5,1,4,5,3,0,4,0,5,0,0,0,0,0,0,0,0,0,0,0,0,0,0,0,0,0,0,0,0,0,0,0,0,0,0,0,0,0,0,0,0,0,0,0,0,0,0,0,0,0,0,0,0,0,0,0,0,0,0,0,0,0,0,0,0,0,0,0,0,0,0,0,0],"split_type":[0,0,0,0,0,0,0,0,0,0,0,0,0,0,0,0,0,0,0,0,0,0,0,0,0,0,0,0,0,0,0,0,0,0,0,0,0,0,0,0,0,0,0,0,0,0,0,0,0,0,0,0,0,0,0,0,0,0,0,0,0,0,0,0,0,0,0,0,0,0,0,0,0,0,0,0,0,0,0,0,0,0,0,0,0,0,0,0,0,0,0,0,0,0,0,0,0,0,0,0,0,0,0,0,0,0,0,0,0,0,0,0,0,0,0,0,0,0,0,0,0,0,0,0,0,0,0],"sum_hessian":[5.70601E5,2.7843E5,2.92171E5,1.02896E5,1.75534E5,9.0557E4,2.01614E5,8.5895E4,1.7001E4,9.5517E4,8.0017E4,6.8154E4,2.2403E4,1.77525E5,2.4089E4,5.4085E4,3.181E4,1.3995E4,3.006E3,7.8413E4,1.7104E4,6.016E4,1.9857E4,4.2274E4,2.588E4,2.1329E4,1.074E3,1.44477E5,3.3048E4,1.7733E4,6.356E3,4.862E3,4.9223E4,2.454E4,7.27E3,2.788E3,1.1207E4,2.471E3,5.35E2,5.859E4,1.9823E4,1.4592E4,2.512E3,4.5846E4,1.4314E4,7.736E3,1.2121E4,1.0009E4,3.2265E4,2.27E3,2.361E4,6.351E3,1.4978E4,1.09E2,9.65E2,1.30463E5,1.4014E4,2.025E4,1.2798E4,1.6904E4,8.29E2,6.013E3,3.43E2,2.57E2,4.605E3,2.0626E4,2.8597E4,1.2114E4,1.2426E4,4.823E3,2.447E3,1.535E3,1.253E3,8.673E3,2.534E3,1.55E2,2.316E3,3.85E2,1.5E2,5.6947E4,1.643E3,1.954E4,2.83E2,1.0388E4,4.204E3,1.904E3,6.08E2,1.2652E4,3.3194E4,1.3463E4,8.51E2,5.288E3,2.448E3,8.507E3,3.614E3,6.841E3,3.168E3,2.2042E4,1.0223E4,8.78E2,1.392E3,1.9867E4,3.743E3,2.618E3,3.733E3,1.1314E4,3.664E3,4.1E1,6.8E1,7.36E2,2.29E2,9.0525E4,3.9938E4,1.0687E4,3.327E3,1.1203E4,9.047E3,1.1777E4,1.021E3,3.981E3,1.2923E4,4.6E2,3.69E2,4.203E3,1.81E3,1.68E2,1.75E2],"tree_param":{"num_deleted":"0","num_feature":"7","num_nodes":"127","size_leaf_vector":"1"}},{"base_weights":[2.8917275E-6,-1.2479013E0,1.1892177E0,-2.5418708E0,-4.8938966E-1,-1.2431843E-1,1.6827976E0,-2.8486903E0,-1.5873731E0,-1.13501E0,2.2668307E-1,-2.9484E-1,6.8356395E-1,1.41929E0,2.7498515E0,-3.7012393E0,-2.6359766E0,-1.8693495E0,-1.0789683E0,-1.3319007E0,-2.409805E-1,-4.9954418E-2,8.236692E-1,-1.4416617E0,-2.0564227E-1,3.4414506E-1,1.4988472E0,9.455447E-1,2.2525315E0,2.5855587E0,4.7831635E0,-5.0072956E0,-3.4954476E0,-2.7806258E0,-1.8756411E0,-1.9586571E0,-1.407341E-1,-1.3184026E0,-6.9570535E-1,-1.7385043E0,-1.1742328E0,-3.187776E-1,8.240132E-1,-2.4395105E-1,6.087296E-1,1.5626279E0,7.141652E-1,-2.080539E0,-1.1408113E0,-3.3229607E-1,7.4359655E-1,-1.3409266E0,4.445317E-1,8.244434E-2,1.8929845E0,7.4332726E-1,1.6407492E0,1.9302907E0,2.9750113E0,2.2266846E0,3.4080412E0,4.951359E0,1.1453346E0,-2.1585748E0,-1.4165074E0,-1.0856138E0,-5.426668E-1,-8.805745E-1,-6.670185E-1,-6.150325E-1,-3.775857E-1,-7.50264E-1,-5.439541E-1,-9.8859566E-1,3.7074054E-4,-5.9415615E-1,-3.6196008E-1,-5.8987427E-1,-1.7112896E-1,-4.2966852E-1,-6.116101E-1,-3.7847787E-1,-1.398488E-1,-2.1223173E-1,-5.2475777E-2,3.473839E-1,-6.864981E-2,-1.1793072E-1,1.2508592E-1,7.2617686E-1,7.603926E-2,3.5659254E-1,5.633692E-1,1.6626081E-1,3.9017257E-1,-5.307049E-1,-7.732703E-1,-2.4529538E-1,-4.3754622E-1,-1.0882888E-1,1.087496E0,3.169191E-1,1.6069025E-2,-5.3761464E-1,-2.4552901E-1,7.70461E-2,3.5806525E-1,-1.0277642E-1,8.2106635E-2,4.7463003E-1,8.764552E-1,1.765952E-1,5.037278E-1,1.0486442E0,3.7430894E-1,5.0735205E-1,8.5287946E-1,8.3060974E-1,1.2260363E0,1.3504128E0,6.428767E-1,9.747747E-1,1.4101642E0,1.3746439E0,1.7725494E0,2.74014E-1,7.0940155E-1],"categories":[],"categories_nodes":[],"categories_segments":[],"categories_sizes":[],"default_left":[0,0,0,0,0,0,0,0,0,0,0,0,0,0,0,0,0,0,0,0,0,0,0,0,0,0,0,0,0,0,0,0,0,0,0,0,0,0,0,0,0,0,0,0,0,0,0,0,0,0,0,0,0,0,0,0,0,0,0,0,0,0,0,0,0,0,0,0,0,0,0,0,0,0,0,0,0,0,0,0,0,0,0,0,0,0,0,0,0,0,0,0,0,0,0,0,0,0,0,0,0,0,0,0,0,0,0,0,0,0,0,0,0,0,0,0,0,0,0,0,0,0,0,0,0,0,0],"id":2,"left_children":[1,3,5,7,9,11,13,15,17,19,21,23,25,27,29,31,33,35,37,39,41,43,45,47,49,51,53,55,57,59,61,63,65,67,69,71,73,75,77,79,81,83,85,87,89,91,93,95,97,99,101,103,105,107,109,111,113,115,117,119,121,123,125,-1,-1,-1,-1,-1,-1,-1,-1,-1,-1,-1,-1,-1,-1,-1,-1,-1,-1,-1,-1,-1,-1,-1,-1,-1,-1,-1,-1,-1,-1,-1,-1,-1,-1,-1,-1,-1,-1,-1,-1,-1,-1,-1,-1,-1,-1,-1,-1,-1,-1,-1,-1,-1,-1,-1,-1,-1,-1,-1,-1,-1,-1,-1,-1],"loss_changes":[8.4678706E5,2.7327622E5,1.894249E5,3.0133062E4,8.1151484E4,1.0993492E4,5.971275E4,1.41193125E4,3.5877734E3,1.6248453E4,1.3744767E4,6.7402695E3,3.8484487E3,6.7229125E4,1.4047906E4,4.1763438E3,6.8529062E3,2.4852734E3,8.1918945E2,4.849172E3,1.3803215E3,7.2672363E3,2.132205E3,9.1340137E2,7.350295E3,1.6611257E3,2.281997E3,1.5263969E4,1.43711875E4,1.1484906E4,1.9225938E3,1.3177383E3,2.79125E3,4.5099375E3,1.0717227E3,1.2067109E3,3.546288E2,4.0654102E2,5.462323E2,1.9427734E3,3.3716562E3,8.679977E2,3.988463E2,4.330707E3,8.328455E3,4.0048242E2,2.1528271E3,2.3478467E2,3.3156396E2,6.503263E3,1.553325E3,1.297276E2,1.3029138E3,7.235434E1,1.0216963E3,1.2174293E4,1.7835047E4,9.3156875E3,4.3657188E3,5.1605156E3,2.4238281E3,1.0582031E3,3.879799E1,0E0,0E0,0E0,0E0,0E0,0E0,0E0,0E0,0E0,0E0,0E0,0E0,0E0,0E0,0E0,0E0,0E0,0E0,0E0,0E0,0E0,0E0,0E0,0E0,0E0,0E0,0E0,0E0,0E0,0E0,0E0,0E0,0E0,0E0,0E0,0E0,0E0,0E0,0E0,0E0,0E0,0E0,0E0,0E0,0E0,0E0,0E0,0E0,0E0,0E0,0E0,0E0,0E0,0E0,0E0,0E0,0E0,0E0,0E0,0E0,0E0,0E0,0E0,0E0],"parents":[2147483647,0,0,1,1,2,2,3,3,4,4,5,5,6,6,7,7,8,8,9,9,10,10,11,11,12,12,13,13,14,14,15,15,16,16,17,17,18,18,19,19,20,20,21,21,22,22,23,23,24,24,25,25,26,26,27,27,28,28,29,29,30,30,31,31,32,32,33,33,34,34,35,35,36,36,37,37,38,38,39,39,40,40,41,41,42,42,43,43,44,44,45,45,46,46,47,47,48,48,49,49,50,50,51,51,52,52,53,53,54,54,55,55,56,56,57,57,58,58,59,59,60,60,61,61,62,62],"right_children":[2,4,6,8,10,12,14,16,18,20,22,24,26,28,30,32,34,36,38,40,42,44,46,48,50,52,54,56,58,60,62,64,66,68,70,72,74,76,78,80,82,84,86,88,90,92,94,96,98,100,102,104,106,108,110,112,114,116,118,120,122,124,126,-1,-1,-1,-1,-1,-1,-1,-1,-1,-1,-1,-1,-1,-1,-1,-1,-1,-1,-1,-1,-1,-1,-1,-1,-1,-1,-1,-1,-1,-1,-1,-1,-1,-1,-1,-1,-1,-1,-1,-1,-1,-1,-1,-1,-1,-1,-1,-1,-1,-1,-1,-1,-1,-1,-1,-1,-1,-1,-1,-1,-1,-1,-1,-1],"split_conditions":[2.01E3,8.5E1,3E0,2.007E3,1.1E2,2.022E3,2.005E3,6.47E1,2.009E3,2.008E3,1.3E2,5.8E1,2.001E3,1.17E2,2.6E1,5.2E1,1.6E1,1.9E1,1E1,4E0,1.7E1,1.8E1,2.001E3,4.6E1,1.8E1,5.8E1,2E0,1.8E1,1.38E2,9.7E1,2.3E1,3.4E1,1.9E1,7.8E1,3E0,6.47E1,1.974E3,6.47E1,5.7E1,6E0,1.3E1,4E0,7E0,1.3E1,2.1E1,1E1,2.008E3,2.017E3,2.016E3,8E0,2.1E1,5.2E1,1.4E1,2.023E3,1.7E1,2.022E3,2.1E1,1.8E1,2.022E3,2E0,1.15E2,4E0,9.7E1,-2.1585748E0,-1.4165074E0,-1.0856138E0,-5.426668E-1,-8.805745E-1,-6.670185E-1,-6.150325E-1,-3.775857E-1,-7.50264E-1,-5.439541E-1,-9.8859566E-1,3.7074054E-4,-5.9415615E-1,-3.6196008E-1,-5.8987427E-1,-1.7112896E-1,-4.2966852E-1,-6.116101E-1,-3.7847787E-1,-1.398488E-1,-2.1223173E-1,-5.2475777E-2,3.473839E-1,-6.864981E-2,-1.1793072E-1,1.2508592E-1,7.2617686E-1,7.603926E-2,3.5659254E-1,5.633692E-1,1.6626081E-1,3.9017257E-1,-5.307049E-1,-7.732703E-1,-2.4529538E-1,-4.3754622E-1,-1.0882888E-1,1.087496E0,3.169191E-1,1.6069025E-2,-5.3761464E-1,-2.4552901E-1,7.70461E-2,3.5806525E-1,-1.0277642E-1,8.2106635E-2,4.7463003E-1,8.764552E-1,1.765952E-1,5.037278E-1,1.0486442E0,3.7430894E-1,5.0735205E-1,8.5287946E-1,8.3060974E-1,1.2260363E0,1.3504128E0,6.428767E-1,9.747747E-1,1.4101642E0,1.3746439E0,1.7725494E0,2.74014E-1,7.0940155E-1],"split_indices":[0,1,5,0,1,0,2,1,0,0,1,1,2,1,3,1,4,4,4,6,3,4,0,1,4,1,5,4,1,1,4,1,4,1,5,1,2,1,1,4,3,6,6,3,4,4,0,0,0,6,4,1,4,0,3,0,4,4,0,4,1,5,1,0,0,0,0,0,0,0,0,0,0,0,0,0,0,0,0,0,0,0,0,0,0,0,0,0,0,0,0,0,0,0,0,0,0,0,0,0,0,0,0,0,0,0,0,0,0,0,0,0,0,0,0,0,0,0,0,0,0,0,0,0,0,0,0],"split_type":[0,0,0,0,0,0,0,0,0,0,0,0,0,0,0,0,0,0,0,0,0,0,0,0,0,0,0,0,0,0,0,0,0,0,0,0,0,0,0,0,0,0,0,0,0,0,0,0,0,0,0,0,0,0,0,0,0,0,0,0,0,0,0,0,0,0,0,0,0,0,0,0,0,0,0,0,0,0,0,0,0,0,0,0,0,0,0,0,0,0,0,0,0,0,0,0,0,0,0,0,0,0,0,0,0,0,0,0,0,0,0,0,0,0,0,0,0,0,0,0,0,0,0,0,0,0,0],"sum_hessian":[5.70601E5,2.7843E5,2.92171E5,1.02896E5,1.75534E5,7.9801E4,2.1237E5,7.7866E4,2.503E4,9.2308E4,8.3226E4,6.5893E4,1.3908E4,1.70312E5,4.2058E4,1.5548E4,6.2318E4,1.61E4,8.93E3,7.5648E4,1.666E4,5.6872E4,2.6354E4,4.755E3,6.1138E4,9.82E3,4.088E3,1.08579E5,6.1733E4,3.8914E4,3.144E3,2.116E3,1.3432E4,5.2357E4,9.961E3,1.5309E4,7.91E2,5.496E3,3.434E3,2.1137E4,5.4511E4,1.5526E4,1.134E3,4.3933E4,1.2939E4,3.401E3,2.2953E4,1.522E3,3.233E3,5.3941E4,7.197E3,5.52E2,9.268E3,8.9E2,3.198E3,8.4113E4,2.4466E4,4.2692E4,1.9041E4,2.7093E4,1.1821E4,3.005E3,1.39E2,2.44E2,1.872E3,1.2517E4,9.15E2,4.0984E4,1.1373E4,7.765E3,2.196E3,3.238E3,1.2071E4,3.4E1,7.57E2,7.94E2,4.702E3,3.08E2,3.126E3,1.0463E4,1.0674E4,4.8524E4,5.987E3,4.194E3,1.1332E4,8.61E2,2.73E2,3.5844E4,8.089E3,2.121E3,1.0818E4,1.556E3,1.845E3,1.8034E4,4.919E3,9.36E2,5.86E2,1.603E3,1.63E3,5.3529E4,4.12E2,4.952E3,2.245E3,2.96E2,2.56E2,7.411E3,1.857E3,2.76E2,6.14E2,2.456E3,7.42E2,7.2182E4,1.1931E4,4.278E3,2.0188E4,3.3829E4,8.863E3,1.6061E4,2.98E3,9.62E2,2.6131E4,1.0528E4,1.293E3,2.169E3,8.36E2,1.17E2,2.2E1],"tree_param":{"num_deleted":"0","num_feature":"7","num_nodes":"127","size_leaf_vector":"1"}},{"base_weights":[3.1432123E-6,-9.679314E-1,7.602399E-1,-1.8421185E0,-3.9854595E-1,-8.2857646E-2,1.1413237E0,-2.161063E0,-1.5241846E0,-8.539885E-1,8.8005126E-2,-1.5773802E-1,1.480569E0,9.123426E-1,1.8091049E0,-2.9627566E0,-1.9828798E0,-1.6745591E0,-1.0611416E0,-9.39002E-1,-2.515876E-1,-1.01267636E-1,6.257631E-1,-8.025663E-1,4.1696173E-3,1.097074E0,2.9131143E0,8.2567614E-1,2.620517E0,1.4514457E0,2.2560134E0,-3.734966E0,-2.692567E0,-2.1145544E0,-1.3317294E0,-1.7739849E0,-1.1976429E0,-1.279999E0,-5.3311914E-1,-3.320467E-1,-1.0169208E0,1.1791204E0,-5.4321575E-1,-4.2176515E-1,1.3953395E-1,9.226391E-1,3.1034106E-1,-9.716807E-1,-4.970897E-1,-2.206216E-1,3.8861376E-1,7.711977E-1,2.0291612E0,3.0296369E0,-7.496552E-2,5.0238395E-1,1.1799589E0,2.816856E0,9.399974E-1,1.0483525E0,1.9082346E0,2.1414826E0,3.1103027E0,-1.6643534E0,-1.0718137E0,-9.060629E-1,-5.672795E-1,-5.153979E-1,-6.815007E-1,-4.5969102E-1,-2.4987452E-1,-5.555062E-1,-3.9566448E-1,-4.2332888E-1,-2.4942575E-1,-2.2236927E-1,-4.2257604E-1,-3.8083485E-1,4.11343E-3,-1.6458909E-1,1.9470151E-3,-3.4224325E-1,-1.543862E-1,5.89707E-2,6.033904E-1,-2.2338329E-2,-2.5037444E-1,4.8562035E-2,-2.2801176E-1,5.7134974E-1,1.2548256E-2,1.5721971E-1,3.373558E-1,4.532991E-2,2.780671E-1,-3.520791E-1,-2.2067684E-1,2.6909316E-2,-2.128244E-1,5.7771415E-2,-1.198644E-1,1.0476542E-1,9.8454356E-1,-3.3728515E-3,3.5295856E-1,6.686498E-1,2.113294E-2,6.2543666E-1,1.0282173E0,-5.405241E-2,1.2870507E-1,1.0602001E-1,3.8222238E-1,1.9388542E-1,4.0894338E-1,7.297831E-1,1.16144E0,1.6902744E0,2.6628256E-1,2.3871289E-1,4.409791E-1,6.7046463E-1,4.1322172E-1,5.175375E-1,7.188411E-1,8.8103604E-1,1.5001614E0],"categories":[],"categories_nodes":[],"categories_segments":[],"categories_sizes":[],"default_left":[0,0,0,0,0,0,0,0,0,0,0,0,0,0,0,0,0,0,0,0,0,0,0,0,0,0,0,0,0,0,0,0,0,0,0,0,0,0,0,0,0,0,0,0,0,0,0,0,0,0,0,0,0,0,0,0,0,0,0,0,0,0,0,0,0,0,0,0,0,0,0,0,0,0,0,0,0,0,0,0,0,0,0,0,0,0,0,0,0,0,0,0,0,0,0,0,0,0,0,0,0,0,0,0,0,0,0,0,0,0,0,0,0,0,0,0,0,0,0,0,0,0,0,0,0,0,0],"id":3,"left_children":[1,3,5,7,9,11,13,15,17,19,21,23,25,27,29,31,33,35,37,39,41,43,45,47,49,51,53,55,57,59,61,63,65,67,69,71,73,75,77,79,81,83,85,87,89,91,93,95,97,99,101,103,105,107,109,111,113,115,117,119,121,123,125,-1,-1,-1,-1,-1,-1,-1,-1,-1,-1,-1,-1,-1,-1,-1,-1,-1,-1,-1,-1,-1,-1,-1,-1,-1,-1,-1,-1,-1,-1,-1,-1,-1,-1,-1,-1,-1,-1,-1,-1,-1,-1,-1,-1,-1,-1,-1,-1,-1,-1,-1,-1,-1,-1,-1,-1,-1,-1,-1,-1,-1,-1,-1,-1],"loss_changes":[4.1988225E5,1.249408E5,1.0268119E5,1.0038844E4,3.368404E4,1.1646842E4,3.3655188E4,7.0590938E3,3.4519453E3,4.0206797E3,7.4804033E3,9.912075E3,2.497338E3,2.4263594E4,8.982547E3,1.8734375E3,3.4664531E3,1.7742109E3,1.4044131E3,3.253754E3,4.051391E3,4.1953457E3,1.7914951E3,9.841494E2,6.5580767E3,1.0891284E3,3.346045E2,1.786604E4,2.610621E3,5.7476484E3,2.4432188E3,6.822051E2,1.7476875E3,2.094875E3,6.8018066E2,1.0946094E3,5.044209E2,5.95001E2,1.4343997E3,5.7402277E2,3.7942578E3,1.3440552E3,1.1015627E3,4.6043516E3,5.352442E3,7.928369E2,9.107051E2,5.843584E2,8.460443E2,3.5403013E3,3.1909604E3,8.4312695E2,3.63125E2,3.4602637E2,1.8969963E0,9.37683E3,7.2757266E3,2.8699297E3,2.0249915E2,1.7660059E3,2.5367969E3,2.3349688E3,9.663125E2,0E0,0E0,0E0,0E0,0E0,0E0,0E0,0E0,0E0,0E0,0E0,0E0,0E0,0E0,0E0,0E0,0E0,0E0,0E0,0E0,0E0,0E0,0E0,0E0,0E0,0E0,0E0,0E0,0E0,0E0,0E0,0E0,0E0,0E0,0E0,0E0,0E0,0E0,0E0,0E0,0E0,0E0,0E0,0E0,0E0,0E0,0E0,0E0,0E0,0E0,0E0,0E0,0E0,0E0,0E0,0E0,0E0,0E0,0E0,0E0,0E0,0E0,0E0,0E0],"parents":[2147483647,0,0,1,1,2,2,3,3,4,4,5,5,6,6,7,7,8,8,9,9,10,10,11,11,12,12,13,13,14,14,15,15,16,16,17,17,18,18,19,19,20,20,21,21,22,22,23,23,24,24,25,25,26,26,27,27,28,28,29,29,30,30,31,31,32,32,33,33,34,34,35,35,36,36,37,37,38,38,39,39,40,40,41,41,42,42,43,43,44,44,45,45,46,46,47,47,48,48,49,49,50,50,51,51,52,52,53,53,54,54,55,55,56,56,57,57,58,58,59,59,60,60,61,61,62,62],"right_children":[2,4,6,8,10,12,14,16,18,20,22,24,26,28,30,32,34,36,38,40,42,44,46,48,50,52,54,56,58,60,62,64,66,68,70,72,74,76,78,80,82,84,86,88,90,92,94,96,98,100,102,104,106,108,110,112,114,116,118,120,122,124,126,-1,-1,-1,-1,-1,-1,-1,-1,-1,-1,-1,-1,-1,-1,-1,-1,-1,-1,-1,-1,-1,-1,-1,-1,-1,-1,-1,-1,-1,-1,-1,-1,-1,-1,-1,-1,-1,-1,-1,-1,-1,-1,-1,-1,-1,-1,-1,-1,-1,-1,-1,-1,-1,-1,-1,-1,-1,-1,-1,-1,-1,-1,-1,-1],"split_conditions":[2.009E3,8.91E1,8.5E1,2.004E3,1.1E2,1.7E1,2.021E3,6.47E1,7.5E1,1.8E1,1.36E2,2.011E3,2.6E1,1.8E1,4E0,5.7E1,1.6E1,2.008E3,4E0,2.001E3,1.9E1,1E1,2.004E3,7.2E1,6.9E1,6.88E1,2E1,4E0,2.3E1,2.005E3,1E1,3.7E1,1.4E1,2.001E3,1.9E1,1.6E1,1E1,1.981E3,3E0,1E1,2.007E3,1.989E3,1.993E3,6E0,1.2E1,1.992E3,2.008E3,8E0,1.981E3,2.015E3,7E0,1E1,2.1E1,8E0,2.023E3,2.005E3,2.011E3,1.8E1,1.975E3,2.023E3,2.3E1,8E0,2.2E1,-1.6643534E0,-1.0718137E0,-9.060629E-1,-5.672795E-1,-5.153979E-1,-6.815007E-1,-4.5969102E-1,-2.4987452E-1,-5.555062E-1,-3.9566448E-1,-4.2332888E-1,-2.4942575E-1,-2.2236927E-1,-4.2257604E-1,-3.8083485E-1,4.11343E-3,-1.6458909E-1,1.9470151E-3,-3.4224325E-1,-1.543862E-1,5.89707E-2,6.033904E-1,-2.2338329E-2,-2.5037444E-1,4.8562035E-2,-2.2801176E-1,5.7134974E-1,1.2548256E-2,1.5721971E-1,3.373558E-1,4.532991E-2,2.780671E-1,-3.520791E-1,-2.2067684E-1,2.6909316E-2,-2.128244E-1,5.7771415E-2,-1.198644E-1,1.0476542E-1,9.8454356E-1,-3.3728515E-3,3.5295856E-1,6.686498E-1,2.113294E-2,6.2543666E-1,1.0282173E0,-5.405241E-2,1.2870507E-1,1.0602001E-1,3.8222238E-1,1.9388542E-1,4.0894338E-1,7.297831E-1,1.16144E0,1.6902744E0,2.6628256E-1,2.3871289E-1,4.409791E-1,6.7046463E-1,4.1322172E-1,5.175375E-1,7.188411E-1,8.8103604E-1,1.5001614E0],"split_indices":[0,1,1,0,1,3,0,1,1,4,1,0,3,3,5,1,4,0,6,0,4,4,0,1,1,1,4,5,4,2,6,1,4,0,4,4,4,2,5,4,0,2,2,4,4,2,0,3,2,0,6,4,4,4,0,2,0,4,2,0,4,3,4,0,0,0,0,0,0,0,0,0,0,0,0,0,0,0,0,0,0,0,0,0,0,0,0,0,0,0,0,0,0,0,0,0,0,0,0,0,0,0,0,0,0,0,0,0,0,0,0,0,0,0,0,0,0,0,0,0,0,0,0,0,0,0,0],"split_type":[0,0,0,0,0,0,0,0,0,0,0,0,0,0,0,0,0,0,0,0,0,0,0,0,0,0,0,0,0,0,0,0,0,0,0,0,0,0,0,0,0,0,0,0,0,0,0,0,0,0,0,0,0,0,0,0,0,0,0,0,0,0,0,0,0,0,0,0,0,0,0,0,0,0,0,0,0,0,0,0,0,0,0,0,0,0,0,0,0,0,0,0,0,0,0,0,0,0,0,0,0,0,0,0,0,0,0,0,0,0,0,0,0,0,0,0,0,0,0,0,0,0,0,0,0,0,0],"sum_hessian":[5.70601E5,2.51012E5,3.19589E5,9.9006E4,1.52006E5,9.9487E4,2.20102E5,4.9424E4,4.9582E4,7.8513E4,7.3493E4,9.494E4,4.547E3,1.63901E5,5.6201E4,8.987E3,4.0437E4,3.7427E4,1.2155E4,6.8803E4,9.71E3,5.436E4,1.9133E4,1.9054E4,7.5886E4,3.587E3,9.6E2,1.55987E5,7.914E3,3.1218E4,2.4983E4,2.329E3,6.658E3,3.3635E4,6.802E3,3.097E4,6.457E3,8.593E3,3.562E3,7.828E3,6.0975E4,1.644E3,8.066E3,2.3321E4,3.1039E4,9.856E3,9.277E3,1.2264E4,6.79E3,4.7886E4,2.8E4,2.658E3,9.29E2,9.24E2,3.6E1,8.1561E4,7.4426E4,7.086E3,8.28E2,1.6584E4,1.4634E4,2.203E4,2.953E3,1.91E2,2.138E3,4.726E3,1.932E3,9.545E3,2.409E4,4.851E3,1.951E3,2.6453E4,4.517E3,4.079E3,2.378E3,1.656E3,6.937E3,1.518E3,2.044E3,4.774E3,3.054E3,4.8911E4,1.2064E4,7.54E2,8.9E2,3.092E3,4.974E3,8.557E3,1.4764E4,1.628E3,2.9411E4,3.314E3,6.542E3,7.373E3,1.904E3,6.61E3,5.654E3,1.804E3,4.986E3,1.447E4,3.3416E4,2.7624E4,3.76E2,9.07E2,1.751E3,8.43E2,8.6E1,2.74E2,6.5E2,3E1,6E0,6.8363E4,1.3198E4,1.9019E4,5.5407E4,5.194E3,1.892E3,9E0,8.19E2,1.037E4,6.214E3,9.059E3,5.575E3,8.361E3,1.3669E4,2.705E3,2.48E2],"tree_param":{"num_deleted":"0","num_feature":"7","num_nodes":"127","size_leaf_vector":"1"}},{"base_weights":[3.5635903E-6,-5.575724E-1,6.6259396E-1,-9.208309E-1,9.199508E-2,-3.3333894E-2,9.022947E-1,-1.2703986E0,-6.059827E-1,-8.293856E-2,3.924332E-1,-1.5953955E-1,6.815767E-1,7.447999E-1,1.5396241E0,-1.4641702E0,-6.719389E-1,-8.0769277E-1,-2.1465148E-1,-2.7371094E-1,3.337595E-1,3.3354416E-1,1.4678282E0,-2.2195527E-1,1.120839E0,-2.3025312E-1,8.9321E-1,6.2834126E-1,1.5846629E0,1.7758728E0,8.65581E-1,-1.7415831E0,-1.2599767E0,-8.3818024E-1,-3.9839694E-1,-3.8699296E-1,-8.729015E-1,-4.758408E-1,1.9405223E-2,3.7310806E-1,-3.6866146E-1,1.7951748E0,2.6157615E-1,2.600627E-1,9.1634303E-1,2.0966618E0,6.866879E-1,1.8498378E-1,-4.3781114E-1,-1.109526E0,1.2969035E0,-6.887104E-1,8.0627516E-2,2.1806657E0,6.8227524E-1,4.9732232E-1,1.1542952E0,1.4975992E0,2.972038E0,1.5002981E0,3.1018858E0,7.5264144E-1,1.7102937E0,-8.2577765E-1,-5.0030553E-1,-3.8905805E-1,-1.1883017E-1,-2.3118968E-1,-4.427316E-1,-1.5014133E-1,1.6020203E-1,-1.6901329E-1,-3.6118638E-2,-3.0986708E-1,-1.9891366E-1,-1.4759104E-1,1.1617625E0,2.4742539E-1,-1.2783211E-2,9.3248196E-2,5.690357E-1,-1.2721394E-1,2.2818275E-1,3.3290833E-1,7.588032E-1,3.3554573E-2,2.5163877E-1,5.7692407E-3,1.3509916E-1,2.1361755E-1,3.781062E-1,5.1339966E-1,8.006E-1,6.4601205E-2,3.766226E-1,-7.819594E-2,1.0845672E-1,-1.8866177E-1,4.4718795E-2,-2.0000923E-1,-3.8812873E-1,2.5104007E-1,4.7533244E-1,-1.537531E-1,-3.244101E-1,-4.1442893E-2,7.885632E-2,7.124532E-1,6.44682E-2,9.2953116E-2,3.564263E-1,2.529713E-1,9.7136974E-2,2.5026095E-1,4.1535643E-1,4.2231047E-1,7.5209147E-1,1.2479281E0,3.5651118E-1,5.94907E-1,1.7352086E-1,7.7464837E-1,1.0488051E0,8.612714E-2,2.887208E-1,5.498385E-1,2.3395918E-1],"categories":[],"categories_nodes":[],"categories_segments":[],"categories_sizes":[],"default_left":[0,0,0,0,0,0,0,0,0,0,0,0,0,0,0,0,0,0,0,0,0,0,0,0,0,0,0,0,0,0,0,0,0,0,0,0,0,0,0,0,0,0,0,0,0,0,0,0,0,0,0,0,0,0,0,0,0,0,0,0,0,0,0,0,0,0,0,0,0,0,0,0,0,0,0,0,0,0,0,0,0,0,0,0,0,0,0,0,0,0,0,0,0,0,0,0,0,0,0,0,0,0,0,0,0,0,0,0,0,0,0,0,0,0,0,0,0,0,0,0,0,0,0,0,0,0,0],"id":4,"left_children":[1,3,5,7,9,11,13,15,17,19,21,23,25,27,29,31,33,35,37,39,41,43,45,47,49,51,53,55,57,59,61,63,65,67,69,71,73,75,77,79,81,83,85,87,89,91,93,95,97,99,101,103,105,107,109,111,113,115,117,119,121,123,125,-1,-1,-1,-1,-1,-1,-1,-1,-1,-1,-1,-1,-1,-1,-1,-1,-1,-1,-1,-1,-1,-1,-1,-1,-1,-1,-1,-1,-1,-1,-1,-1,-1,-1,-1,-1,-1,-1,-1,-1,-1,-1,-1,-1,-1,-1,-1,-1,-1,-1,-1,-1,-1,-1,-1,-1,-1,-1,-1,-1,-1,-1,-1,-1],"loss_changes":[2.108055E5,7.311377E4,4.349629E4,2.187136E4,5.8407744E3,6.027139E3,1.946711E4,1.0919953E4,8.252898E3,5.583385E3,2.5896787E3,4.5373994E3,1.9342793E3,1.52105E4,6.1192734E3,4.0290469E3,1.04725E3,1.8925234E3,2.1740686E3,2.9589707E3,2.326547E3,1.6603135E3,1.0424595E3,4.7556216E3,1.0365059E3,2.6916876E2,2.2088071E3,9.411293E3,2.2866445E3,1.0397375E4,9.5116846E2,2.2524062E3,1.3053906E3,6.166592E2,8.287156E2,4.3532202E2,2.0052773E3,1.1786423E3,9.367916E2,5.8495197E2,2.6276304E3,5.217881E2,1.8164862E3,1.5777195E3,3.0478882E2,2.5833008E2,2.5371194E2,1.4762312E3,3.9666294E3,1.5471771E1,3.232378E2,5.2581116E1,4.486919E1,4.3678613E2,1.3166113E3,6.5632715E3,2.0068633E3,1.6162539E3,2.367667E3,1.0484387E4,1.00139844E3,8.590215E2,1.33646E2,0E0,0E0,0E0,0E0,0E0,0E0,0E0,0E0,0E0,0E0,0E0,0E0,0E0,0E0,0E0,0E0,0E0,0E0,0E0,0E0,0E0,0E0,0E0,0E0,0E0,0E0,0E0,0E0,0E0,0E0,0E0,0E0,0E0,0E0,0E0,0E0,0E0,0E0,0E0,0E0,0E0,0E0,0E0,0E0,0E0,0E0,0E0,0E0,0E0,0E0,0E0,0E0,0E0,0E0,0E0,0E0,0E0,0E0,0E0,0E0,0E0,0E0,0E0,0E0],"parents":[2147483647,0,0,1,1,2,2,3,3,4,4,5,5,6,6,7,7,8,8,9,9,10,10,11,11,12,12,13,13,14,14,15,15,16,16,17,17,18,18,19,19,20,20,21,21,22,22,23,23,24,24,25,25,26,26,27,27,28,28,29,29,30,30,31,31,32,32,33,33,34,34,35,35,36,36,37,37,38,38,39,39,40,40,41,41,42,42,43,43,44,44,45,45,46,46,47,47,48,48,49,49,50,50,51,51,52,52,53,53,54,54,55,55,56,56,57,57,58,58,59,59,60,60,61,61,62,62],"right_children":[2,4,6,8,10,12,14,16,18,20,22,24,26,28,30,32,34,36,38,40,42,44,46,48,50,52,54,56,58,60,62,64,66,68,70,72,74,76,78,80,82,84,86,88,90,92,94,96,98,100,102,104,106,108,110,112,114,116,118,120,122,124,126,-1,-1,-1,-1,-1,-1,-1,-1,-1,-1,-1,-1,-1,-1,-1,-1,-1,-1,-1,-1,-1,-1,-1,-1,-1,-1,-1,-1,-1,-1,-1,-1,-1,-1,-1,-1,-1,-1,-1,-1,-1,-1,-1,-1,-1,-1,-1,-1,-1,-1,-1,-1,-1,-1,-1,-1,-1,-1,-1,-1,-1,-1,-1,-1],"split_conditions":[2.011E3,1.05E2,7.8E1,8E1,1.24E2,2.002E3,1.3E1,2.008E3,2.007E3,2.008E3,2.2E1,1.9E1,2E0,1.32E2,2.3E1,2.003E3,1E1,2.001E3,8E0,2.001E3,1.979E3,1.3E1,1.993E3,2.015E3,1.974E3,2.021E3,6.6E1,2.022E3,2.2E1,1.8E1,2.023E3,5.9E1,1.9E1,9E0,1.3E1,1E1,1.992E3,9E0,2E0,2.2E1,1.8E1,1E1,1.3E1,1E1,1.7E1,2.007E3,2.001E3,2.012E3,2.022E3,1.972E3,8E0,2.015E3,2.023E3,2.2E1,2.022E3,2.015E3,1E1,1.56E2,1.993E3,1.2E1,1.998E3,6E0,1.8E1,-8.2577765E-1,-5.0030553E-1,-3.8905805E-1,-1.1883017E-1,-2.3118968E-1,-4.427316E-1,-1.5014133E-1,1.6020203E-1,-1.6901329E-1,-3.6118638E-2,-3.0986708E-1,-1.9891366E-1,-1.4759104E-1,1.1617625E0,2.4742539E-1,-1.2783211E-2,9.3248196E-2,5.690357E-1,-1.2721394E-1,2.2818275E-1,3.3290833E-1,7.588032E-1,3.3554573E-2,2.5163877E-1,5.7692407E-3,1.3509916E-1,2.1361755E-1,3.781062E-1,5.1339966E-1,8.006E-1,6.4601205E-2,3.766226E-1,-7.819594E-2,1.0845672E-1,-1.8866177E-1,4.4718795E-2,-2.0000923E-1,-3.8812873E-1,2.5104007E-1,4.7533244E-1,-1.537531E-1,-3.244101E-1,-4.1442893E-2,7.885632E-2,7.124532E-1,6.44682E-2,9.2953116E-2,3.564263E-1,2.529713E-1,9.7136974E-2,2.5026095E-1,4.1535643E-1,4.2231047E-1,7.5209147E-1,1.2479281E0,3.5651118E-1,5.94907E-1,1.7352086E-1,7.7464837E-1,1.0488051E0,8.612714E-2,2.887208E-1,5.498385E-1,2.3395918E-1],"split_indices":[0,1,1,1,1,2,3,0,0,0,4,4,5,1,4,0,4,0,3,0,2,3,2,0,2,0,1,0,4,4,0,1,4,4,3,4,2,6,4,4,3,4,3,4,3,0,2,0,0,2,3,2,0,4,0,0,4,1,2,4,2,6,3,0,0,0,0,0,0,0,0,0,0,0,0,0,0,0,0,0,0,0,0,0,0,0,0,0,0,0,0,0,0,0,0,0,0,0,0,0,0,0,0,0,0,0,0,0,0,0,0,0,0,0,0,0,0,0,0,0,0,0,0,0,0,0,0],"split_type":[0,0,0,0,0,0,0,0,0,0,0,0,0,0,0,0,0,0,0,0,0,0,0,0,0,0,0,0,0,0,0,0,0,0,0,0,0,0,0,0,0,0,0,0,0,0,0,0,0,0,0,0,0,0,0,0,0,0,0,0,0,0,0,0,0,0,0,0,0,0,0,0,0,0,0,0,0,0,0,0,0,0,0,0,0,0,0,0,0,0,0,0,0,0,0,0,0,0,0,0,0,0,0,0,0,0,0,0,0,0,0,0,0,0,0,0,0,0,0,0,0,0,0,0,0,0,0],"sum_hessian":[5.70601E5,3.09855E5,2.60746E5,1.98723E5,1.11132E5,6.6801E4,1.93945E5,9.4169E4,1.04554E5,7.0236E4,4.0896E4,5.6778E4,1.0023E4,1.55515E5,3.843E4,7.1136E4,2.3033E4,6.8992E4,3.5562E4,4.8179E4,2.2057E4,3.8773E4,2.123E3,5.4139E4,2.639E3,1.888E3,8.135E3,1.36577E5,1.8938E4,2.8456E4,9.974E3,3.016E4,4.0976E4,1.4326E4,8.707E3,9.259E3,5.9733E4,1.6807E4,1.8755E4,6.167E3,4.2012E4,1.038E3,2.1019E4,3.4432E4,4.341E3,1.176E3,9.47E2,1.8764E4,3.5375E4,1.93E2,2.446E3,7.63E2,1.125E3,1.145E3,6.99E3,1.0934E5,2.7237E4,1.782E4,1.118E3,2.356E4,4.896E3,8.798E3,1.176E3,2.054E3,2.8106E4,3.9298E4,1.678E3,1.2954E4,1.372E3,7.848E3,8.59E2,5.572E3,3.687E3,3.3893E4,2.584E4,1.6745E4,6.2E1,1.341E3,1.7414E4,5.925E3,2.42E2,4.0048E4,1.964E3,5.37E2,5.01E2,1.669E4,4.329E3,1.5197E4,1.9235E4,2.724E3,1.617E3,7.03E2,4.73E2,5.18E2,4.29E2,5.324E3,1.344E4,2.6687E4,8.688E3,5.7E1,1.36E2,9.41E2,1.505E3,5.27E2,2.36E2,5.11E2,6.14E2,1.042E3,1.03E2,4.026E3,2.964E3,3.6527E4,7.2813E4,1.1395E4,1.5842E4,1.6363E4,1.457E3,6.71E2,4.47E2,1.5463E4,8.097E3,2.112E3,2.784E3,2.733E3,6.065E3,1.039E3,1.37E2],"tree_param":{"num_deleted":"0","num_feature":"7","num_nodes":"127","size_leaf_vector":"1"}},{"base_weights":[5.6700865E-6,-3.902994E-1,4.638213E-1,-6.4458406E-1,6.4404264E-2,2.412419E-1,8.489669E-1,-9.558629E-1,-4.6804336E-1,-7.476358E-2,3.2526958E-1,6.101853E-2,8.117468E-1,2.4230824E0,7.992089E-1,-1.1263717E0,-5.952217E-1,-6.125911E-1,-1.7876351E-1,-2.0874871E-1,2.5197682E-1,1.8192747E-1,6.4151806E-1,-5.7724476E-2,4.8969007E-1,1.2253623E0,5.7033926E-1,1.850183E0,3.441747E0,7.0509833E-1,1.6072165E0,-2.0263338E0,-1.0837637E0,-7.90546E-1,-3.8147393E-1,-7.7269065E-1,-4.7284606E-1,-2.8576848E-1,4.0762684E-1,-4.762065E-1,-1.46639515E-2,2.3183396E-1,4.086413E0,4.6325657E-1,-1.3123435E-2,1.9062417E0,5.955134E-1,-7.547121E-1,3.9222566E-3,6.6651356E-1,4.4750966E-2,7.042308E-1,3.0390735E0,3.6427885E-2,7.64086E-1,1.5395195E0,2.5892396E0,3.6560552E0,2.1186404E0,1.0299194E0,5.21889E-1,1.466388E0,2.3869407E0,-9.1214746E-1,-5.657881E-1,-3.7555256E-1,-2.7572858E-1,-3.031345E-1,-1.8273218E-1,-1.699524E-1,-2.177266E-2,-2.3425864E-1,1.2495747E0,-1.4865814E-1,2.272892E-1,1.3230464E-1,-1.0773284E-1,3.8864568E-1,-5.4200795E-3,2.5086066E-1,-1.7294577E-1,5.6056803E-1,-3.1039523E-2,2.9454654E-2,1.4577937E-1,1.0901911E0,1.5003066E0,8.552016E-2,2.6770216E-1,-2.7236823E-2,1.8457851E-1,4.0804127E-1,9.798513E-1,1.6298878E-1,4.1429245E-1,-4.1013056E-1,-1.8446982E-1,8.946436E-2,-4.273263E-2,1.5248585E-1,5.1992875E-1,-1.913282E-1,8.301761E-2,6.703201E-1,1.4818376E-1,1.03573E0,7.704894E-1,-2.4584194E-1,5.9181694E-2,8.785434E-1,1.333317E-1,4.8603132E-1,3.2047758E-1,8.9164543E-1,6.271469E-1,8.255686E-1,1.2288936E0,7.132143E-1,4.5200035E-1,2.5443152E-1,8.8726664E-1,7.179059E-2,2.1402808E-1,2.8249085E-1,5.157653E-1,4.890094E-1,7.668077E-1],"categories":[],"categories_nodes":[],"categories_segments":[],"categories_sizes":[],"default_left":[0,0,0,0,0,0,0,0,0,0,0,0,0,0,0,0,0,0,0,0,0,0,0,0,0,0,0,0,0,0,0,0,0,0,0,0,0,0,0,0,0,0,0,0,0,0,0,0,0,0,0,0,0,0,0,0,0,0,0,0,0,0,0,0,0,0,0,0,0,0,0,0,0,0,0,0,0,0,0,0,0,0,0,0,0,0,0,0,0,0,0,0,0,0,0,0,0,0,0,0,0,0,0,0,0,0,0,0,0,0,0,0,0,0,0,0,0,0,0,0,0,0,0,0,0,0,0],"id":5,"left_children":[1,3,5,7,9,11,13,15,17,19,21,23,25,27,29,31,33,35,37,39,41,43,45,47,49,51,53,55,57,59,61,63,65,67,69,71,73,75,77,79,81,83,85,87,89,91,93,95,97,99,101,103,105,107,109,111,113,115,117,119,121,123,125,-1,-1,-1,-1,-1,-1,-1,-1,-1,-1,-1,-1,-1,-1,-1,-1,-1,-1,-1,-1,-1,-1,-1,-1,-1,-1,-1,-1,-1,-1,-1,-1,-1,-1,-1,-1,-1,-1,-1,-1,-1,-1,-1,-1,-1,-1,-1,-1,-1,-1,-1,-1,-1,-1,-1,-1,-1,-1,-1,-1,-1,-1,-1,-1],"loss_changes":[1.0329572E5,3.5826805E4,2.2352457E4,1.09203125E4,4.0345747E3,1.6990438E4,7.4793594E3,4.422125E3,5.3022734E3,3.1726223E3,1.7525259E3,6.3921904E3,3.9608066E3,1.7064844E3,7.039035E3,1.8718867E3,9.637422E2,1.8915996E3,2.651116E3,2.6678435E3,1.6272389E3,1.4599058E3,7.0121533E2,4.2253696E3,2.14306E3,1.3818068E4,2.5911904E3,4.2924854E2,2.9725684E2,4.93409E3,1.0596836E3,3.1313965E2,1.2900664E3,4.810796E2,6.3003345E2,1.5900703E3,1.2600273E3,1.904584E3,2.4644402E3,2.8443364E3,4.9805425E3,7.119232E2,4.2879517E1,8.3272363E2,7.667199E2,3.1331384E2,4.7694336E2,6.8391455E2,3.8916216E3,3.2893936E3,1.2265426E3,3.6540083E3,6.335137E2,9.18206E2,1.2715644E4,4.9652832E1,1.0469263E2,3.5887305E2,2.2545532E1,1.0478861E4,2.869336E3,1.0848496E3,1.8820703E2,0E0,0E0,0E0,0E0,0E0,0E0,0E0,0E0,0E0,0E0,0E0,0E0,0E0,0E0,0E0,0E0,0E0,0E0,0E0,0E0,0E0,0E0,0E0,0E0,0E0,0E0,0E0,0E0,0E0,0E0,0E0,0E0,0E0,0E0,0E0,0E0,0E0,0E0,0E0,0E0,0E0,0E0,0E0,0E0,0E0,0E0,0E0,0E0,0E0,0E0,0E0,0E0,0E0,0E0,0E0,0E0,0E0,0E0,0E0,0E0,0E0,0E0,0E0,0E0],"parents":[2147483647,0,0,1,1,2,2,3,3,4,4,5,5,6,6,7,7,8,8,9,9,10,10,11,11,12,12,13,13,14,14,15,15,16,16,17,17,18,18,19,19,20,20,21,21,22,22,23,23,24,24,25,25,26,26,27,27,28,28,29,29,30,30,31,31,32,32,33,33,34,34,35,35,36,36,37,37,38,38,39,39,40,40,41,41,42,42,43,43,44,44,45,45,46,46,47,47,48,48,49,49,50,50,51,51,52,52,53,53,54,54,55,55,56,56,57,57,58,58,59,59,60,60,61,61,62,62],"right_children":[2,4,6,8,10,12,14,16,18,20,22,24,26,28,30,32,34,36,38,40,42,44,46,48,50,52,54,56,58,60,62,64,66,68,70,72,74,76,78,80,82,84,86,88,90,92,94,96,98,100,102,104,106,108,110,112,114,116,118,120,122,124,126,-1,-1,-1,-1,-1,-1,-1,-1,-1,-1,-1,-1,-1,-1,-1,-1,-1,-1,-1,-1,-1,-1,-1,-1,-1,-1,-1,-1,-1,-1,-1,-1,-1,-1,-1,-1,-1,-1,-1,-1,-1,-1,-1,-1,-1,-1,-1,-1,-1,-1,-1,-1,-1,-1,-1,-1,-1,-1,-1,-1,-1,-1,-1,-1],"split_conditions":[2.011E3,1.05E2,1.05E2,7.2E1,1.1E1,2.005E3,2E0,2.007E3,2.007E3,7E0,2.008E3,1.6E1,1.2E1,1.994E3,2.006E3,2E0,8E0,8E0,1.8E1,1E1,1.5E1,2.003E3,2E0,6.2E1,1.999E3,1E1,1.8E1,1.26E2,1.3E1,1.993E3,1.7E1,3.7E1,8E0,2.009E3,1E1,9E0,1.8E1,2E0,2.1E1,2E0,1.2E1,1.6E1,1.56E2,1.6E1,1.8E1,1.998E3,2.3E1,2E0,2.015E3,2.2E1,1.8E1,2E0,1.8E1,2.014E3,2E1,1.985E3,1.986E3,1.998E3,2.3E1,2.2E1,8E0,1E1,2.009E3,-9.1214746E-1,-5.657881E-1,-3.7555256E-1,-2.7572858E-1,-3.031345E-1,-1.8273218E-1,-1.699524E-1,-2.177266E-2,-2.3425864E-1,1.2495747E0,-1.4865814E-1,2.272892E-1,1.3230464E-1,-1.0773284E-1,3.8864568E-1,-5.4200795E-3,2.5086066E-1,-1.7294577E-1,5.6056803E-1,-3.1039523E-2,2.9454654E-2,1.4577937E-1,1.0901911E0,1.5003066E0,8.552016E-2,2.6770216E-1,-2.7236823E-2,1.8457851E-1,4.0804127E-1,9.798513E-1,1.6298878E-1,4.1429245E-1,-4.1013056E-1,-1.8446982E-1,8.946436E-2,-4.273263E-2,1.5248585E-1,5.1992875E-1,-1.913282E-1,8.301761E-2,6.703201E-1,1.4818376E-1,1.03573E0,7.704894E-1,-2.4584194E-1,5.9181694E-2,8.785434E-1,1.333317E-1,4.8603132E-1,3.2047758E-1,8.9164543E-1,6.271469E-1,8.255686E-1,1.2288936E0,7.132143E-1,4.5200035E-1,2.5443152E-1,8.8726664E-1,7.179059E-2,2.1402808E-1,2.8249085E-1,5.157653E-1,4.890094E-1,7.668077E-1],"split_indices":[0,1,1,1,3,2,4,0,0,6,0,4,4,2,2,5,3,3,4,4,6,0,4,1,2,4,4,1,6,2,6,1,3,0,4,6,3,4,4,4,4,4,1,4,3,2,3,5,0,4,4,4,3,2,4,2,2,2,3,4,3,4,2,0,0,0,0,0,0,0,0,0,0,0,0,0,0,0,0,0,0,0,0,0,0,0,0,0,0,0,0,0,0,0,0,0,0,0,0,0,0,0,0,0,0,0,0,0,0,0,0,0,0,0,0,0,0,0,0,0,0,0,0,0,0,0,0],"split_type":[0,0,0,0,0,0,0,0,0,0,0,0,0,0,0,0,0,0,0,0,0,0,0,0,0,0,0,0,0,0,0,0,0,0,0,0,0,0,0,0,0,0,0,0,0,0,0,0,0,0,0,0,0,0,0,0,0,0,0,0,0,0,0,0,0,0,0,0,0,0,0,0,0,0,0,0,0,0,0,0,0,0,0,0,0,0,0,0,0,0,0,0,0,0,0,0,0,0,0,0,0,0,0,0,0,0,0,0,0,0,0,0,0,0,0,0,0,0,0,0,0,0,0,0,0,0,0],"sum_hessian":[5.70601E5,3.09855E5,2.60746E5,1.98723E5,1.11132E5,1.65248E5,9.5498E4,7.1917E4,1.26806E5,7.247E4,3.8662E4,1.25578E5,3.967E4,2.926E3,9.2572E4,4.883E4,2.3087E4,8.4555E4,4.2251E4,5.1395E4,2.1075E4,2.6604E4,1.2058E4,9.8338E4,2.724E4,1.462E4,2.505E4,1.873E3,1.053E3,8.2915E4,9.657E3,2.207E3,4.6623E4,1.2063E4,1.1024E4,3.9407E4,4.5148E4,3.5731E4,6.52E3,2.1612E4,2.9783E4,2.0965E4,1.1E2,1.0893E4,1.5711E4,4.23E2,1.1635E4,7.991E3,9.0347E4,1.9493E4,7.747E3,1.1357E4,3.263E3,6.67E3,1.838E4,1.319E3,5.54E2,9.06E2,1.47E2,2.9901E4,5.3014E4,8.18E3,1.477E3,2.68E2,1.939E3,2.3072E4,2.3551E4,5.453E3,6.61E3,6.894E3,4.13E3,3.9342E4,6.5E1,4.4331E4,8.17E2,3.275E3,3.2456E4,2.113E3,4.407E3,1.534E3,2.0078E4,1.341E3,2.8442E4,1.3739E4,7.226E3,7.4E1,3.6E1,7.697E3,3.196E3,1.3983E4,1.728E3,3.02E2,1.21E2,1.091E4,7.25E2,1.485E3,6.506E3,3.0009E4,6.0338E4,1.6975E4,2.518E3,1.965E3,5.782E3,1.372E3,9.985E3,1.737E3,1.526E3,1.055E3,5.615E3,2.365E3,1.6015E4,1.126E3,1.93E2,3.13E2,2.41E2,2.97E2,6.09E2,1.03E2,4.4E1,2.7324E4,2.577E3,2.1417E4,3.1597E4,2.66E3,5.52E3,2.7E2,1.207E3],"tree_param":{"num_deleted":"0","num_feature":"7","num_nodes":"127","size_leaf_vector":"1"}},{"base_weights":[8.332889E-6,-3.7476125E-1,2.465099E-1,-6.69514E-1,-1.4010233E-1,-8.174507E-3,4.431268E-1,-9.936849E-1,-6.022097E-1,3.3854482E-1,-2.1355754E-1,-7.802492E-2,6.8542016E-1,6.7883685E-2,5.686384E-1,-1.0522491E0,-4.7815442E-2,-6.2521106E-1,2.823011E-1,3.7841544E-2,6.564208E-1,-3.1852663E-1,4.8712578E-2,-2.0351277E-1,2.2716297E-1,1.6712368E0,5.66921E-1,-4.4914454E-1,1.4344686E-1,5.032135E-1,1.2537618E0,-1.303525E0,-8.834343E-1,-8.957943E-1,1.8536285E-1,-7.150935E-1,-4.5019928E-1,1.3677529E-1,9.083145E-1,7.3818457E-3,1.01624E0,4.045552E-1,8.7446743E-1,-5.882356E-1,-1.26816E-1,1.8221554E-1,-4.5130518E-1,-2.5390604E-1,4.352749E-1,1.232265E-3,4.1298684E-1,1.339568E0,3.3721194E0,2.3171407E-1,7.056782E-1,-8.950517E-1,-3.086575E-1,8.240563E-2,7.943215E-1,1.3465301E0,4.6406677E-1,1.1605196E0,1.6756757E0,-2.573659E-1,-4.5862886E-1,-2.7040195E-1,6.6006297E-1,-3.0434036E-1,4.5417126E-2,1.5225175E-1,-1.0981253E-2,-1.9508606E-1,-4.0206057E-1,-3.174464E-2,-1.5872458E-1,-8.593649E-2,1.1135597E-1,7.136431E-1,2.0425186E-1,-7.3427996E-3,1.9139396E-1,-1.1103679E0,3.3884478E-1,1.6401716E-1,-7.045146E-2,2.4941628E-1,4.6382555E-1,-8.228387E-2,-2.7159455E-1,2.2383906E-1,-6.836981E-2,1.2548071E-2,3.2026666E-1,-1.5536399E-1,4.5572907E-1,-1.2922414E-1,-3.4028333E-2,9.6741594E-2,2.7081522E-1,-1.982287E-2,1.806001E-1,2.7117088E-1,8.207362E-2,3.1957144E-1,5.3559923E-1,1.3225957E0,9.2480874E-1,5.0629E-2,2.9228997E-1,1.4866632E-1,2.684507E-1,-6.611108E-1,-2.3460832E-1,-1.23183995E-1,8.393893E-2,-1.6390426E-2,8.992134E-2,8.758984E-2,2.734453E-1,2.7417505E-1,6.469164E-1,5.689675E-2,1.8666539E-1,3.0789703E-1,4.304222E-1,5.7310516E-1,2.4106187E-1],"categories":[],"categories_nodes":[],"categories_segments":[],"categories_sizes":[],"default_left":[0,0,0,0,0,0,0,0,0,0,0,0,0,0,0,0,0,0,0,0,0,0,0,0,0,0,0,0,0,0,0,0,0,0,0,0,0,0,0,0,0,0,0,0,0,0,0,0,0,0,0,0,0,0,0,0,0,0,0,0,0,0,0,0,0,0,0,0,0,0,0,0,0,0,0,0,0,0,0,0,0,0,0,0,0,0,0,0,0,0,0,0,0,0,0,0,0,0,0,0,0,0,0,0,0,0,0,0,0,0,0,0,0,0,0,0,0,0,0,0,0,0,0,0,0,0,0],"id":6,"left_children":[1,3,5,7,9,11,13,15,17,19,21,23,25,27,29,31,33,35,37,39,41,43,45,47,49,51,53,55,57,59,61,63,65,67,69,71,73,75,77,79,81,83,85,87,89,91,93,95,97,99,101,103,105,107,109,111,113,115,117,119,121,123,125,-1,-1,-1,-1,-1,-1,-1,-1,-1,-1,-1,-1,-1,-1,-1,-1,-1,-1,-1,-1,-1,-1,-1,-1,-1,-1,-1,-1,-1,-1,-1,-1,-1,-1,-1,-1,-1,-1,-1,-1,-1,-1,-1,-1,-1,-1,-1,-1,-1,-1,-1,-1,-1,-1,-1,-1,-1,-1,-1,-1,-1,-1,-1,-1],"loss_changes":[5.271286E4,1.5658977E4,1.723615E4,2.189207E3,4.4317363E3,7.265095E3,9.14841E3,9.555488E2,1.6906621E3,1.602921E3,3.0084814E3,5.2175635E3,1.6024419E3,1.9020981E3,6.5243164E3,6.8881055E2,1.9902406E2,1.2738828E3,1.9175113E2,2.567311E2,4.475371E2,4.0352246E3,2.0850447E3,3.1077407E3,1.666533E3,8.295322E2,5.695781E2,3.8875342E2,1.6876086E3,4.386242E3,4.9867383E2,6.5488574E2,5.3664355E2,2.7081345E1,5.6473637E1,2.1674297E3,7.465073E2,1.6957884E2,1.3236246E2,1.679729E2,1.3911087E2,3.439342E2,1.26045654E2,3.2277441E3,4.025321E3,3.0640596E3,8.634126E2,2.2229087E3,3.720669E2,7.244867E2,1.4905061E3,1.5019312E2,6.992114E1,1.6750624E2,3.4410498E2,2.1948474E2,2.8327304E2,1.1567224E3,2.1421753E2,2.0645254E3,5.5105137E3,3.8202832E2,4.6951416E2,0E0,0E0,0E0,0E0,0E0,0E0,0E0,0E0,0E0,0E0,0E0,0E0,0E0,0E0,0E0,0E0,0E0,0E0,0E0,0E0,0E0,0E0,0E0,0E0,0E0,0E0,0E0,0E0,0E0,0E0,0E0,0E0,0E0,0E0,0E0,0E0,0E0,0E0,0E0,0E0,0E0,0E0,0E0,0E0,0E0,0E0,0E0,0E0,0E0,0E0,0E0,0E0,0E0,0E0,0E0,0E0,0E0,0E0,0E0,0E0,0E0,0E0,0E0,0E0],"parents":[2147483647,0,0,1,1,2,2,3,3,4,4,5,5,6,6,7,7,8,8,9,9,10,10,11,11,12,12,13,13,14,14,15,15,16,16,17,17,18,18,19,19,20,20,21,21,22,22,23,23,24,24,25,25,26,26,27,27,28,28,29,29,30,30,31,31,32,32,33,33,34,34,35,35,36,36,37,37,38,38,39,39,40,40,41,41,42,42,43,43,44,44,45,45,46,46,47,47,48,48,49,49,50,50,51,51,52,52,53,53,54,54,55,55,56,56,57,57,58,58,59,59,60,60,61,61,62,62],"right_children":[2,4,6,8,10,12,14,16,18,20,22,24,26,28,30,32,34,36,38,40,42,44,46,48,50,52,54,56,58,60,62,64,66,68,70,72,74,76,78,80,82,84,86,88,90,92,94,96,98,100,102,104,106,108,110,112,114,116,118,120,122,124,126,-1,-1,-1,-1,-1,-1,-1,-1,-1,-1,-1,-1,-1,-1,-1,-1,-1,-1,-1,-1,-1,-1,-1,-1,-1,-1,-1,-1,-1,-1,-1,-1,-1,-1,-1,-1,-1,-1,-1,-1,-1,-1,-1,-1,-1,-1,-1,-1,-1,-1,-1,-1,-1,-1,-1,-1,-1,-1,-1,-1,-1,-1,-1,-1],"split_conditions":[2.008E3,9.2E1,8E0,6.47E1,2.001E3,8E0,3E0,1.9E1,1.7E1,1.16E2,1.6E1,1.6E1,1.985E3,5.91E1,2.023E3,2.003E3,5.9E1,1E1,2.007E3,2.2E1,1E1,1.992E3,1.999E3,2.023E3,9.7E1,1.3E1,2.012E3,4.7E1,2.023E3,2E0,1.7E1,2.001E3,1.994E3,2.007E3,2E1,9E0,1.2E1,1E1,6E0,1.997E3,1.981E3,9E0,2.2E1,6E0,6E0,2.2E1,1.8E1,3E0,4E0,2.023E3,1.989E3,1.5E2,8.5E1,2.2E1,1.2E1,3.7E1,1.9E1,1E1,1.978E3,1.994E3,1E1,1.12E2,2.3E1,-2.573659E-1,-4.5862886E-1,-2.7040195E-1,6.6006297E-1,-3.0434036E-1,4.5417126E-2,1.5225175E-1,-1.0981253E-2,-1.9508606E-1,-4.0206057E-1,-3.174464E-2,-1.5872458E-1,-8.593649E-2,1.1135597E-1,7.136431E-1,2.0425186E-1,-7.3427996E-3,1.9139396E-1,-1.1103679E0,3.3884478E-1,1.6401716E-1,-7.045146E-2,2.4941628E-1,4.6382555E-1,-8.228387E-2,-2.7159455E-1,2.2383906E-1,-6.836981E-2,1.2548071E-2,3.2026666E-1,-1.5536399E-1,4.5572907E-1,-1.2922414E-1,-3.4028333E-2,9.6741594E-2,2.7081522E-1,-1.982287E-2,1.806001E-1,2.7117088E-1,8.207362E-2,3.1957144E-1,5.3559923E-1,1.3225957E0,9.2480874E-1,5.0629E-2,2.9228997E-1,1.4866632E-1,2.684507E-1,-6.611108E-1,-2.3460832E-1,-1.23183995E-1,8.393893E-2,-1.6390426E-2,8.992134E-2,8.758984E-2,2.734453E-1,2.7417505E-1,6.469164E-1,5.689675E-2,1.8666539E-1,3.0789703E-1,4.304222E-1,5.7310516E-1,2.4106187E-1],"split_indices":[0,1,3,1,0,6,5,4,3,1,4,4,2,1,0,0,1,4,0,4,4,2,2,0,1,6,0,1,0,4,3,0,2,0,4,4,4,4,4,2,2,4,4,4,4,4,3,3,5,0,2,1,1,4,6,1,4,4,2,2,4,1,4,0,0,0,0,0,0,0,0,0,0,0,0,0,0,0,0,0,0,0,0,0,0,0,0,0,0,0,0,0,0,0,0,0,0,0,0,0,0,0,0,0,0,0,0,0,0,0,0,0,0,0,0,0,0,0,0,0,0,0,0,0,0,0,0],"split_type":[0,0,0,0,0,0,0,0,0,0,0,0,0,0,0,0,0,0,0,0,0,0,0,0,0,0,0,0,0,0,0,0,0,0,0,0,0,0,0,0,0,0,0,0,0,0,0,0,0,0,0,0,0,0,0,0,0,0,0,0,0,0,0,0,0,0,0,0,0,0,0,0,0,0,0,0,0,0,0,0,0,0,0,0,0,0,0,0,0,0,0,0,0,0,0,0,0,0,0,0,0,0,0,0,0,0,0,0,0,0,0,0,0,0,0,0,0,0,0,0,0,0,0,0,0,0,0],"sum_hessian":[5.70601E5,2.26397E5,3.44204E5,1.00349E5,1.26048E5,1.49958E5,1.94246E5,1.7252E4,8.3097E4,1.677E4,1.09278E5,1.36238E5,1.372E4,4.8687E4,1.45559E5,1.6246E4,1.006E3,8.0991E4,2.106E3,8.618E3,8.152E3,7.8043E4,3.1235E4,9.6542E4,3.9696E4,1.472E3,1.2248E4,6.208E3,4.2479E4,1.32871E5,1.2688E4,6.528E3,9.718E3,2.17E2,7.89E2,5.3509E4,2.7482E4,1.709E3,3.97E2,8.358E3,2.6E2,3.783E3,4.369E3,3.2425E4,4.5618E4,2.4653E4,6.582E3,8.9483E4,7.059E3,1.7915E4,2.1781E4,1.232E3,2.4E2,3.586E3,8.662E3,1.487E3,4.721E3,3.8837E4,3.642E3,5.894E3,1.26977E5,1.0392E4,2.296E3,2.192E3,4.336E3,9.662E3,5.6E1,1.95E2,2.2E1,3.22E2,4.67E2,4.8483E4,5.026E3,5.122E3,2.236E4,6.09E2,1.1E3,5.3E1,3.44E2,7.956E3,4.02E2,6E0,2.54E2,3.095E3,6.88E2,4.106E3,2.63E2,1.6293E4,1.6132E4,4.734E3,4.0884E4,2.1279E4,3.374E3,6.367E3,2.15E2,3.9614E4,4.9869E4,5.687E3,1.372E3,1.611E4,1.805E3,4.817E3,1.6964E4,7.63E2,4.69E2,5.2E1,1.88E2,3.306E3,2.8E2,4.104E3,4.558E3,1.18E2,1.369E3,4.024E3,6.97E2,2.3818E4,1.5019E4,6.89E2,2.953E3,3.842E3,2.052E3,4.6425E4,8.0552E4,6.978E3,3.414E3,1.809E3,4.87E2],"tree_param":{"num_deleted":"0","num_feature":"7","num_nodes":"127","size_leaf_vector":"1"}},{"base_weights":[8.223877E-6,-1.9403562E-1,2.6604533E-1,-3.0991504E-1,8.357264E-2,1.5460117E-1,5.8123803E-1,-3.8133845E-1,-5.0915115E-2,-7.832318E-2,1.974489E-1,6.331797E-1,7.17911E-2,1.0586274E0,5.124091E-1,-4.5241997E-1,-8.8378064E-2,8.891737E-1,-1.282622E-1,-1.682261E-1,1.4118113E-1,1.3145573E-1,5.562243E-1,5.294693E-1,1.1965531E0,-1.0402325E-1,3.5867032E-1,8.367055E-1,2.3148668E0,4.720724E-1,1.5923562E0,-3.2289287E-1,-6.456288E-1,-1.5581276E0,-6.105753E-2,7.797331E-1,2.544572E0,-6.7322606E-1,7.391813E-2,-2.6695514E-1,1.6648706E-2,1.0961021E0,1.2074935E-1,4.255626E-2,4.036974E-1,5.13334E-1,1.3391255E0,1.0837602E-1,5.8267826E-1,1.0069904E0,1.6315683E0,-1.9651094E-1,2.860504E-1,-3.1009046E-2,4.5151976E-1,6.71988E-1,1.5176349E0,1.6253065E0,2.7796419E0,3.7091607E-1,8.406636E-1,1.7531266E0,3.5156295E-1,-4.9754456E-2,-1.4978626E-1,-2.1036313E-1,-8.8262245E-2,-5.606129E-1,-3.4327546E-1,-3.856428E-2,1.021075E-1,4.2085138E-1,1.6811003E-1,2.4606177E-1,9.193158E-1,-2.2798826E-1,-1.8386818E-2,5.3076893E-1,-6.954274E-3,3.1819327E-3,-1.17618345E-1,1.2674388E-1,-4.8731145E-2,1.6122611E-1,4.9592015E-1,8.539726E-2,6.9171176E-3,1.1849604E-1,-1.4446146E-2,4.7976112E-1,3.7222505E-2,1.4560685E-1,3.8606128E-1,3.5198975E-1,7.381796E-1,-1.191191E-1,6.058733E-2,1.3763624E-1,2.298633E-1,5.636478E-1,2.833126E-1,5.894728E-1,3.7039337E-1,-3.5650823E-3,-1.3601296E-1,2.3072213E-1,2.2391448E-2,-1.7316274E-1,2.0593248E-2,4.5448378E-1,1.2512994E-1,3.151154E-1,1.1633005E-1,1.1105965E0,4.4399747E-1,4.3523523E-1,8.7324905E-1,7.3127556E-1,9.0827686E-1,7.744109E-2,2.3105699E-1,2.4623273E-1,6.4595205E-1,2.6648167E-1,5.83914E-1,9.602918E-2,7.747893E-1],"categories":[],"categories_nodes":[],"categories_segments":[],"categories_sizes":[],"default_left":[0,0,0,0,0,0,0,0,0,0,0,0,0,0,0,0,0,0,0,0,0,0,0,0,0,0,0,0,0,0,0,0,0,0,0,0,0,0,0,0,0,0,0,0,0,0,0,0,0,0,0,0,0,0,0,0,0,0,0,0,0,0,0,0,0,0,0,0,0,0,0,0,0,0,0,0,0,0,0,0,0,0,0,0,0,0,0,0,0,0,0,0,0,0,0,0,0,0,0,0,0,0,0,0,0,0,0,0,0,0,0,0,0,0,0,0,0,0,0,0,0,0,0,0,0,0,0],"id":7,"left_children":[1,3,5,7,9,11,13,15,17,19,21,23,25,27,29,31,33,35,37,39,41,43,45,47,49,51,53,55,57,59,61,63,65,67,69,71,73,75,77,79,81,83,85,87,89,91,93,95,97,99,101,103,105,107,109,111,113,115,117,119,121,123,125,-1,-1,-1,-1,-1,-1,-1,-1,-1,-1,-1,-1,-1,-1,-1,-1,-1,-1,-1,-1,-1,-1,-1,-1,-1,-1,-1,-1,-1,-1,-1,-1,-1,-1,-1,-1,-1,-1,-1,-1,-1,-1,-1,-1,-1,-1,-1,-1,-1,-1,-1,-1,-1,-1,-1,-1,-1,-1,-1,-1,-1,-1,-1,-1],"loss_changes":[2.9456074E4,1.0614025E4,8.453332E3,4.306039E3,1.7913761E3,7.0461045E3,2.0653574E3,3.7995234E3,3.6586494E3,7.9179736E2,1.3505176E3,1.5320957E3,7.6447417E3,2.207791E3,2.3930752E3,3.6745195E3,1.4304114E3,6.924541E2,5.12261E3,5.19585E2,2.2732314E2,1.1660394E3,2.973252E2,4.961958E2,3.3578027E2,3.3903374E3,2.083849E3,7.547578E2,3.8020312E2,1.9746328E3,3.943252E2,2.4350303E3,1.1509355E3,8.305017E1,9.475681E2,4.9017603E2,2.1188477E2,6.676699E2,5.582391E3,6.443922E2,7.2021204E2,7.56478E1,1.8273755E2,1.1611859E3,3.9645244E3,1.8159741E2,8.491266E1,1.17533554E2,4.4696484E2,1.5458179E2,1.6311938E2,3.6025056E3,1.83915E3,6.032601E2,1.7021943E3,5.8284595E2,1.0674072E2,1.0662891E2,5.893994E1,1.8712739E3,2.972329E2,2.9221533E2,1.5569967E1,0E0,0E0,0E0,0E0,0E0,0E0,0E0,0E0,0E0,0E0,0E0,0E0,0E0,0E0,0E0,0E0,0E0,0E0,0E0,0E0,0E0,0E0,0E0,0E0,0E0,0E0,0E0,0E0,0E0,0E0,0E0,0E0,0E0,0E0,0E0,0E0,0E0,0E0,0E0,0E0,0E0,0E0,0E0,0E0,0E0,0E0,0E0,0E0,0E0,0E0,0E0,0E0,0E0,0E0,0E0,0E0,0E0,0E0,0E0,0E0,0E0,0E0,0E0,0E0],"parents":[2147483647,0,0,1,1,2,2,3,3,4,4,5,5,6,6,7,7,8,8,9,9,10,10,11,11,12,12,13,13,14,14,15,15,16,16,17,17,18,18,19,19,20,20,21,21,22,22,23,23,24,24,25,25,26,26,27,27,28,28,29,29,30,30,31,31,32,32,33,33,34,34,35,35,36,36,37,37,38,38,39,39,40,40,41,41,42,42,43,43,44,44,45,45,46,46,47,47,48,48,49,49,50,50,51,51,52,52,53,53,54,54,55,55,56,56,57,57,58,58,59,59,60,60,61,61,62,62],"right_children":[2,4,6,8,10,12,14,16,18,20,22,24,26,28,30,32,34,36,38,40,42,44,46,48,50,52,54,56,58,60,62,64,66,68,70,72,74,76,78,80,82,84,86,88,90,92,94,96,98,100,102,104,106,108,110,112,114,116,118,120,122,124,126,-1,-1,-1,-1,-1,-1,-1,-1,-1,-1,-1,-1,-1,-1,-1,-1,-1,-1,-1,-1,-1,-1,-1,-1,-1,-1,-1,-1,-1,-1,-1,-1,-1,-1,-1,-1,-1,-1,-1,-1,-1,-1,-1,-1,-1,-1,-1,-1,-1,-1,-1,-1,-1,-1,-1,-1,-1,-1,-1,-1,-1,-1,-1,-1],"split_conditions":[2.012E3,4E0,1.12E2,1.996E3,8E0,2.014E3,1.985E3,1.6E1,6E0,5E0,1.43E2,2.002E3,2.021E3,1.7E1,2E1,1.985E3,4.8E1,5E0,7E0,1.6E1,2E0,1.8E1,1.7E1,6.47E1,2.006E3,2.006E3,1.982E3,1.37E2,1.2E2,2.022E3,2.3E1,6E0,1.4E1,2.006E3,2.2E1,2E0,6.2E1,6E0,9E0,1.21E2,2.004E3,1.987E3,2.004E3,6E0,2.1E1,2.2E1,1.56E2,2E0,1E1,6E0,7E0,2.018E3,2.012E3,1.972E3,2E0,2.018E3,3E0,1.982E3,2E1,1.43E2,1.64E2,4E0,2.018E3,-4.9754456E-2,-1.4978626E-1,-2.1036313E-1,-8.8262245E-2,-5.606129E-1,-3.4327546E-1,-3.856428E-2,1.021075E-1,4.2085138E-1,1.6811003E-1,2.4606177E-1,9.193158E-1,-2.2798826E-1,-1.8386818E-2,5.3076893E-1,-6.954274E-3,3.1819327E-3,-1.17618345E-1,1.2674388E-1,-4.8731145E-2,1.6122611E-1,4.9592015E-1,8.539726E-2,6.9171176E-3,1.1849604E-1,-1.4446146E-2,4.7976112E-1,3.7222505E-2,1.4560685E-1,3.8606128E-1,3.5198975E-1,7.381796E-1,-1.191191E-1,6.058733E-2,1.3763624E-1,2.298633E-1,5.636478E-1,2.833126E-1,5.894728E-1,3.7039337E-1,-3.5650823E-3,-1.3601296E-1,2.3072213E-1,2.2391448E-2,-1.7316274E-1,2.0593248E-2,4.5448378E-1,1.2512994E-1,3.151154E-1,1.1633005E-1,1.1105965E0,4.4399747E-1,4.3523523E-1,8.7324905E-1,7.3127556E-1,9.0827686E-1,7.744109E-2,2.3105699E-1,2.4623273E-1,6.4595205E-1,2.6648167E-1,5.83914E-1,9.602918E-2,7.747893E-1],"split_indices":[0,5,1,2,3,0,2,4,4,5,1,2,0,4,3,2,1,4,4,4,4,4,3,1,2,2,2,1,1,0,4,4,4,0,4,4,1,6,4,1,0,2,0,4,4,4,1,5,4,4,6,0,2,2,4,0,5,2,4,1,1,4,2,0,0,0,0,0,0,0,0,0,0,0,0,0,0,0,0,0,0,0,0,0,0,0,0,0,0,0,0,0,0,0,0,0,0,0,0,0,0,0,0,0,0,0,0,0,0,0,0,0,0,0,0,0,0,0,0,0,0,0,0,0,0,0,0],"split_type":[0,0,0,0,0,0,0,0,0,0,0,0,0,0,0,0,0,0,0,0,0,0,0,0,0,0,0,0,0,0,0,0,0,0,0,0,0,0,0,0,0,0,0,0,0,0,0,0,0,0,0,0,0,0,0,0,0,0,0,0,0,0,0,0,0,0,0,0,0,0,0,0,0,0,0,0,0,0,0,0,0,0,0,0,0,0,0,0,0,0,0,0,0,0,0,0,0,0,0,0,0,0,0,0,0,0,0,0,0,0,0,0,0,0,0,0,0,0,0,0,0,0,0,0,0,0,0],"sum_hessian":[5.70601E5,3.29944E5,2.40657E5,2.32778E5,9.7166E4,1.77794E5,6.2863E4,1.82461E5,5.0317E4,4.0123E4,5.7043E4,2.6226E4,1.51568E5,7.921E3,5.4942E4,1.46834E5,3.5627E4,3.825E3,4.6492E4,2.8465E4,1.1658E4,4.8181E4,8.862E3,2.2149E4,4.077E3,9.3975E4,5.7593E4,6.732E3,1.189E3,5.2964E4,1.978E3,8.7904E4,5.893E4,6.5E2,3.4977E4,3.588E3,2.37E2,1.2581E4,3.3911E4,1.8556E4,9.909E3,2.44E2,1.1414E4,3.6321E4,1.186E4,8.402E3,4.6E2,2.485E3,1.9664E4,2.84E3,1.237E3,7.5964E4,1.8011E4,1.1082E4,4.6511E4,5.421E3,1.311E3,4.79E2,7.1E2,4.1559E4,1.1405E4,1.751E3,2.27E2,4.6503E4,4.1401E4,5.0882E4,8.048E3,3.71E2,2.79E2,2.9943E4,5.034E3,9.34E2,2.654E3,5.5E1,1.82E2,1.1019E4,1.562E3,1.837E3,3.2074E4,5.765E3,1.2791E4,3.034E3,6.875E3,1.22E2,1.22E2,4.262E3,7.152E3,7.435E3,2.8886E4,2.248E3,9.612E3,8.109E3,2.93E2,4.01E2,5.9E1,3.88E2,2.097E3,1.174E4,7.924E3,1.9E2,2.65E3,6.72E2,5.65E2,4.4197E4,3.1767E4,5.483E3,1.2528E4,1.71E3,9.372E3,1.458E3,4.5053E4,2.325E3,3.096E3,2.2E1,1.289E3,4.22E2,5.7E1,2.99E2,4.11E2,3.2406E4,9.153E3,1.1235E4,1.7E2,3.2E2,1.431E3,2.24E2,3E0],"tree_param":{"num_deleted":"0","num_feature":"7","num_nodes":"127","size_leaf_vector":"1"}},{"base_weights":[9.859145E-6,-1.8404187E-1,1.4456832E-1,-3.4950295E-1,-5.3355962E-2,3.793221E-2,3.4238294E-1,-4.248356E-1,-1.5164624E-1,5.040871E-1,-7.753962E-2,-1.0884767E-1,1.8120281E-1,3.17947E-1,1.2158761E0,-5.768362E-1,-3.3202896E-1,-2.6438776E-1,4.0144874E-3,4.2758396E-1,1.6977487E0,-2.259533E-1,4.0671997E-2,7.0787705E-2,-3.4552357E-1,1.0834818E0,8.5476704E-2,2.911382E-1,1.0335249E0,1.0385256E0,1.6147966E0,-2.525332E-1,-7.52207E-1,-5.502943E-1,-2.8183252E-1,-1.8077858E-1,-8.705588E-1,5.6221044E-1,-9.851472E-2,3.4791502E-1,8.9685094E-1,1.4154456E0,2.163932E0,-1.0503841E-1,-7.085261E-1,1.6939436E0,-4.5390014E-2,-5.502465E-2,7.292691E-1,-6.699229E-1,-1.2704806E-1,2.271491E-1,2.3347752E0,-1.778768E-1,2.1940911E-1,2.5327936E-1,7.5233644E-1,4.3478903E-1,1.1606827E0,4.412329E-1,1.1986172E0,2.0845087E0,1.0971165E0,-1.5579136E-1,-5.1187675E-2,-2.9725343E-1,-2.0166855E-1,-2.5141057E-1,-1.3063979E-1,6.99088E-2,-9.328284E-2,-8.531891E-2,1.9261925E-1,-5.399632E-1,-4.2343758E-2,-1.4102611E-1,2.5323665E-1,-7.859893E-2,3.866657E-2,-6.8049496E-1,1.0708509E-1,-1.3622967E-2,3.0791736E-1,4.5247516E-1,3.339471E-1,5.126504E-1,7.5494796E-1,-6.852588E-2,5.893618E-1,-3.0712953E-1,-4.2176507E-2,3.0895823E-1,7.442864E-1,8.261813E-2,-4.638717E-2,-4.3510653E-2,2.481166E-1,9.9538885E-2,5.6232476E-1,-2.1776389E-1,3.1414673E-1,1.2193837E-1,-1.4769328E-1,-2.6020017E-2,2.2498167E-1,5.041791E-1,8.927469E-1,7.392063E-3,-2.0201598E-1,1.0419384E-1,-1.4113675E-2,5.4347206E-2,1.4142151E-1,3.3213845E-1,1.5189359E-1,-1.2947479E-1,2.2103971E-1,2.379932E-1,3.9176175E-1,3.4670052E-1,-4.9872455E-1,4.4373158E-1,2.0442504E-1,7.114237E-1,4.800166E-1,8.621531E-1,2.917968E-1],"categories":[],"categories_nodes":[],"categories_segments":[],"categories_sizes":[],"default_left":[0,0,0,0,0,0,0,0,0,0,0,0,0,0,0,0,0,0,0,0,0,0,0,0,0,0,0,0,0,0,0,0,0,0,0,0,0,0,0,0,0,0,0,0,0,0,0,0,0,0,0,0,0,0,0,0,0,0,0,0,0,0,0,0,0,0,0,0,0,0,0,0,0,0,0,0,0,0,0,0,0,0,0,0,0,0,0,0,0,0,0,0,0,0,0,0,0,0,0,0,0,0,0,0,0,0,0,0,0,0,0,0,0,0,0,0,0,0,0,0,0,0,0,0,0,0,0],"id":8,"left_children":[1,3,5,7,9,11,13,15,17,19,21,23,25,27,29,31,33,35,37,39,41,43,45,47,49,51,53,55,57,59,61,63,65,67,69,71,73,75,77,79,81,83,85,87,89,91,93,95,97,99,101,103,105,107,109,111,113,115,117,119,121,123,125,-1,-1,-1,-1,-1,-1,-1,-1,-1,-1,-1,-1,-1,-1,-1,-1,-1,-1,-1,-1,-1,-1,-1,-1,-1,-1,-1,-1,-1,-1,-1,-1,-1,-1,-1,-1,-1,-1,-1,-1,-1,-1,-1,-1,-1,-1,-1,-1,-1,-1,-1,-1,-1,-1,-1,-1,-1,-1,-1,-1,-1,-1,-1,-1],"loss_changes":[1.5181547E4,5.4277E3,6.7414307E3,1.6509414E3,1.890594E3,4.366755E3,2.389086E3,1.1315713E3,5.360752E2,5.322042E2,2.3581924E3,4.360792E3,9.075989E3,2.0887998E3,2.150747E2,1.7295156E3,5.4563916E2,8.977063E2,7.343363E2,2.0472351E2,4.554236E1,3.4772412E3,1.0645725E4,4.8308604E3,3.1366304E3,1.0799682E4,3.350916E3,1.8325293E3,2.9915625E2,2.0145874E2,2.2731885E2,2.331576E2,3.7648633E2,3.075481E2,6.0699097E2,1.3273365E3,1.4552072E3,5.795204E2,4.029741E2,1.1063776E2,9.71532E1,5.7165527E0,2.0342896E1,1.2168199E4,2.1375781E3,1.9342617E3,2.4919678E3,3.8869792E3,4.257374E3,1.7113716E3,5.1538047E3,9.820309E2,1.7163535E3,3.2139595E3,2.1462908E3,1.5258672E3,6.947739E2,1.8036731E2,1.7266943E2,6.705945E2,2.4094653E2,6.748218E1,9.798297E1,0E0,0E0,0E0,0E0,0E0,0E0,0E0,0E0,0E0,0E0,0E0,0E0,0E0,0E0,0E0,0E0,0E0,0E0,0E0,0E0,0E0,0E0,0E0,0E0,0E0,0E0,0E0,0E0,0E0,0E0,0E0,0E0,0E0,0E0,0E0,0E0,0E0,0E0,0E0,0E0,0E0,0E0,0E0,0E0,0E0,0E0,0E0,0E0,0E0,0E0,0E0,0E0,0E0,0E0,0E0,0E0,0E0,0E0,0E0,0E0,0E0,0E0,0E0,0E0],"parents":[2147483647,0,0,1,1,2,2,3,3,4,4,5,5,6,6,7,7,8,8,9,9,10,10,11,11,12,12,13,13,14,14,15,15,16,16,17,17,18,18,19,19,20,20,21,21,22,22,23,23,24,24,25,25,26,26,27,27,28,28,29,29,30,30,31,31,32,32,33,33,34,34,35,35,36,36,37,37,38,38,39,39,40,40,41,41,42,42,43,43,44,44,45,45,46,46,47,47,48,48,49,49,50,50,51,51,52,52,53,53,54,54,55,55,56,56,57,57,58,58,59,59,60,60,61,61,62,62],"right_children":[2,4,6,8,10,12,14,16,18,20,22,24,26,28,30,32,34,36,38,40,42,44,46,48,50,52,54,56,58,60,62,64,66,68,70,72,74,76,78,80,82,84,86,88,90,92,94,96,98,100,102,104,106,108,110,112,114,116,118,120,122,124,126,-1,-1,-1,-1,-1,-1,-1,-1,-1,-1,-1,-1,-1,-1,-1,-1,-1,-1,-1,-1,-1,-1,-1,-1,-1,-1,-1,-1,-1,-1,-1,-1,-1,-1,-1,-1,-1,-1,-1,-1,-1,-1,-1,-1,-1,-1,-1,-1,-1,-1,-1,-1,-1,-1,-1,-1,-1,-1,-1,-1,-1,-1,-1,-1],"split_conditions":[2.009E3,9.2E1,1.1E1,1.1E1,2E0,1E1,2.9E1,2.003E3,1E1,1.998E3,1E1,6E0,1.2E1,1E1,9.8E1,2.001E3,6.47E1,9E0,1.1E1,1.28E2,2.007E3,9E0,1.2E1,1.989E3,7E0,7.8E1,1.6E1,2.016E3,4E0,8E0,7E0,6.7E1,6.7E1,4E0,1.973E3,8E0,1.979E3,3E0,1.8E1,1.972E3,1.982E3,1.8E1,1.04E2,8E0,1.997E3,1.995E3,2.002E3,5E0,4E0,1.71E2,9E0,1.975E3,1.99E3,1.5E1,2.3E1,1.13E2,1.3E1,9.3E1,2.016E3,6E0,1.2E1,1.2E1,1.05E2,-1.5579136E-1,-5.1187675E-2,-2.9725343E-1,-2.0166855E-1,-2.5141057E-1,-1.3063979E-1,6.99088E-2,-9.328284E-2,-8.531891E-2,1.9261925E-1,-5.399632E-1,-4.2343758E-2,-1.4102611E-1,2.5323665E-1,-7.859893E-2,3.866657E-2,-6.8049496E-1,1.0708509E-1,-1.3622967E-2,3.0791736E-1,4.5247516E-1,3.339471E-1,5.126504E-1,7.5494796E-1,-6.852588E-2,5.893618E-1,-3.0712953E-1,-4.2176507E-2,3.0895823E-1,7.442864E-1,8.261813E-2,-4.638717E-2,-4.3510653E-2,2.481166E-1,9.9538885E-2,5.6232476E-1,-2.1776389E-1,3.1414673E-1,1.2193837E-1,-1.4769328E-1,-2.6020017E-2,2.2498167E-1,5.041791E-1,8.927469E-1,7.392063E-3,-2.0201598E-1,1.0419384E-1,-1.4113675E-2,5.4347206E-2,1.4142151E-1,3.3213845E-1,1.5189359E-1,-1.2947479E-1,2.2103971E-1,2.379932E-1,3.9176175E-1,3.4670052E-1,-4.9872455E-1,4.4373158E-1,2.0442504E-1,7.114237E-1,4.800166E-1,8.621531E-1,2.917968E-1],"split_indices":[0,1,3,3,4,4,3,0,4,2,4,4,4,6,1,0,1,4,4,1,0,4,4,2,4,1,4,2,4,4,6,1,1,4,2,4,2,6,4,2,2,3,1,4,2,2,0,4,4,1,4,2,2,4,4,1,4,1,0,4,4,4,1,0,0,0,0,0,0,0,0,0,0,0,0,0,0,0,0,0,0,0,0,0,0,0,0,0,0,0,0,0,0,0,0,0,0,0,0,0,0,0,0,0,0,0,0,0,0,0,0,0,0,0,0,0,0,0,0,0,0,0,0,0,0,0,0],"split_type":[0,0,0,0,0,0,0,0,0,0,0,0,0,0,0,0,0,0,0,0,0,0,0,0,0,0,0,0,0,0,0,0,0,0,0,0,0,0,0,0,0,0,0,0,0,0,0,0,0,0,0,0,0,0,0,0,0,0,0,0,0,0,0,0,0,0,0,0,0,0,0,0,0,0,0,0,0,0,0,0,0,0,0,0,0,0,0,0,0,0,0,0,0,0,0,0,0,0,0,0,0,0,0,0,0,0,0,0,0,0,0,0,0,0,0,0,0,0,0,0,0,0,0,0,0,0,0],"sum_hessian":[5.70601E5,2.51012E5,3.19589E5,1.10768E5,1.40244E5,2.07651E5,1.11938E5,8.0223E4,3.0545E4,5.831E3,1.34413E5,1.02569E5,1.05082E5,1.08892E5,3.046E3,3.0412E4,4.9811E4,1.7715E4,1.283E4,5.48E3,3.51E2,5.9594E4,7.4819E4,5.8311E4,4.4258E4,1.0079E4,9.5003E4,1.0496E5,3.932E3,2.109E3,9.37E2,1.0674E4,1.9738E4,9.313E3,4.0498E4,1.5568E4,2.147E3,1.991E3,1.0839E4,4.685E3,7.95E2,2.19E2,1.32E2,4.7654E4,1.194E4,3.702E3,7.1117E4,4.8957E4,9.354E3,1.7811E4,2.6447E4,5.984E3,4.095E3,3.2027E4,6.2976E4,9.6998E4,7.962E3,6.89E2,3.243E3,4.46E2,1.663E3,4.91E2,4.46E2,2.507E3,8.167E3,4.954E3,1.4784E4,2.656E3,6.657E3,2.167E3,3.8331E4,1.3827E4,1.741E3,9.44E2,1.203E3,4.27E2,1.564E3,6.306E3,4.533E3,1.6E1,4.669E3,9.6E1,6.99E2,1.67E2,5.2E1,5.8E1,7.4E1,4.4973E4,2.681E3,7.678E3,4.262E3,2.008E3,1.694E3,1.8065E4,5.3052E4,4.4424E4,4.533E3,6.944E3,2.41E3,1.7249E4,5.62E2,1.0748E4,1.5699E4,3.739E3,2.245E3,2.027E3,2.068E3,2.2735E4,9.292E3,4.2551E4,2.0425E4,7.2896E4,2.4102E4,3.26E3,4.702E3,1.78E2,5.11E2,9.19E2,2.324E3,3.33E2,1.13E2,1.078E3,5.85E2,3.08E2,1.83E2,2.9E1,4.17E2],"tree_param":{"num_deleted":"0","num_feature":"7","num_nodes":"127","size_leaf_vector":"1"}},{"base_weights":[8.774172E-6,-1.9654427E-1,7.754027E-2,-4.0482062E-1,-1.3057926E-1,-3.2375187E-2,2.1877919E-1,-1.9146797E-1,-4.8605064E-1,-6.790448E-1,-1.02514245E-1,-6.482726E-2,2.5295317E-1,8.796156E-1,1.8606412E-1,-3.978587E-1,-1.0239807E-1,-5.734888E-1,-2.897027E-1,-1.5649098E0,-6.264742E-1,-2.2891779E-1,1.8966947E-2,-2.6995078E-1,-1.4592773E-2,2.2569698E-1,2.3177361E0,6.1471575E-1,1.4397126E0,-4.5685077E-1,2.3129384E-1,-4.675011E-1,4.7617713E-1,-2.7533618E-1,-9.361862E-4,-6.394928E-1,-2.7456605E-1,-4.523133E-1,-1.996242E-1,-1.275313E0,-2.0469096E0,-7.534329E-1,-3.4677818E-1,-2.4867845E-1,1.3777924E-1,-7.890559E-2,1.6190627E-1,1.3856351E-1,-2.9202035E-1,-5.9580404E-2,1.8792309E-1,3.6698768E-1,1.15233764E-1,2.7064452E0,1.3668884E0,8.541587E-1,3.3727387E-1,1.9655937E0,8.011674E-1,5.62346E-2,-5.365085E-1,6.4383113E-1,1.810323E-1,-2.5100324E-1,-1.0239834E-1,-1.970949E-1,2.5012398E-1,2.0075696E-2,-1.5838131E-1,7.3107537E-3,-1.532376E-1,-1.6268682E-1,-2.4953339E-1,-1.5038224E-1,-5.8713654E-4,-2.156407E-1,-7.216562E-2,-7.383828E-2,1.5954643E-2,-4.5959017E-1,-3.1399277E-1,-7.052103E-1,-5.138324E-1,-1.9995728E-1,-3.16121E-1,-1.7149213E-1,-6.338385E-2,-5.6475837E-2,-1.4517863E-1,-5.9234913E-2,7.012016E-2,-7.5544957E-3,-1.5804233E-1,2.2819333E-1,1.1852081E-2,1.8087305E-2,4.5415354E-1,-2.3205031E-1,-7.558217E-2,1.0691865E-1,-2.7111292E-2,2.9068664E-1,-9.203628E-3,6.6305116E-2,1.5245715E-1,-8.097945E-2,7.583278E-2,8.7280595E-1,3.9833358E-1,3.8142303E-1,9.872756E-1,1.7077391E-1,3.1280163E-1,2.2645824E-1,3.3358235E-2,4.071657E-1,7.211844E-1,3.487622E-1,7.370448E-2,-1.8971598E-2,7.0647605E-2,-2.2326916E-1,-6.6082254E-2,1.2969092E-1,4.8350212E-1,-1.5663518E-1,8.028905E-2],"categories":[],"categories_nodes":[],"categories_segments":[],"categories_sizes":[],"default_left":[0,0,0,0,0,0,0,0,0,0,0,0,0,0,0,0,0,0,0,0,0,0,0,0,0,0,0,0,0,0,0,0,0,0,0,0,0,0,0,0,0,0,0,0,0,0,0,0,0,0,0,0,0,0,0,0,0,0,0,0,0,0,0,0,0,0,0,0,0,0,0,0,0,0,0,0,0,0,0,0,0,0,0,0,0,0,0,0,0,0,0,0,0,0,0,0,0,0,0,0,0,0,0,0,0,0,0,0,0,0,0,0,0,0,0,0,0,0,0,0,0,0,0,0,0,0,0],"id":9,"left_children":[1,3,5,7,9,11,13,15,17,19,21,23,25,27,29,31,33,35,37,39,41,43,45,47,49,51,53,55,57,59,61,63,65,67,69,71,73,75,77,79,81,83,85,87,89,91,93,95,97,99,101,103,105,107,109,111,113,115,117,119,121,123,125,-1,-1,-1,-1,-1,-1,-1,-1,-1,-1,-1,-1,-1,-1,-1,-1,-1,-1,-1,-1,-1,-1,-1,-1,-1,-1,-1,-1,-1,-1,-1,-1,-1,-1,-1,-1,-1,-1,-1,-1,-1,-1,-1,-1,-1,-1,-1,-1,-1,-1,-1,-1,-1,-1,-1,-1,-1,-1,-1,-1,-1,-1,-1,-1],"loss_changes":[8.69541E3,2.2175195E3,6.352472E3,6.7276953E2,1.886815E3,2.1307146E3,3.8714648E3,1.967583E2,4.8263672E2,2.7757324E2,1.7907532E3,2.1289795E3,1.3221779E3,1.2529985E3,4.9618037E3,1.964549E2,1.3120532E2,3.8372266E2,1.2683502E2,4.604236E1,1.9989429E2,4.141411E2,8.319305E2,3.6646484E2,1.5120845E3,3.61932E2,1.1235828E2,3.8084326E2,9.1028613E2,4.5842603E2,3.3054023E3,1.3908649E2,9.6546616E1,2.3910408E2,6.0871616E1,2.9765674E2,2.1743927E2,1.741546E2,6.5575165E1,1.1853699E1,1.1889587E1,1.0086792E2,5.3506866E1,7.707993E2,9.400276E1,8.4929987E2,1.7711531E3,2.2407233E2,7.440359E2,1.7393477E3,5.1506807E3,2.0966016E2,6.896049E2,5.992212E1,1.5493332E1,1.6510376E2,2.5075641E2,3.958828E2,2.457544E2,3.229547E1,6.3760034E2,3.544166E3,8.652944E3,0E0,0E0,0E0,0E0,0E0,0E0,0E0,0E0,0E0,0E0,0E0,0E0,0E0,0E0,0E0,0E0,0E0,0E0,0E0,0E0,0E0,0E0,0E0,0E0,0E0,0E0,0E0,0E0,0E0,0E0,0E0,0E0,0E0,0E0,0E0,0E0,0E0,0E0,0E0,0E0,0E0,0E0,0E0,0E0,0E0,0E0,0E0,0E0,0E0,0E0,0E0,0E0,0E0,0E0,0E0,0E0,0E0,0E0,0E0,0E0,0E0,0E0,0E0,0E0],"parents":[2147483647,0,0,1,1,2,2,3,3,4,4,5,5,6,6,7,7,8,8,9,9,10,10,11,11,12,12,13,13,14,14,15,15,16,16,17,17,18,18,19,19,20,20,21,21,22,22,23,23,24,24,25,25,26,26,27,27,28,28,29,29,30,30,31,31,32,32,33,33,34,34,35,35,36,36,37,37,38,38,39,39,40,40,41,41,42,42,43,43,44,44,45,45,46,46,47,47,48,48,49,49,50,50,51,51,52,52,53,53,54,54,55,55,56,56,57,57,58,58,59,59,60,60,61,61,62,62],"right_children":[2,4,6,8,10,12,14,16,18,20,22,24,26,28,30,32,34,36,38,40,42,44,46,48,50,52,54,56,58,60,62,64,66,68,70,72,74,76,78,80,82,84,86,88,90,92,94,96,98,100,102,104,106,108,110,112,114,116,118,120,122,124,126,-1,-1,-1,-1,-1,-1,-1,-1,-1,-1,-1,-1,-1,-1,-1,-1,-1,-1,-1,-1,-1,-1,-1,-1,-1,-1,-1,-1,-1,-1,-1,-1,-1,-1,-1,-1,-1,-1,-1,-1,-1,-1,-1,-1,-1,-1,-1,-1,-1,-1,-1,-1,-1,-1,-1,-1,-1,-1,-1,-1,-1,-1,-1,-1],"split_conditions":[8E1,2.004E3,2.012E3,2.001E3,2E0,9E0,2E0,1.978E3,2.003E3,3.7E1,8E0,3E0,1.4E1,1.987E3,3E0,1.9E1,4E0,1.6E1,6.7E1,2.014E3,2.012E3,2.023E3,1E1,2E0,1.8E1,2.005E3,2.009E3,2.019E3,2.006E3,2.014E3,6E0,8E0,1.975E3,2E0,7.5E1,9E0,1.984E3,1E1,1.6E1,8E0,8E0,2.018E3,2.021E3,2.018E3,1.978E3,9E0,1.1E1,1.998E3,3E0,2E0,2.1E1,8E0,2.007E3,1.6E1,1.998E3,9.2E1,1E0,1.998E3,1.7E1,2.013E3,2.021E3,5E0,7E0,-2.5100324E-1,-1.0239834E-1,-1.970949E-1,2.5012398E-1,2.0075696E-2,-1.5838131E-1,7.3107537E-3,-1.532376E-1,-1.6268682E-1,-2.4953339E-1,-1.5038224E-1,-5.8713654E-4,-2.156407E-1,-7.216562E-2,-7.383828E-2,1.5954643E-2,-4.5959017E-1,-3.1399277E-1,-7.052103E-1,-5.138324E-1,-1.9995728E-1,-3.16121E-1,-1.7149213E-1,-6.338385E-2,-5.6475837E-2,-1.4517863E-1,-5.9234913E-2,7.012016E-2,-7.5544957E-3,-1.5804233E-1,2.2819333E-1,1.1852081E-2,1.8087305E-2,4.5415354E-1,-2.3205031E-1,-7.558217E-2,1.0691865E-1,-2.7111292E-2,2.9068664E-1,-9.203628E-3,6.6305116E-2,1.5245715E-1,-8.097945E-2,7.583278E-2,8.7280595E-1,3.9833358E-1,3.8142303E-1,9.872756E-1,1.7077391E-1,3.1280163E-1,2.2645824E-1,3.3358235E-2,4.071657E-1,7.211844E-1,3.487622E-1,7.370448E-2,-1.8971598E-2,7.0647605E-2,-2.2326916E-1,-6.6082254E-2,1.2969092E-1,4.8350212E-1,-1.5663518E-1,8.028905E-2],"split_indices":[1,0,0,0,5,6,4,2,0,1,3,3,6,2,4,4,4,4,1,0,2,0,4,4,4,0,0,0,2,0,4,4,2,4,1,4,2,4,4,3,3,0,0,0,2,4,4,2,4,4,4,3,0,4,2,1,4,2,3,0,0,4,4,0,0,0,0,0,0,0,0,0,0,0,0,0,0,0,0,0,0,0,0,0,0,0,0,0,0,0,0,0,0,0,0,0,0,0,0,0,0,0,0,0,0,0,0,0,0,0,0,0,0,0,0,0,0,0,0,0,0,0,0,0,0,0,0],"split_type":[0,0,0,0,0,0,0,0,0,0,0,0,0,0,0,0,0,0,0,0,0,0,0,0,0,0,0,0,0,0,0,0,0,0,0,0,0,0,0,0,0,0,0,0,0,0,0,0,0,0,0,0,0,0,0,0,0,0,0,0,0,0,0,0,0,0,0,0,0,0,0,0,0,0,0,0,0,0,0,0,0,0,0,0,0,0,0,0,0,0,0,0,0,0,0,0,0,0,0,0,0,0,0,0,0,0,0,0,0,0,0,0,0,0,0,0,0,0,0,0,0,0,0,0,0,0,0],"sum_hessian":[5.70601E5,1.61408E5,4.09193E5,3.8824E4,1.22584E5,2.30113E5,1.7908E5,1.0706E4,2.8118E4,5.967E3,1.16617E5,2.06614E5,2.3499E4,8.447E3,1.70633E5,3.227E3,7.479E3,1.9454E4,8.664E3,3.34E2,5.633E3,5.7151E4,5.9466E4,4.0645E4,1.65969E5,2.3193E4,3.06E2,5.735E3,2.712E3,1.1215E4,1.59418E5,2.989E3,2.38E2,2.765E3,4.714E3,1.5935E4,3.519E3,3.088E3,5.576E3,2.09E2,1.25E2,3.874E3,1.759E3,5.4229E4,2.922E3,3.5297E4,2.4169E4,2.083E3,3.8562E4,1.35802E5,3.0167E4,1.0176E4,1.3017E4,2.17E2,8.9E1,3.078E3,2.657E3,1.487E3,1.225E3,1.507E3,9.708E3,1.7313E4,1.42105E5,7.61E2,2.228E3,5.7E1,1.81E2,1.174E3,1.591E3,4.491E3,2.23E2,1.0585E4,5.35E3,1.921E3,1.598E3,1.367E3,1.721E3,4.71E3,8.66E2,9.8E1,1.11E2,6.5E1,6E1,3.005E3,8.69E2,6.61E2,1.098E3,4.3147E4,1.1082E4,6.5E2,2.272E3,3.1517E4,3.78E3,4.102E3,2.0067E4,1.971E3,1.12E2,2.963E3,3.5599E4,9.359E3,1.26443E5,6.597E3,2.357E4,5.004E3,5.172E3,3.425E3,9.592E3,1.89E2,2.8E1,8.5E1,4E0,1.226E3,1.852E3,9.33E2,1.724E3,6.23E2,8.64E2,7.42E2,4.83E2,9.04E2,6.03E2,5.859E3,3.849E3,1.4208E4,3.105E3,1.5582E4,1.26523E5],"tree_param":{"num_deleted":"0","num_feature":"7","num_nodes":"127","size_leaf_vector":"1"}},{"base_weights":[6.299731E-6,-2.0599414E-1,5.024523E-2,-2.1429223E-1,1.1876913E0,-8.6237475E-2,1.244458E-1,-3.0963644E-1,-1.1782995E-1,1.8550509E0,1.8721141E-1,1.4611593E-1,-1.2890436E-1,2.1264717E-2,2.2457817E-1,-4.6585643E-1,-2.6653692E-1,5.2755797E-1,-1.3680875E-1,2.7748554E0,1.6326128E0,-5.15954E-2,8.9345443E-1,3.783987E-2,4.4640616E-1,-1.5908438E-1,1.3616438E-1,-1.0281398E-2,4.0581965E-1,1.8580303E-1,6.0594964E-1,-2.9960907E-1,-5.269921E-1,-1.9122262E-1,-4.064341E-1,4.093058E-1,1.519306E0,-1.5380378E-1,2.702478E-1,3.750924E0,2.5694888E0,2.0382717E0,1.3463248E0,-9.316037E-1,7.546046E-2,9.351627E-1,-4.8094484E-1,-8.033544E-2,1.5053649E-1,1.1829873E0,3.9424232E-1,-1.9508731E-1,-5.9412226E-2,3.1343445E-1,-1.7815207E-1,-2.6052776E-1,1.8042346E-2,6.2289476E-1,2.2329134E-1,8.962331E-1,1.624692E-1,7.8301305E-1,3.2645157E-1,-1.12784065E-1,-2.5841182E-2,-1.728307E-1,-9.773198E-2,-7.3910035E-2,1.693462E-3,-1.7089295E-1,-5.987772E-2,3.382645E-2,1.9429897E-1,5.1413697E-1,6.6660106E-2,-1.3962051E-1,-4.035591E-2,4.971192E-2,1.8735752E-1,1.4297045E0,9.160049E-1,7.3537827E-1,1.160866E0,5.4977953E-1,8.58816E-1,3.300699E-1,7.7457E-1,-3.9835584E-1,-2.1369314E-2,1.4796641E-1,-3.4058116E-2,2.2393699E-1,3.9088944E-1,-6.861522E-2,-5.8313077E-3,8.8036E-2,1.51148895E-2,2.4958065E-1,4.3803072E-1,9.184963E-3,1.4812486E-1,-6.332758E-2,8.5144386E-2,2.043372E-2,-7.194218E-2,-4.1661137E-1,1.0324546E-1,-6.066936E-2,1.2644757E-1,-9.568664E-2,8.972072E-2,4.714379E-2,-1.4343028E-2,8.95813E-2,3.2890075E-1,-1.593425E-1,1.1673149E-1,2.1163866E-1,5.3424233E-1,3.5253815E-2,1.3396879E-1,1.7991336E-1,4.6382165E-1,-7.617791E-2,1.9531022E-1],"categories":[],"categories_nodes":[],"categories_segments":[],"categories_sizes":[],"default_left":[0,0,0,0,0,0,0,0,0,0,0,0,0,0,0,0,0,0,0,0,0,0,0,0,0,0,0,0,0,0,0,0,0,0,0,0,0,0,0,0,0,0,0,0,0,0,0,0,0,0,0,0,0,0,0,0,0,0,0,0,0,0,0,0,0,0,0,0,0,0,0,0,0,0,0,0,0,0,0,0,0,0,0,0,0,0,0,0,0,0,0,0,0,0,0,0,0,0,0,0,0,0,0,0,0,0,0,0,0,0,0,0,0,0,0,0,0,0,0,0,0,0,0,0,0],"id":10,"left_children":[1,3,5,7,9,11,13,15,17,19,21,23,25,27,29,31,33,35,37,39,41,43,45,47,49,51,53,55,57,59,61,63,65,67,69,71,73,75,77,79,81,83,85,87,89,91,-1,93,95,97,99,101,103,105,107,109,111,113,115,117,119,121,123,-1,-1,-1,-1,-1,-1,-1,-1,-1,-1,-1,-1,-1,-1,-1,-1,-1,-1,-1,-1,-1,-1,-1,-1,-1,-1,-1,-1,-1,-1,-1,-1,-1,-1,-1,-1,-1,-1,-1,-1,-1,-1,-1,-1,-1,-1,-1,-1,-1,-1,-1,-1,-1,-1,-1,-1,-1,-1,-1,-1,-1,-1],"loss_changes":[5.905274E3,1.293731E3,4.6455884E3,1.0227754E3,4.418319E2,1.6016638E3,3.0702568E3,3.7648535E2,6.7710126E2,8.035254E1,4.4799408E1,8.1489014E2,1.0919353E3,1.7755295E3,2.230079E3,1.2281152E2,4.6180127E2,1.8493591E2,3.715074E2,1.3858948E1,3.6562073E1,2.2242247E1,7.070183E0,2.4535298E2,2.5500427E2,4.3971802E2,7.774148E2,9.587438E2,4.3955493E2,2.2691802E3,6.886548E2,5.2946686E1,8.725781E1,3.093805E2,5.1776953E2,9.9660446E1,4.2174286E1,3.0969824E2,7.961719E1,7.0360565E0,8.27182E0,2.140564E1,5.6542297E1,8.40777E0,1.371009E1,4.2855606E0,0E0,8.122849E1,1.3494308E2,4.2365723E1,2.2439532E2,6.900017E2,7.4811456E2,4.663806E2,7.263011E1,4.4968213E2,1.1130637E3,7.7794495E2,7.54093E2,7.3421606E2,1.6927317E3,1.1913999E3,1.0169531E3,0E0,0E0,0E0,0E0,0E0,0E0,0E0,0E0,0E0,0E0,0E0,0E0,0E0,0E0,0E0,0E0,0E0,0E0,0E0,0E0,0E0,0E0,0E0,0E0,0E0,0E0,0E0,0E0,0E0,0E0,0E0,0E0,0E0,0E0,0E0,0E0,0E0,0E0,0E0,0E0,0E0,0E0,0E0,0E0,0E0,0E0,0E0,0E0,0E0,0E0,0E0,0E0,0E0,0E0,0E0,0E0,0E0,0E0,0E0,0E0,0E0,0E0],"parents":[2147483647,0,0,1,1,2,2,3,3,4,4,5,5,6,6,7,7,8,8,9,9,10,10,11,11,12,12,13,13,14,14,15,15,16,16,17,17,18,18,19,19,20,20,21,21,22,22,23,23,24,24,25,25,26,26,27,27,28,28,29,29,30,30,31,31,32,32,33,33,34,34,35,35,36,36,37,37,38,38,39,39,40,40,41,41,42,42,43,43,44,44,45,45,47,47,48,48,49,49,50,50,51,51,52,52,53,53,54,54,55,55,56,56,57,57,58,58,59,59,60,60,61,61,62,62],"right_children":[2,4,6,8,10,12,14,16,18,20,22,24,26,28,30,32,34,36,38,40,42,44,46,48,50,52,54,56,58,60,62,64,66,68,70,72,74,76,78,80,82,84,86,88,90,92,-1,94,96,98,100,102,104,106,108,110,112,114,116,118,120,122,124,-1,-1,-1,-1,-1,-1,-1,-1,-1,-1,-1,-1,-1,-1,-1,-1,-1,-1,-1,-1,-1,-1,-1,-1,-1,-1,-1,-1,-1,-1,-1,-1,-1,-1,-1,-1,-1,-1,-1,-1,-1,-1,-1,-1,-1,-1,-1,-1,-1,-1,-1,-1,-1,-1,-1,-1,-1,-1,-1,-1,-1,-1],"split_conditions":[3E0,1.3E1,2.007E3,9.5E1,1.973E3,2.001E3,9.5E1,2.004E3,2E0,8.5E1,1.13E2,1.991E3,7E0,2.016E3,2.005E3,2.001E3,2.016E3,1.998E3,2.023E3,2.003E3,2.008E3,3E0,2.013E3,3E0,5E0,1.996E3,2.005E3,6.2E1,1.3E1,2E0,2.3E1,3E0,1.4E1,2.012E3,2.021E3,2.008E3,2.006E3,3E0,1.8E1,8E1,2.022E3,1.53E2,2.021E3,9.3E1,8.5E1,1.7E1,-4.8094484E-1,1.978E3,6E0,4E0,7E0,2.2E1,1.3E1,1.983E3,1.6E2,1.9E1,1.981E3,8E0,1.6E1,1.998E3,1.38E2,1.8E1,2.013E3,-1.12784065E-1,-2.5841182E-2,-1.728307E-1,-9.773198E-2,-7.3910035E-2,1.693462E-3,-1.7089295E-1,-5.987772E-2,3.382645E-2,1.9429897E-1,5.1413697E-1,6.6660106E-2,-1.3962051E-1,-4.035591E-2,4.971192E-2,1.8735752E-1,1.4297045E0,9.160049E-1,7.3537827E-1,1.160866E0,5.4977953E-1,8.58816E-1,3.300699E-1,7.7457E-1,-3.9835584E-1,-2.1369314E-2,1.4796641E-1,-3.4058116E-2,2.2393699E-1,3.9088944E-1,-6.861522E-2,-5.8313077E-3,8.8036E-2,1.51148895E-2,2.4958065E-1,4.3803072E-1,9.184963E-3,1.4812486E-1,-6.332758E-2,8.5144386E-2,2.043372E-2,-7.194218E-2,-4.1661137E-1,1.0324546E-1,-6.066936E-2,1.2644757E-1,-9.568664E-2,8.972072E-2,4.714379E-2,-1.4343028E-2,8.95813E-2,3.2890075E-1,-1.593425E-1,1.1673149E-1,2.1163866E-1,5.3424233E-1,3.5253815E-2,1.3396879E-1,1.7991336E-1,4.6382165E-1,-7.617791E-2,1.9531022E-1],"split_indices":[3,6,0,1,2,0,1,0,4,1,1,2,6,2,2,0,0,2,0,0,0,4,2,5,4,2,0,1,4,4,4,5,4,0,0,0,2,4,4,1,0,1,0,1,1,4,0,2,4,4,4,4,4,2,1,4,2,4,4,2,1,4,2,0,0,0,0,0,0,0,0,0,0,0,0,0,0,0,0,0,0,0,0,0,0,0,0,0,0,0,0,0,0,0,0,0,0,0,0,0,0,0,0,0,0,0,0,0,0,0,0,0,0,0,0,0,0,0,0,0,0,0,0,0,0],"split_type":[0,0,0,0,0,0,0,0,0,0,0,0,0,0,0,0,0,0,0,0,0,0,0,0,0,0,0,0,0,0,0,0,0,0,0,0,0,0,0,0,0,0,0,0,0,0,0,0,0,0,0,0,0,0,0,0,0,0,0,0,0,0,0,0,0,0,0,0,0,0,0,0,0,0,0,0,0,0,0,0,0,0,0,0,0,0,0,0,0,0,0,0,0,0,0,0,0,0,0,0,0,0,0,0,0,0,0,0,0,0,0,0,0,0,0,0,0,0,0,0,0,0,0,0,0],"sum_hessian":[5.70601E5,1.11873E5,4.58728E5,1.11211E5,6.62E2,1.61559E5,2.97169E5,5.5929E4,5.5282E4,3.97E2,2.65E2,2.5064E4,1.36495E5,1.46357E5,1.50812E5,1.2093E4,4.3836E4,1.579E3,5.3703E4,7.7E1,3.2E2,1.98E2,6.7E1,1.8422E4,6.642E3,1.22543E5,1.3952E4,1.35261E5,1.1096E4,1.36894E5,1.3918E4,3.252E3,8.841E3,2.8496E4,1.534E4,1.411E3,1.68E2,5.1551E4,2.152E3,1.3E1,6.4E1,1.32E2,1.88E2,2.5E1,1.73E2,6.6E1,1E0,8.992E3,9.43E3,4.39E2,6.203E3,9.0024E4,3.2519E4,8.921E3,5.031E3,1.3753E4,1.21508E5,5.068E3,6.028E3,4.353E3,1.32541E5,8.52E3,5.398E3,2.395E3,8.57E2,7.106E3,1.735E3,2.2261E4,6.235E3,8.574E3,6.766E3,6.29E2,7.82E2,1.46E2,2.2E1,3.004E3,4.8547E4,1.662E3,4.9E2,5E0,8E0,5.9E1,5E0,1.06E2,2.6E1,1.57E2,3.1E1,1.7E1,8E0,5.4E1,1.19E2,4.4E1,2.2E1,2.616E3,6.376E3,3.885E3,5.545E3,1.94E2,2.45E2,1.333E3,4.87E3,8.7113E4,2.911E3,1.9051E4,1.3468E4,1.58E2,8.763E3,4.837E3,1.94E2,1.2453E4,1.3E3,3.9041E4,8.2467E4,3.008E3,2.06E3,1.086E3,4.942E3,3.581E3,7.72E2,1.14433E5,1.8108E4,6.87E3,1.65E3,1.936E3,3.462E3],"tree_param":{"num_deleted":"0","num_feature":"7","num_nodes":"125","size_leaf_vector":"1"}},{"base_weights":[6.857581E-6,-8.419291E-2,8.196332E-2,-1.8513465E-2,-4.5529923E-1,7.290479E-1,-2.5738608E-3,-8.9756645E-2,8.3924276E-1,-7.424528E-1,-3.321683E-2,3.252444E-1,1.7565242E0,-2.0470141E-1,1.0716835E-1,4.450758E-2,-4.1929805E-1,3.6348623E-1,2.3213272E0,-5.0550836E-1,-1.0989348E0,9.0053424E-2,-6.398305E-1,8.485714E-2,8.893114E-1,1.8982388E0,9.887667E-1,-6.049301E-2,-5.504119E-1,1.961912E-1,-1.08610205E-1,-1.0432032E-1,3.6069137E-1,-1.564759E0,-2.8556028E-1,1.05437174E-1,6.79215E-1,2.6094704E0,1.6380185E0,-3.910954E-2,-7.0822483E-1,-1.1962714E0,-5.735079E-1,1.758966E-1,-2.1401723E-1,-8.725319E-1,-3.4669605E-1,-1.6697696E-1,3.106863E-1,1.3147894E0,6.572626E-1,2.3358185E0,1.5027766E0,2.4796896E0,8.725714E-1,-2.2635417E-1,5.998568E-1,-1.2162718E0,-4.4144428E-1,1.3152707E-1,7.874895E-1,1.4624834E0,-1.5602365E-1,4.5339324E-2,-8.5190386E-2,6.593209E-2,3.6648396E-1,-5.3269815E-1,-2.9985723E-1,-1.1100073E-1,1.3384507E-2,9.50045E-2,-1.5870067E-1,1.1399951E-1,3.1680447E-1,6.896949E-1,8.868645E-1,5.608657E-1,1.6988593E-1,4.424665E-2,-7.842918E-2,-1.7843895E-1,-3.5227752E-1,-5.282203E-1,-3.057101E-1,6.789067E-2,-2.211686E-1,-1.12337336E-1,6.929008E-2,-2.6950022E-2,-1.6084053E-1,-8.510293E-2,-3.5489395E-1,-1.2641607E-1,4.0281024E-2,-8.5812986E-2,4.3916605E-2,1.9786872E-1,1.6954992E-2,2.3876898E-1,5.0083256E-1,7.656941E-2,3.723553E-1,8.104772E-1,5.5394703E-1,3.042851E-1,4.9409157E-1,6.128162E-1,8.730316E-1,3.5783976E-1,1.4274117E-1,3.917208E-3,-1.8095115E-1,1.0916083E-1,3.009282E-1,-5.191334E-1,-3.0692354E-1,-7.6689094E-2,-2.4217059E-1,1.9318102E-2,2.089577E-1,-5.945505E-1,2.6895198E-1,1.13265656E-1,6.2715155E-1,-1.0489629E-1,3.457335E-2],"categories":[],"categories_nodes":[],"categories_segments":[],"categories_sizes":[],"default_left":[0,0,0,0,0,0,0,0,0,0,0,0,0,0,0,0,0,0,0,0,0,0,0,0,0,0,0,0,0,0,0,0,0,0,0,0,0,0,0,0,0,0,0,0,0,0,0,0,0,0,0,0,0,0,0,0,0,0,0,0,0,0,0,0,0,0,0,0,0,0,0,0,0,0,0,0,0,0,0,0,0,0,0,0,0,0,0,0,0,0,0,0,0,0,0,0,0,0,0,0,0,0,0,0,0,0,0,0,0,0,0,0,0,0,0,0,0,0,0,0,0,0,0,0,0,0,0],"id":11,"left_children":[1,3,5,7,9,11,13,15,17,19,21,23,25,27,29,31,33,35,37,39,41,43,45,47,49,51,53,55,57,59,61,63,65,67,69,71,73,75,77,79,81,83,85,87,89,91,93,95,97,99,101,103,105,107,109,111,113,115,117,119,121,123,125,-1,-1,-1,-1,-1,-1,-1,-1,-1,-1,-1,-1,-1,-1,-1,-1,-1,-1,-1,-1,-1,-1,-1,-1,-1,-1,-1,-1,-1,-1,-1,-1,-1,-1,-1,-1,-1,-1,-1,-1,-1,-1,-1,-1,-1,-1,-1,-1,-1,-1,-1,-1,-1,-1,-1,-1,-1,-1,-1,-1,-1,-1,-1,-1],"loss_changes":[3.9375562E3,6.859984E3,1.5817528E4,1.4612819E4,5.129342E3,1.3861955E4,5.6728633E3,9.768989E3,1.2930048E4,2.127164E3,1.2813793E3,3.2521426E3,1.0251035E3,4.486434E3,3.183942E3,7.3820493E3,9.791014E3,1.1309375E3,8.765137E2,1.4304238E3,5.1405566E2,3.7172668E2,1.9726257E2,9.5648987E2,7.073364E2,1.3762129E3,2.5395276E2,6.9552417E3,1.9217539E3,4.4864897E3,3.6060063E3,4.8950566E3,6.0910337E3,7.9611035E2,1.5957334E3,1.02380176E3,7.0369336E2,3.3621094E2,3.27719E2,1.9018547E2,5.5723535E2,8.483281E2,2.0592719E2,3.3660007E2,1.25342316E2,2.9470898E2,4.6056274E1,2.9668393E2,7.862032E2,4.6504248E2,1.088635E3,6.750801E2,2.9400586E2,1.8865417E1,1.7296655E2,4.5788887E3,1.2129219E3,3.695796E2,1.5471279E3,4.0119219E3,3.4922192E3,9.659116E2,2.4683267E3,0E0,0E0,0E0,0E0,0E0,0E0,0E0,0E0,0E0,0E0,0E0,0E0,0E0,0E0,0E0,0E0,0E0,0E0,0E0,0E0,0E0,0E0,0E0,0E0,0E0,0E0,0E0,0E0,0E0,0E0,0E0,0E0,0E0,0E0,0E0,0E0,0E0,0E0,0E0,0E0,0E0,0E0,0E0,0E0,0E0,0E0,0E0,0E0,0E0,0E0,0E0,0E0,0E0,0E0,0E0,0E0,0E0,0E0,0E0,0E0,0E0,0E0,0E0,0E0],"parents":[2147483647,0,0,1,1,2,2,3,3,4,4,5,5,6,6,7,7,8,8,9,9,10,10,11,11,12,12,13,13,14,14,15,15,16,16,17,17,18,18,19,19,20,20,21,21,22,22,23,23,24,24,25,25,26,26,27,27,28,28,29,29,30,30,31,31,32,32,33,33,34,34,35,35,36,36,37,37,38,38,39,39,40,40,41,41,42,42,43,43,44,44,45,45,46,46,47,47,48,48,49,49,50,50,51,51,52,52,53,53,54,54,55,55,56,56,57,57,58,58,59,59,60,60,61,61,62,62],"right_children":[2,4,6,8,10,12,14,16,18,20,22,24,26,28,30,32,34,36,38,40,42,44,46,48,50,52,54,56,58,60,62,64,66,68,70,72,74,76,78,80,82,84,86,88,90,92,94,96,98,100,102,104,106,108,110,112,114,116,118,120,122,124,126,-1,-1,-1,-1,-1,-1,-1,-1,-1,-1,-1,-1,-1,-1,-1,-1,-1,-1,-1,-1,-1,-1,-1,-1,-1,-1,-1,-1,-1,-1,-1,-1,-1,-1,-1,-1,-1,-1,-1,-1,-1,-1,-1,-1,-1,-1,-1,-1,-1,-1,-1,-1,-1,-1,-1,-1,-1,-1,-1,-1,-1,-1,-1,-1],"split_conditions":[1E1,9E0,1.2E1,8E0,1.997E3,1.987E3,1.6E1,6E0,1.99E3,6E0,2.003E3,7.2E1,2.6E1,1.5E1,2.3E1,4E0,1.982E3,6.8E1,1.8E1,8.5E1,1.994E3,1.4E1,2.011E3,1.974E3,1.1E1,1.1E1,2.004E3,1.4E1,1.99E3,2.2E1,1.99E3,2E0,1.989E3,1.981E3,7E0,2.016E3,1.984E3,2.012E3,7E0,1.985E3,2.017E3,2.004E3,2.001E3,2.003E3,1.7E1,2.014E3,1.13E2,3E0,1.1E1,2.007E3,1.982E3,2.004E3,2.007E3,2.01E3,2.021E3,1.3E1,2.012E3,1.982E3,2.015E3,2.002E3,1.975E3,2.007E3,7E0,4.5339324E-2,-8.5190386E-2,6.593209E-2,3.6648396E-1,-5.3269815E-1,-2.9985723E-1,-1.1100073E-1,1.3384507E-2,9.50045E-2,-1.5870067E-1,1.1399951E-1,3.1680447E-1,6.896949E-1,8.868645E-1,5.608657E-1,1.6988593E-1,4.424665E-2,-7.842918E-2,-1.7843895E-1,-3.5227752E-1,-5.282203E-1,-3.057101E-1,6.789067E-2,-2.211686E-1,-1.12337336E-1,6.929008E-2,-2.6950022E-2,-1.6084053E-1,-8.510293E-2,-3.5489395E-1,-1.2641607E-1,4.0281024E-2,-8.5812986E-2,4.3916605E-2,1.9786872E-1,1.6954992E-2,2.3876898E-1,5.0083256E-1,7.656941E-2,3.723553E-1,8.104772E-1,5.5394703E-1,3.042851E-1,4.9409157E-1,6.128162E-1,8.730316E-1,3.5783976E-1,1.4274117E-1,3.917208E-3,-1.8095115E-1,1.0916083E-1,3.009282E-1,-5.191334E-1,-3.0692354E-1,-7.6689094E-2,-2.4217059E-1,1.9318102E-2,2.089577E-1,-5.945505E-1,2.6895198E-1,1.13265656E-1,6.2715155E-1,-1.0489629E-1,3.457335E-2],"split_indices":[4,4,4,4,2,2,4,4,2,6,2,1,3,4,4,4,2,1,3,1,2,3,2,2,4,4,2,4,2,4,2,4,2,2,6,0,2,0,6,2,0,0,0,0,3,0,1,6,4,0,2,2,0,0,0,4,0,2,0,2,2,0,6,0,0,0,0,0,0,0,0,0,0,0,0,0,0,0,0,0,0,0,0,0,0,0,0,0,0,0,0,0,0,0,0,0,0,0,0,0,0,0,0,0,0,0,0,0,0,0,0,0,0,0,0,0,0,0,0,0,0,0,0,0,0,0,0],"split_type":[0,0,0,0,0,0,0,0,0,0,0,0,0,0,0,0,0,0,0,0,0,0,0,0,0,0,0,0,0,0,0,0,0,0,0,0,0,0,0,0,0,0,0,0,0,0,0,0,0,0,0,0,0,0,0,0,0,0,0,0,0,0,0,0,0,0,0,0,0,0,0,0,0,0,0,0,0,0,0,0,0,0,0,0,0,0,0,0,0,0,0,0,0,0,0,0,0,0,0,0,0,0,0,0,0,0,0,0,0,0,0,0,0,0,0,0,0,0,0,0,0,0,0,0,0,0,0],"sum_hessian":[5.70601E5,2.81448E5,2.89153E5,2.39127E5,4.2321E4,3.3411E4,2.55742E5,2.20789E5,1.8338E4,2.5186E4,1.7135E4,2.3985E4,9.426E3,8.9992E4,1.6575E5,1.56874E5,6.3915E4,1.3882E4,4.456E3,1.513E4,1.0056E4,1.4241E4,2.894E3,1.6818E4,7.167E3,7.957E3,1.469E3,6.3503E4,2.6489E4,1.1734E5,4.841E4,1.06666E5,5.0208E4,6.682E3,5.7233E4,7.639E3,6.243E3,3.134E3,1.322E3,4.584E3,1.0546E4,8.484E3,1.572E3,1.1106E4,3.135E3,1.613E3,1.281E3,7.951E3,8.867E3,2.529E3,4.638E3,3.777E3,4.18E3,1.06E2,1.363E3,5.0755E4,1.2748E4,3.725E3,2.2764E4,1.05773E5,1.1567E4,1.418E3,4.6992E4,4.4041E4,6.2625E4,4.3146E4,7.062E3,4.866E3,1.816E3,4.5577E4,1.1656E4,5.731E3,1.908E3,3.48E3,2.763E3,1.654E3,1.48E3,1.087E3,2.35E2,2.492E3,2.092E3,8.482E3,2.064E3,2.027E3,6.457E3,2.67E2,1.305E3,1.01E3,1.0096E4,2.263E3,8.72E2,5.57E2,1.056E3,1.109E3,1.72E2,5.762E3,2.189E3,3.737E3,5.13E3,1.027E3,1.502E3,2.747E3,1.891E3,2.161E3,1.616E3,9.53E2,3.227E3,5.3E1,5.3E1,7.54E2,6.09E2,3.1036E4,1.9719E4,8.042E3,4.706E3,1.017E3,2.708E3,1.5096E4,7.668E3,9.454E4,1.1233E4,4.38E2,1.1129E4,5.2E2,8.98E2,2.742E4,1.9572E4],"tree_param":{"num_deleted":"0","num_feature":"7","num_nodes":"127","size_leaf_vector":"1"}},{"base_weights":[6.3586563E-6,-1.8234495E-2,3.4825552E-1,-8.765059E-2,5.0748073E-2,2.7429757E-1,5.736499E-1,-2.1605957E-1,-5.4988597E-2,2.2581673E-1,1.7808925E-2,3.1031418E-1,-3.7784004E-1,9.959725E-1,3.3321446E-1,-4.3750125E-1,-1.896991E-1,-4.291623E-1,-4.5925118E-2,1.6008526E-1,1.3000115E0,-2.9214874E-1,7.2068505E-2,7.785075E-2,3.753597E-1,-4.4331026E-1,-7.825778E-2,6.868683E-1,1.6977054E0,1.7072278E-1,5.648411E-1,-7.32672E-1,-3.682678E-1,-2.9161124E-2,-2.4550602E-1,-8.088105E-1,-3.3744612E-1,-1.064257E-1,6.5577263E-3,-1.366547E-2,5.184486E-1,9.5407E-1,1.6911844E0,-1.3526888E0,-2.3869321E-1,6.4736116E-1,3.4339797E-2,1.5586068E-1,-9.711155E-2,9.648555E-1,3.5192817E-1,-5.57515E-1,-2.575803E-1,-3.7925878E-1,2.6302775E-2,4.892074E-1,1.46418E0,2.064649E0,1.0827687E0,1.9689232E0,1.4069706E-1,3.2301273E-2,8.500839E-1,-4.189601E-1,-2.0337974E-1,-1.6430864E-1,-6.5004304E-2,-4.4444192E-2,4.3316603E-2,8.051887E-2,-7.7434435E-2,-1.6936965E-2,-2.624267E-1,-1.264823E-1,-5.7006516E-2,-7.856139E-3,-1.565733E-1,5.444032E-2,-2.779618E-2,5.2219514E-2,-8.071339E-2,1.0179087E-1,1.8394534E-1,4.1614297E-1,1.20301604E-1,5.3137887E-1,1.6726843E-1,-3.4810728E-1,-6.3651174E-1,-8.26886E-2,2.24703E-1,-1.741353E-2,3.9684755E-1,-9.6256115E-2,2.7111402E-2,-2.4808593E-2,6.70602E-2,-9.883482E-2,7.6131E-2,1.3032456E-1,3.7088388E-1,9.194263E-2,2.000735E-1,-2.2786425E-1,-1.478708E-1,-1.3014331E-1,-3.356588E-2,-7.04534E-2,-2.1748304E-1,-1.0221429E-2,9.443606E-2,1.749235E-2,1.8610862E-1,-1.52068E-1,4.652378E-1,6.938684E-1,3.5422796E-1,2.585845E-1,5.7328814E-1,1.3924456E-1,9.4475543E-1,-2.1258593E-2,7.1292594E-2,-5.0694183E-2,1.7002349E-1,4.34219E-2,2.7806818E-1],"categories":[],"categories_nodes":[],"categories_segments":[],"categories_sizes":[],"default_left":[0,0,0,0,0,0,0,0,0,0,0,0,0,0,0,0,0,0,0,0,0,0,0,0,0,0,0,0,0,0,0,0,0,0,0,0,0,0,0,0,0,0,0,0,0,0,0,0,0,0,0,0,0,0,0,0,0,0,0,0,0,0,0,0,0,0,0,0,0,0,0,0,0,0,0,0,0,0,0,0,0,0,0,0,0,0,0,0,0,0,0,0,0,0,0,0,0,0,0,0,0,0,0,0,0,0,0,0,0,0,0,0,0,0,0,0,0,0,0,0,0,0,0,0,0,0,0],"id":12,"left_children":[1,3,5,7,9,11,13,15,17,19,21,23,25,27,29,31,33,35,37,39,41,43,45,47,49,51,53,55,57,59,61,63,65,67,69,71,73,75,77,79,81,83,85,87,89,91,93,95,97,99,101,103,105,107,109,111,113,115,117,119,121,123,125,-1,-1,-1,-1,-1,-1,-1,-1,-1,-1,-1,-1,-1,-1,-1,-1,-1,-1,-1,-1,-1,-1,-1,-1,-1,-1,-1,-1,-1,-1,-1,-1,-1,-1,-1,-1,-1,-1,-1,-1,-1,-1,-1,-1,-1,-1,-1,-1,-1,-1,-1,-1,-1,-1,-1,-1,-1,-1,-1,-1,-1,-1,-1,-1],"loss_changes":[3.6246985E3,2.5963345E3,4.733203E2,1.1334338E3,1.5682002E3,5.022699E2,7.122578E2,3.1981982E2,7.3061304E2,3.0405205E3,3.8494087E3,3.0637427E2,2.1894104E1,5.516992E2,1.6819736E2,1.189845E2,4.3871936E2,1.772688E2,6.679418E2,2.52687E3,3.3559473E2,1.9328892E3,4.2277925E3,6.0486565E1,2.1854785E2,1.9378159E1,6.3654795E0,2.712376E2,1.750376E2,1.4165846E2,2.7988177E2,3.9929382E1,1.2834747E2,2.6087634E2,2.3547144E2,4.9074524E1,5.0852325E1,3.257565E3,1.9546841E3,1.3102864E3,2.2469604E2,3.154735E2,1.0543457E2,2.4141455E2,1.1842316E3,5.7121816E3,3.6380547E3,4.949852E1,1.1138458E2,8.689801E1,2.1791492E2,7.253189E0,8.929661E0,2.4879198E0,2.6260185E0,7.956305E1,6.131775E1,1.0625781E2,5.279489E1,7.6039276E1,5.3037655E1,6.923008E1,6.489783E1,0E0,0E0,0E0,0E0,0E0,0E0,0E0,0E0,0E0,0E0,0E0,0E0,0E0,0E0,0E0,0E0,0E0,0E0,0E0,0E0,0E0,0E0,0E0,0E0,0E0,0E0,0E0,0E0,0E0,0E0,0E0,0E0,0E0,0E0,0E0,0E0,0E0,0E0,0E0,0E0,0E0,0E0,0E0,0E0,0E0,0E0,0E0,0E0,0E0,0E0,0E0,0E0,0E0,0E0,0E0,0E0,0E0,0E0,0E0,0E0,0E0,0E0,0E0,0E0],"parents":[2147483647,0,0,1,1,2,2,3,3,4,4,5,5,6,6,7,7,8,8,9,9,10,10,11,11,12,12,13,13,14,14,15,15,16,16,17,17,18,18,19,19,20,20,21,21,22,22,23,23,24,24,25,25,26,26,27,27,28,28,29,29,30,30,31,31,32,32,33,33,34,34,35,35,36,36,37,37,38,38,39,39,40,40,41,41,42,42,43,43,44,44,45,45,46,46,47,47,48,48,49,49,50,50,51,51,52,52,53,53,54,54,55,55,56,56,57,57,58,58,59,59,60,60,61,61,62,62],"right_children":[2,4,6,8,10,12,14,16,18,20,22,24,26,28,30,32,34,36,38,40,42,44,46,48,50,52,54,56,58,60,62,64,66,68,70,72,74,76,78,80,82,84,86,88,90,92,94,96,98,100,102,104,106,108,110,112,114,116,118,120,122,124,126,-1,-1,-1,-1,-1,-1,-1,-1,-1,-1,-1,-1,-1,-1,-1,-1,-1,-1,-1,-1,-1,-1,-1,-1,-1,-1,-1,-1,-1,-1,-1,-1,-1,-1,-1,-1,-1,-1,-1,-1,-1,-1,-1,-1,-1,-1,-1,-1,-1,-1,-1,-1,-1,-1,-1,-1,-1,-1,-1,-1,-1,-1,-1,-1],"split_conditions":[2.023E3,9.7E1,1.8E1,3E0,6E0,1.7E1,2.3E1,6.2E1,2E0,5E0,7E0,1.984E3,1.13E2,1.997E3,7E0,4.8E1,1.98E3,4.3E1,8E0,1.989E3,1.984E3,1.987E3,9E0,8.5E1,2E0,1.1E1,2.001E3,2.2E1,1.8E1,1.99E3,2.008E3,3.4E1,1E1,7.2E1,1E0,1.969E3,1.986E3,6E0,1.2E1,1.986E3,4E0,1.979E3,2.6E1,1.4E1,1.75E2,1.989E3,1E1,1.974E3,1.03E2,1.994E3,1.24E2,3E0,2.016E3,1.24E2,1.31E2,6.8E1,1.975E3,2E1,1.002E2,1.977E3,9.2E1,1.23E2,7.4E1,-4.189601E-1,-2.0337974E-1,-1.6430864E-1,-6.5004304E-2,-4.4444192E-2,4.3316603E-2,8.051887E-2,-7.7434435E-2,-1.6936965E-2,-2.624267E-1,-1.264823E-1,-5.7006516E-2,-7.856139E-3,-1.565733E-1,5.444032E-2,-2.779618E-2,5.2219514E-2,-8.071339E-2,1.0179087E-1,1.8394534E-1,4.1614297E-1,1.20301604E-1,5.3137887E-1,1.6726843E-1,-3.4810728E-1,-6.3651174E-1,-8.26886E-2,2.24703E-1,-1.741353E-2,3.9684755E-1,-9.6256115E-2,2.7111402E-2,-2.4808593E-2,6.70602E-2,-9.883482E-2,7.6131E-2,1.3032456E-1,3.7088388E-1,9.194263E-2,2.000735E-1,-2.2786425E-1,-1.478708E-1,-1.3014331E-1,-3.356588E-2,-7.04534E-2,-2.1748304E-1,-1.0221429E-2,9.443606E-2,1.749235E-2,1.8610862E-1,-1.52068E-1,4.652378E-1,6.938684E-1,3.5422796E-1,2.585845E-1,5.7328814E-1,1.3924456E-1,9.4475543E-1,-2.1258593E-2,7.1292594E-2,-5.0694183E-2,1.7002349E-1,4.34219E-2,2.7806818E-1],"split_indices":[0,1,4,3,4,4,4,1,5,4,4,2,1,2,6,1,2,1,4,2,2,2,4,1,4,3,2,4,3,2,2,1,4,1,4,2,2,4,4,2,5,2,3,3,1,2,4,2,1,2,1,3,2,1,1,1,2,4,1,2,1,1,1,0,0,0,0,0,0,0,0,0,0,0,0,0,0,0,0,0,0,0,0,0,0,0,0,0,0,0,0,0,0,0,0,0,0,0,0,0,0,0,0,0,0,0,0,0,0,0,0,0,0,0,0,0,0,0,0,0,0,0,0,0,0,0,0],"split_type":[0,0,0,0,0,0,0,0,0,0,0,0,0,0,0,0,0,0,0,0,0,0,0,0,0,0,0,0,0,0,0,0,0,0,0,0,0,0,0,0,0,0,0,0,0,0,0,0,0,0,0,0,0,0,0,0,0,0,0,0,0,0,0,0,0,0,0,0,0,0,0,0,0,0,0,0,0,0,0,0,0,0,0,0,0,0,0,0,0,0,0,0,0,0,0,0,0,0,0,0,0,0,0,0,0,0,0,0,0,0,0,0,0,0,0,0,0,0,0,0,0,0,0,0,0,0,0],"sum_hessian":[5.70601E5,5.42201E5,2.84E4,2.70252E5,2.71949E5,2.1384E4,7.016E3,5.4801E4,2.15451E5,4.3064E4,2.28885E5,2.0265E4,1.119E3,2.545E3,4.471E3,5.829E3,4.8972E4,5.095E3,2.10356E5,4.0581E4,2.483E3,3.4098E4,1.94787E5,4.431E3,1.5834E4,9.18E2,2.01E2,1.767E3,7.78E2,2.628E3,1.843E3,1.107E3,4.722E3,1.2633E4,3.6339E4,9.91E2,4.104E3,9.7715E4,1.12641E5,2.733E4,1.3251E4,1.318E3,1.165E3,1.636E3,3.2462E4,1.1988E4,1.82799E5,3.065E3,1.366E3,6.05E2,1.5229E4,5.68E2,3.5E2,5.2E1,1.49E2,1.409E3,3.58E2,4.87E2,2.91E2,4.3E1,2.585E3,6.43E2,1.2E3,8.4E1,1.023E3,2.162E3,2.56E3,7.495E3,5.138E3,8.7E2,3.5469E4,8E1,9.11E2,2.612E3,1.492E3,8.1899E4,1.5816E4,4.0768E4,7.1873E4,1.5751E4,1.1579E4,4.583E3,8.668E3,7.39E2,5.79E2,1.088E3,7.7E1,1.309E3,3.27E2,3.1292E4,1.17E3,5.864E3,6.124E3,2.4907E4,1.57892E5,6.77E2,2.388E3,8.22E2,5.44E2,2.05E2,4E2,1.3309E4,1.92E3,1.37E2,4.31E2,1.58E2,1.92E2,3.7E1,1.5E1,1.23E2,2.6E1,3.29E2,1.08E3,1.5E1,3.43E2,3.8E2,1.07E2,2.3E2,6.1E1,1.9E1,2.4E1,8.12E2,1.773E3,4.67E2,1.76E2,1.18E2,1.082E3],"tree_param":{"num_deleted":"0","num_feature":"7","num_nodes":"127","size_leaf_vector":"1"}},{"base_weights":[5.305595E-6,-6.5714784E-2,5.2961893E-2,-1.6615629E-1,-3.3920545E-2,3.2676484E-2,2.361998E-1,-4.831881E-1,-1.5118563E-1,7.30621E-1,-4.0512424E-2,3.6651397E-3,1.4221399E-1,2.0592898E-1,5.134131E-1,-6.024431E-1,-3.329758E-1,-2.7622378E-1,-1.2350446E-1,2.4338977E-2,1.3676279E0,2.4921645E-1,-5.6703724E-2,2.6966237E-2,-7.7756715E-1,5.894245E-1,-4.0875755E-2,1.3923742E-1,2.9935217E-1,3.283332E-1,6.509434E-1,-5.3524774E-1,-9.103827E-1,4.9529728E-2,-4.3195E-1,-1.1835137E-1,-3.6355555E-1,-8.671356E-2,-2.4364778E-1,-1.1280166E0,1.1155933E-1,8.536006E-1,2.019238E0,1.8455005E-1,1.0511762E0,-3.3073738E-1,-3.279325E-2,-2.9807296E-2,1.2970681E-1,-5.4184556E-1,-1.2474012E0,3.0049434E-1,1.2720158E0,2.832099E-1,-1.23643026E-1,5.835739E-1,1.1765889E-1,3.4502265E-1,7.4375845E-2,4.6642777E-1,-3.033802E-1,1.1427573E0,5.9575677E-1,-2.5591075E-1,-1.3687606E-1,-4.9108252E-1,-2.4510945E-1,9.7200364E-2,-2.2504076E-1,-2.5433975E-1,-1.18930556E-1,-4.8448976E-2,3.734464E-2,-1.5386835E-1,-9.032662E-2,-9.777179E-3,-5.993602E-2,-1.4095454E-1,-1.8400209E-2,-9.192575E-1,-2.9055107E-1,7.248085E-2,-1.8566321E-1,6.8346225E-2,3.606264E-1,2.612619E-1,8.473368E-1,9.68827E-3,9.352633E-2,4.0341043E-1,1.987532E-1,-1.0351303E-1,1.8582195E-1,4.4541262E-2,-1.7635599E-2,-5.460165E-2,-1.0584494E-3,6.437981E-2,-2.0772552E-2,-1.3857652E-1,-3.2655603E-1,-3.0676818E-1,-5.2410203E-1,1.0731556E-3,2.243121E-1,5.586297E-1,1.5462367E-1,-1.1117387E-1,1.7680709E-1,-8.410551E-2,3.432258E-2,1.0524482E-1,3.2816875E-1,2.3038194E-2,1.0702453E-1,7.9146296E-2,2.5138444E-1,6.766807E-1,1.295349E-2,1.2435814E-1,3.0935025E-1,-7.704232E-2,-2.3225532E-1,8.260536E-2,4.4054133E-1,1.7088376E-1,3.8594583E-1],"categories":[],"categories_nodes":[],"categories_segments":[],"categories_sizes":[],"default_left":[0,0,0,0,0,0,0,0,0,0,0,0,0,0,0,0,0,0,0,0,0,0,0,0,0,0,0,0,0,0,0,0,0,0,0,0,0,0,0,0,0,0,0,0,0,0,0,0,0,0,0,0,0,0,0,0,0,0,0,0,0,0,0,0,0,0,0,0,0,0,0,0,0,0,0,0,0,0,0,0,0,0,0,0,0,0,0,0,0,0,0,0,0,0,0,0,0,0,0,0,0,0,0,0,0,0,0,0,0,0,0,0,0,0,0,0,0,0,0,0,0,0,0,0,0,0,0],"id":13,"left_children":[1,3,5,7,9,11,13,15,17,19,21,23,25,27,29,31,33,35,37,39,41,43,45,47,49,51,53,55,57,59,61,63,65,67,69,71,73,75,77,79,81,83,85,87,89,91,93,95,97,99,101,103,105,107,109,111,113,115,117,119,121,123,125,-1,-1,-1,-1,-1,-1,-1,-1,-1,-1,-1,-1,-1,-1,-1,-1,-1,-1,-1,-1,-1,-1,-1,-1,-1,-1,-1,-1,-1,-1,-1,-1,-1,-1,-1,-1,-1,-1,-1,-1,-1,-1,-1,-1,-1,-1,-1,-1,-1,-1,-1,-1,-1,-1,-1,-1,-1,-1,-1,-1,-1,-1,-1,-1],"loss_changes":[1.9858688E3,8.1308594E2,1.1745065E3,2.9048083E2,9.746146E2,9.040497E2,2.6419922E2,4.932965E1,2.0229211E2,7.4359784E2,8.9947534E2,4.094294E3,4.8776367E3,1.7686267E2,7.8791016E1,3.163324E1,4.6306854E1,1.4602509E2,2.115285E2,7.871994E1,2.9064124E2,5.261359E2,1.1898368E3,1.273967E3,7.211902E2,3.4125396E3,1.1337201E3,1.5878003E2,1.2146594E2,1.1536542E2,4.8018433E1,3.153833E1,1.8279556E1,5.5094467E1,1.418396E1,3.954733E1,6.353534E1,2.242266E2,4.626551E2,1.631733E1,6.923336E1,1.0583652E2,3.5363098E2,1.8184775E2,8.608252E1,1.9808301E2,7.869144E2,5.6261865E2,1.3129045E3,1.8933643E2,2.4398901E2,1.6143389E3,2.2971885E3,1.7210023E3,1.2559999E3,9.093439E1,1.5433653E2,3.9333093E2,1.3559279E2,3.161737E1,5.0757923E0,5.0385635E1,2.8618652E1,0E0,0E0,0E0,0E0,0E0,0E0,0E0,0E0,0E0,0E0,0E0,0E0,0E0,0E0,0E0,0E0,0E0,0E0,0E0,0E0,0E0,0E0,0E0,0E0,0E0,0E0,0E0,0E0,0E0,0E0,0E0,0E0,0E0,0E0,0E0,0E0,0E0,0E0,0E0,0E0,0E0,0E0,0E0,0E0,0E0,0E0,0E0,0E0,0E0,0E0,0E0,0E0,0E0,0E0,0E0,0E0,0E0,0E0,0E0,0E0,0E0,0E0,0E0,0E0],"parents":[2147483647,0,0,1,1,2,2,3,3,4,4,5,5,6,6,7,7,8,8,9,9,10,10,11,11,12,12,13,13,14,14,15,15,16,16,17,17,18,18,19,19,20,20,21,21,22,22,23,23,24,24,25,25,26,26,27,27,28,28,29,29,30,30,31,31,32,32,33,33,34,34,35,35,36,36,37,37,38,38,39,39,40,40,41,41,42,42,43,43,44,44,45,45,46,46,47,47,48,48,49,49,50,50,51,51,52,52,53,53,54,54,55,55,56,56,57,57,58,58,59,59,60,60,61,61,62,62],"right_children":[2,4,6,8,10,12,14,16,18,20,22,24,26,28,30,32,34,36,38,40,42,44,46,48,50,52,54,56,58,60,62,64,66,68,70,72,74,76,78,80,82,84,86,88,90,92,94,96,98,100,102,104,106,108,110,112,114,116,118,120,122,124,126,-1,-1,-1,-1,-1,-1,-1,-1,-1,-1,-1,-1,-1,-1,-1,-1,-1,-1,-1,-1,-1,-1,-1,-1,-1,-1,-1,-1,-1,-1,-1,-1,-1,-1,-1,-1,-1,-1,-1,-1,-1,-1,-1,-1,-1,-1,-1,-1,-1,-1,-1,-1,-1,-1,-1,-1,-1,-1,-1,-1,-1,-1,-1,-1],"split_conditions":[8E0,7.2E1,2.022E3,4.8E1,1.974E3,1.8E1,2.024E3,1.977E3,2.003E3,1.1E1,2E0,1.7E1,2.1E1,9.9E1,1E1,2.016E3,2.008E3,2.001E3,2.018E3,8E0,1.973E3,1.998E3,3E0,1.995E3,2.015E3,1.988E3,1.993E3,1E0,2.3E1,9E0,1.2E1,1E0,3.4E1,6E0,2.01E3,1.4E1,4E0,1.984E3,2.021E3,2.001E3,2.019E3,9E0,2.01E3,2.008E3,2.004E3,1.55E2,6E0,6.7E1,1.3E1,2.003E3,2.003E3,1.9E1,1.8E1,2.2E1,7E0,1.4E1,7E0,1.8E1,1.99E3,8E0,8E0,1.977E3,2.02E3,-2.5591075E-1,-1.3687606E-1,-4.9108252E-1,-2.4510945E-1,9.7200364E-2,-2.2504076E-1,-2.5433975E-1,-1.18930556E-1,-4.8448976E-2,3.734464E-2,-1.5386835E-1,-9.032662E-2,-9.777179E-3,-5.993602E-2,-1.4095454E-1,-1.8400209E-2,-9.192575E-1,-2.9055107E-1,7.248085E-2,-1.8566321E-1,6.8346225E-2,3.606264E-1,2.612619E-1,8.473368E-1,9.68827E-3,9.352633E-2,4.0341043E-1,1.987532E-1,-1.0351303E-1,1.8582195E-1,4.4541262E-2,-1.7635599E-2,-5.460165E-2,-1.0584494E-3,6.437981E-2,-2.0772552E-2,-1.3857652E-1,-3.2655603E-1,-3.0676818E-1,-5.2410203E-1,1.0731556E-3,2.243121E-1,5.586297E-1,1.5462367E-1,-1.1117387E-1,1.7680709E-1,-8.410551E-2,3.432258E-2,1.0524482E-1,3.2816875E-1,2.3038194E-2,1.0702453E-1,7.9146296E-2,2.5138444E-1,6.766807E-1,1.295349E-2,1.2435814E-1,3.0935025E-1,-7.704232E-2,-2.3225532E-1,8.260536E-2,4.4054133E-1,1.7088376E-1,3.8594583E-1],"split_indices":[3,1,0,1,2,4,0,2,0,4,4,4,4,1,4,0,0,0,0,4,2,2,4,2,0,2,2,6,4,4,4,4,1,4,0,4,4,2,0,0,0,6,0,0,2,1,4,1,4,2,2,4,3,4,6,4,6,4,2,4,6,2,2,0,0,0,0,0,0,0,0,0,0,0,0,0,0,0,0,0,0,0,0,0,0,0,0,0,0,0,0,0,0,0,0,0,0,0,0,0,0,0,0,0,0,0,0,0,0,0,0,0,0,0,0,0,0,0,0,0,0,0,0,0,0,0,0],"split_type":[0,0,0,0,0,0,0,0,0,0,0,0,0,0,0,0,0,0,0,0,0,0,0,0,0,0,0,0,0,0,0,0,0,0,0,0,0,0,0,0,0,0,0,0,0,0,0,0,0,0,0,0,0,0,0,0,0,0,0,0,0,0,0,0,0,0,0,0,0,0,0,0,0,0,0,0,0,0,0,0,0,0,0,0,0,0,0,0,0,0,0,0,0,0,0,0,0,0,0,0,0,0,0,0,0,0,0,0,0,0,0,0,0,0,0,0,0,0,0,0,0,0,0,0,0,0,0],"sum_hessian":[5.70601E5,2.54616E5,3.15985E5,6.1218E4,1.93398E5,2.84491E5,3.1494E4,2.76E3,5.8458E4,1.653E3,1.91745E5,2.24921E5,5.957E4,2.8394E4,3.1E3,1.538E3,1.222E3,1.0595E4,4.7863E4,7.84E2,8.69E2,1.0148E4,1.81597E5,2.18407E5,6.514E3,1.7304E4,4.2266E4,1.6568E4,1.1826E4,1.322E3,1.778E3,1.263E3,2.75E2,2.51E2,9.71E2,3.774E3,6.821E3,