{"learner":{"attributes":{"scikit_learn":"{\"_estimator_type\": \"regressor\"}"},"feature_names":["Year","floor_area_sqm","lease_commence_date","average_storey","town","flat_type","flat_model"],"feature_types":["int","float","int","float","int","int","int"],"gradient_booster":{"model":{"gbtree_model_param":{"num_parallel_tree":"1","num_trees":"100"},"iteration_indptr":[0,1,2,3,4,5,6,7,8,9,10,11,12,13,14,15,16,17,18,19,20,21,22,23,24,25,26,27,28,29,30,31,32,33,34,35,36,37,38,39,40,41,42,43,44,45,46,47,48,49,50,51,52,53,54,55,56,57,58,59,60,61,62,63,64,65,66,67,68,69,70,71,72,73,74,75,76,77,78,79,80,81,82,83,84,85,86,87,88,89,90,91,92,93,94,95,96,97,98,99,100],"tree_info":[0,0,0,0,0,0,0,0,0,0,0,0,0,0,0,0,0,0,0,0,0,0,0,0,0,0,0,0,0,0,0,0,0,0,0,0,0,0,0,0,0,0,0,0,0,0,0,0,0,0,0,0,0,0,0,0,0,0,0,0,0,0,0,0,0,0,0,0,0,0,0,0,0,0,0,0,0,0,0,0,0,0,0,0,0,0,0,0,0,0,0,0,0,0,0,0,0,0,0,0],"trees":[{"base_weights":[-0E0,-2.7920878E0,2.1929655E0,-5.4561296E0,-1.1980975E0,-2.272458E-1,3.2869108E0,-5.6731834E0,-3.1460946E0,-2.4657502E0,3.5811654E-1,-1.7572271E0,1.4598618E-1,2.7271476E0,4.9193587E0,-6.04007E0,-4.272583E0,-3.4394994E0,-1.9720913E0,-2.6529973E0,-6.606375E-1,-1.1100713E-1,1.7318951E0,-2.3598645E0,-1.248547E0,-1.1780792E-1,1.8806195E0,2.3865485E0,5.214652E0,4.573891E0,7.628454E0,-9.445983E0,-5.913473E0,-4.5081854E0,-2.5748365E0,-5.838913E0,-3.3547556E0,-2.360353E0,1.5602297E-1,-2.923851E0,-1.8524303E0,-8.002158E-1,1.205302E0,-2.6615983E-1,1.2857106E0,2.6459048E0,1.38325E0,-2.6422694E0,-1.2189478E0,-1.5136316E0,-2.2052677E-1,-4.5760047E-1,1.1501025E0,-1.2341385E0,2.5589929E0,1.1492945E0,2.7807293E0,3.3845615E0,5.7551923E0,4.098438E0,5.6154237E0,7.4267225E0,1.0484188E1,-3.1913161E0,-2.4545715E0,-1.9152393E0,-1.6041396E0,-1.4250686E0,-1.2297977E0,-1.1368834E0,-6.020837E-1,-2.2562585E0,-1.7108656E0,-1.0532695E0,-5.901119E-1,-8.225512E-1,-5.225291E-1,-1.8046515E-2,5.382005E-1,-1.0146896E0,-8.120987E-1,-2.9741365E-1,-5.95413E-1,-2.985852E-1,3.9214116E-2,5.663814E-1,1.8735918E-1,-1.2576644E-1,2.5700542E-1,3.0244344E-1,8.5331553E-1,6.3951975E-1,9.2414176E-1,3.5248116E-1,7.704818E-1,-1.3682134E0,-7.6598763E-1,-4.5772442E-1,1.6701719E-1,-1.0009879E0,-4.2619222E-1,-1.474475E-1,5.1762116E-1,-1.959757E-1,1.6782178E-1,2.6493037E-1,8.7793154E-1,-6.4960766E-1,-5.6903373E-2,6.5436596E-1,1.9502251E0,1.4150529E-1,5.968842E-1,6.5797764E-1,1.0934103E0,8.652475E-1,1.1360155E0,1.6375262E0,2.3414218E0,1.1671326E0,2.1077669E0,1.6262296E0,2.129845E0,2.0121136E0,2.3680072E0,2.5046892E0,3.231271E0],"categories":[],"categories_nodes":[],"categories_segments":[],"categories_sizes":[],"default_left":[0,0,0,0,0,0,0,0,0,0,0,0,0,0,0,0,0,0,0,0,0,0,0,0,0,0,0,0,0,0,0,0,0,0,0,0,0,0,0,0,0,0,0,0,0,0,0,0,0,0,0,0,0,0,0,0,0,0,0,0,0,0,0,0,0,0,0,0,0,0,0,0,0,0,0,0,0,0,0,0,0,0,0,0,0,0,0,0,0,0,0,0,0,0,0,0,0,0,0,0,0,0,0,0,0,0,0,0,0,0,0,0,0,0,0,0,0,0,0,0,0,0,0,0,0,0,0],"id":0,"left_children":[1,3,5,7,9,11,13,15,17,19,21,23,25,27,29,31,33,35,37,39,41,43,45,47,49,51,53,55,57,59,61,63,65,67,69,71,73,75,77,79,81,83,85,87,89,91,93,95,97,99,101,103,105,107,109,111,113,115,117,119,121,123,125,-1,-1,-1,-1,-1,-1,-1,-1,-1,-1,-1,-1,-1,-1,-1,-1,-1,-1,-1,-1,-1,-1,-1,-1,-1,-1,-1,-1,-1,-1,-1,-1,-1,-1,-1,-1,-1,-1,-1,-1,-1,-1,-1,-1,-1,-1,-1,-1,-1,-1,-1,-1,-1,-1,-1,-1,-1,-1,-1,-1,-1,-1,-1,-1],"loss_changes":[3.493764E6,1.0659104E6,8.461376E5,4.7112E4,3.098112E5,5.6811098E4,2.0112375E5,4.41345E4,2.7789375E3,2.9252625E4,4.5434883E4,5.98016E3,3.6596605E4,1.3886175E5,5.2594125E4,2.934125E4,7.1300312E3,1.3100859E3,1.3339321E3,1.7001812E4,2.1185383E3,1.1388428E4,5.7180195E3,2.8765742E3,2.883002E3,2.9908002E4,2.2307273E4,7.0307375E4,1.9523875E4,2.4679875E4,3.652125E3,3.6638125E3,1.7488E4,1.546625E3,1.4977949E3,4.4745605E1,1.3502344E3,3.2121338E2,8.838924E1,5.8233125E3,2.2573516E3,1.3744268E3,2.2406415E2,8.129024E3,2.2724346E3,1.1060039E3,3.206248E3,1.2199922E3,9.6558057E2,1.424916E3,1.1436818E3,1.0893775E4,6.9581035E3,1.8361333E3,1.2906789E4,1.9833375E4,5.5489875E4,9.040469E2,9.262969E3,2.0834625E4,4.5079062E3,1.9870625E3,2.4566406E2,0E0,0E0,0E0,0E0,0E0,0E0,0E0,0E0,0E0,0E0,0E0,0E0,0E0,0E0,0E0,0E0,0E0,0E0,0E0,0E0,0E0,0E0,0E0,0E0,0E0,0E0,0E0,0E0,0E0,0E0,0E0,0E0,0E0,0E0,0E0,0E0,0E0,0E0,0E0,0E0,0E0,0E0,0E0,0E0,0E0,0E0,0E0,0E0,0E0,0E0,0E0,0E0,0E0,0E0,0E0,0E0,0E0,0E0,0E0,0E0,0E0,0E0,0E0,0E0],"parents":[2147483647,0,0,1,1,2,2,3,3,4,4,5,5,6,6,7,7,8,8,9,9,10,10,11,11,12,12,13,13,14,14,15,15,16,16,17,17,18,18,19,19,20,20,21,21,22,22,23,23,24,24,25,25,26,26,27,27,28,28,29,29,30,30,31,31,32,32,33,33,34,34,35,35,36,36,37,37,38,38,39,39,40,40,41,41,42,42,43,43,44,44,45,45,46,46,47,47,48,48,49,49,50,50,51,51,52,52,53,53,54,54,55,55,56,56,57,57,58,58,59,59,60,60,61,61,62,62],"right_children":[2,4,6,8,10,12,14,16,18,20,22,24,26,28,30,32,34,36,38,40,42,44,46,48,50,52,54,56,58,60,62,64,66,68,70,72,74,76,78,80,82,84,86,88,90,92,94,96,98,100,102,104,106,108,110,112,114,116,118,120,122,124,126,-1,-1,-1,-1,-1,-1,-1,-1,-1,-1,-1,-1,-1,-1,-1,-1,-1,-1,-1,-1,-1,-1,-1,-1,-1,-1,-1,-1,-1,-1,-1,-1,-1,-1,-1,-1,-1,-1,-1,-1,-1,-1,-1,-1,-1,-1,-1,-1,-1,-1,-1,-1,-1,-1,-1,-1,-1,-1,-1,-1,-1,-1,-1,-1],"split_conditions":[2.009E3,8.5E1,8.5E1,2.008E3,4E0,2.011E3,2.021E3,7.5E1,7.5E1,2.008E3,5E0,2.01E3,2.001E3,8E0,8E0,2E0,1.7E1,5.1E1,1.7E1,1.6E1,1.7E1,1.7E1,2.002E3,7.5E1,7.5E1,7.5E1,2E0,2.011E3,2.011E3,1.12E2,1.8E1,2.004E3,2.004E3,8E0,3E0,3.4E1,1.7E1,8E0,1.7E1,4E0,2.001E3,1.8E1,1.2E1,2.008E3,2.008E3,1E1,2.008E3,5.4E1,1.7E1,5.6E1,1.7E1,2.022E3,1.7E1,2.022E3,3E0,4E0,4E0,2.01E3,1.3E1,1.8E1,1.7E1,2.022E3,9.2E1,-3.1913161E0,-2.4545715E0,-1.9152393E0,-1.6041396E0,-1.4250686E0,-1.2297977E0,-1.1368834E0,-6.020837E-1,-2.2562585E0,-1.7108656E0,-1.0532695E0,-5.901119E-1,-8.225512E-1,-5.225291E-1,-1.8046515E-2,5.382005E-1,-1.0146896E0,-8.120987E-1,-2.9741365E-1,-5.95413E-1,-2.985852E-1,3.9214116E-2,5.663814E-1,1.8735918E-1,-1.2576644E-1,2.5700542E-1,3.0244344E-1,8.5331553E-1,6.3951975E-1,9.2414176E-1,3.5248116E-1,7.704818E-1,-1.3682134E0,-7.6598763E-1,-4.5772442E-1,1.6701719E-1,-1.0009879E0,-4.2619222E-1,-1.474475E-1,5.1762116E-1,-1.959757E-1,1.6782178E-1,2.6493037E-1,8.7793154E-1,-6.4960766E-1,-5.6903373E-2,6.5436596E-1,1.9502251E0,1.4150529E-1,5.968842E-1,6.5797764E-1,1.0934103E0,8.652475E-1,1.1360155E0,1.6375262E0,2.3414218E0,1.1671326E0,2.1077669E0,1.6262296E0,2.129845E0,2.0121136E0,2.3680072E0,2.5046892E0,3.231271E0],"split_indices":[0,1,1,0,5,0,0,1,1,0,5,0,2,6,6,5,4,1,4,4,3,3,0,1,1,1,5,0,0,1,3,0,0,4,5,1,4,4,3,6,0,4,4,0,0,4,0,1,4,1,4,0,4,0,5,5,5,0,6,3,3,0,1,0,0,0,0,0,0,0,0,0,0,0,0,0,0,0,0,0,0,0,0,0,0,0,0,0,0,0,0,0,0,0,0,0,0,0,0,0,0,0,0,0,0,0,0,0,0,0,0,0,0,0,0,0,0,0,0,0,0,0,0,0,0,0,0],"split_type":[0,0,0,0,0,0,0,0,0,0,0,0,0,0,0,0,0,0,0,0,0,0,0,0,0,0,0,0,0,0,0,0,0,0,0,0,0,0,0,0,0,0,0,0,0,0,0,0,0,0,0,0,0,0,0,0,0,0,0,0,0,0,0,0,0,0,0,0,0,0,0,0,0,0,0,0,0,0,0,0,0,0,0,0,0,0,0,0,0,0,0,0,0,0,0,0,0,0,0,0,0,0,0,0,0,0,0,0,0,0,0,0,0,0,0,0,0,0,0,0,0,0,0,0,0,0,0],"sum_hessian":[5.70601E5,2.51012E5,3.19589E5,9.3966E4,1.57046E5,9.9487E4,2.20102E5,8.5895E4,8.071E3,8.6547E4,7.0499E4,1.951E4,7.9977E4,1.63901E5,5.6201E4,6.8065E4,1.783E4,6.457E3,1.614E3,7.8413E4,8.134E3,5.2553E4,1.7946E4,8.93E3,1.058E4,6.942E4,1.0557E4,1.44162E5,1.9739E4,4.9845E4,6.356E3,2.439E3,6.5626E4,1.5657E4,2.173E3,2.2E2,6.237E3,1.365E3,2.49E2,5.859E4,1.9823E4,7.568E3,5.66E2,4.7299E4,5.254E3,4.955E3,1.2991E4,7.158E3,1.772E3,8.411E3,2.169E3,5.4748E4,1.4672E4,1.888E3,8.669E3,3.4832E4,1.0933E5,4.501E3,1.5238E4,3.4223E4,1.5622E4,5.937E3,4.19E2,1.255E3,1.184E3,3.584E4,2.9786E4,9.834E3,5.823E3,6.92E2,1.481E3,1.6E1,2.04E2,5.606E3,6.31E2,8.44E2,5.21E2,2.2E2,2.9E1,1.8814E4,3.9776E4,2.64E3,1.7183E4,6.257E3,1.311E3,2.6E2,3.06E2,4.1625E4,5.674E3,4.46E3,7.94E2,2.27E3,2.685E3,1.1049E4,1.942E3,3.17E2,6.841E3,1.511E3,2.61E2,4.08E2,8.003E3,1.904E3,2.65E2,4.5915E4,8.833E3,1.2755E4,1.917E3,9.98E2,8.9E2,7.911E3,7.58E2,1.9283E4,1.5549E4,6.5079E4,4.4251E4,2.006E3,2.495E3,1.3311E4,1.927E3,3.1953E4,2.27E3,1.3811E4,1.811E3,2.336E3,3.601E3,5E1,3.69E2],"tree_param":{"num_deleted":"0","num_feature":"7","num_nodes":"127","size_leaf_vector":"1"}},{"base_weights":[1.4580867E-6,-1.7827084E0,1.6988697E0,-3.631218E0,-6.9913155E-1,-1.1855444E-2,2.4672596E0,-3.9712453E0,-1.9132621E0,-1.5799328E0,3.5228822E-1,-3.1114033E-1,8.9861643E-1,2.227791E0,4.2320127E0,-4.371404E0,-3.29086E0,-2.1019926E0,-1.0345176E0,-1.857102E0,-3.0924618E-1,3.5378933E-2,1.3124062E0,-6.4719164E-1,2.3778331E-1,7.48265E-1,3.8840647E0,1.9189371E0,3.5780053E0,3.8348129E0,5.3400917E0,-5.995005E0,-4.211019E0,-3.5473328E0,-2.4250817E0,-2.8924818E0,-1.9053072E0,-1.3039894E0,2.099138E-1,-2.0466986E0,-1.2967072E0,-4.710642E-1,6.306829E-1,-2.1141118E-1,8.2582057E-1,1.7260323E0,1.0483968E0,-1.4101772E0,-4.104974E-1,-1.7225167E0,4.2626846E-1,-1.755613E-1,1.1399928E0,2.236039E-1,4.297356E0,1.7177393E0,3.7919502E0,3.0904994E0,4.3493376E0,3.7019296E0,6.5435224E0,5.2093954E0,7.6287975E0,-3.0067837E0,-1.7309984E0,-1.4075544E0,-1.1592587E0,-1.1986595E0,-9.3310523E-1,-8.463345E-1,-4.9331462E-1,-9.7787493E-1,-7.3273706E-1,-6.175116E-1,-4.1439626E-1,-1.028432E0,-3.4849387E-1,-5.3005274E-2,3.606915E-1,-6.281706E-1,-1.2315627E-1,-4.009254E-1,4.3329242E-1,-2.0609841E-1,1.8742656E-2,9.318032E-2,4.8979923E-1,1.4981522E-1,-1.4470103E-1,2.1014154E-1,8.425297E-1,4.4467103E-1,6.757618E-1,1.9527003E-1,5.9519804E-1,-3.211342E-1,-6.431111E-1,-4.6880584E-2,-2.8758845E-1,-7.006726E-1,-4.00686E-1,6.792111E-2,4.4611335E-1,-2.3851648E-1,7.766408E-2,2.5631118E-1,6.0656583E-1,-1.6319641E-1,2.064013E-1,1.1450795E0,1.7515959E0,4.1531256E-1,7.420043E-1,1.2927964E0,6.389824E-1,7.333809E-1,1.1670821E0,1.2572684E0,1.8528775E0,8.3588713E-1,1.1951897E0,1.8082536E0,2.155413E0,1.4817692E0,1.7509152E0,2.100477E0,2.4678009E0],"categories":[],"categories_nodes":[],"categories_segments":[],"categories_sizes":[],"default_left":[0,0,0,0,0,0,0,0,0,0,0,0,0,0,0,0,0,0,0,0,0,0,0,0,0,0,0,0,0,0,0,0,0,0,0,0,0,0,0,0,0,0,0,0,0,0,0,0,0,0,0,0,0,0,0,0,0,0,0,0,0,0,0,0,0,0,0,0,0,0,0,0,0,0,0,0,0,0,0,0,0,0,0,0,0,0,0,0,0,0,0,0,0,0,0,0,0,0,0,0,0,0,0,0,0,0,0,0,0,0,0,0,0,0,0,0,0,0,0,0,0,0,0,0,0,0,0],"id":1,"left_children":[1,3,5,7,9,11,13,15,17,19,21,23,25,27,29,31,33,35,37,39,41,43,45,47,49,51,53,55,57,59,61,63,65,67,69,71,73,75,77,79,81,83,85,87,89,91,93,95,97,99,101,103,105,107,109,111,113,115,117,119,121,123,125,-1,-1,-1,-1,-1,-1,-1,-1,-1,-1,-1,-1,-1,-1,-1,-1,-1,-1,-1,-1,-1,-1,-1,-1,-1,-1,-1,-1,-1,-1,-1,-1,-1,-1,-1,-1,-1,-1,-1,-1,-1,-1,-1,-1,-1,-1,-1,-1,-1,-1,-1,-1,-1,-1,-1,-1,-1,-1,-1,-1,-1,-1,-1,-1],"loss_changes":[1.7281168E6,5.576955E5,3.840603E5,6.01055E4,1.6256088E5,2.4675916E4,8.5201125E4,2.338375E4,2.8190312E3,3.364039E4,2.4346688E4,1.2572205E4,1.0055242E4,7.4030125E4,1.0599375E4,1.408025E4,7.0619688E3,2.1748945E3,1.00819995E3,8.330719E3,2.601504E3,1.17357E4,2.167961E3,7.6342227E3,9.562315E3,7.718873E3,1.6243916E3,5.4444375E4,1.2425E4,6.3794375E3,1.896E3,4.3989375E3,8.206E3,4.8043438E3,2.2468828E3,4.5924023E2,8.9822266E2,7.462886E2,2.0541838E2,4.5247656E3,2.1578828E3,1.6811855E3,8.0542554E2,8.828726E3,3.5567637E3,9.922988E2,4.5074033E3,2.4937266E3,4.4960347E3,5.377676E2,5.005414E3,1.7093696E3,3.7723457E3,3.8942707E1,7.114375E2,3.286197E4,1.2048797E4,1.0459031E4,3.7009531E3,4.3635938E3,2.6866016E2,1.0146094E3,1.2123242E2,0E0,0E0,0E0,0E0,0E0,0E0,0E0,0E0,0E0,0E0,0E0,0E0,0E0,0E0,0E0,0E0,0E0,0E0,0E0,0E0,0E0,0E0,0E0,0E0,0E0,0E0,0E0,0E0,0E0,0E0,0E0,0E0,0E0,0E0,0E0,0E0,0E0,0E0,0E0,0E0,0E0,0E0,0E0,0E0,0E0,0E0,0E0,0E0,0E0,0E0,0E0,0E0,0E0,0E0,0E0,0E0,0E0,0E0,0E0,0E0,0E0,0E0,0E0,0E0],"parents":[2147483647,0,0,1,1,2,2,3,3,4,4,5,5,6,6,7,7,8,8,9,9,10,10,11,11,12,12,13,13,14,14,15,15,16,16,17,17,18,18,19,19,20,20,21,21,22,22,23,23,24,24,25,25,26,26,27,27,28,28,29,29,30,30,31,31,32,32,33,33,34,34,35,35,36,36,37,37,38,38,39,39,40,40,41,41,42,42,43,43,44,44,45,45,46,46,47,47,48,48,49,49,50,50,51,51,52,52,53,53,54,54,55,55,56,56,57,57,58,58,59,59,60,60,61,61,62,62],"right_children":[2,4,6,8,10,12,14,16,18,20,22,24,26,28,30,32,34,36,38,40,42,44,46,48,50,52,54,56,58,60,62,64,66,68,70,72,74,76,78,80,82,84,86,88,90,92,94,96,98,100,102,104,106,108,110,112,114,116,118,120,122,124,126,-1,-1,-1,-1,-1,-1,-1,-1,-1,-1,-1,-1,-1,-1,-1,-1,-1,-1,-1,-1,-1,-1,-1,-1,-1,-1,-1,-1,-1,-1,-1,-1,-1,-1,-1,-1,-1,-1,-1,-1,-1,-1,-1,-1,-1,-1,-1,-1,-1,-1,-1,-1,-1,-1,-1,-1,-1,-1,-1,-1,-1,-1,-1,-1],"split_conditions":[2.01E3,8.5E1,8.5E1,2.008E3,4E0,2.021E3,8E0,7.2E1,1.6E1,2.008E3,1.38E2,1E1,1.8E1,2.022E3,2.021E3,5.8E1,1.6E1,6.47E1,3E0,1.6E1,1.3E1,2.008E3,2.003E3,6.7E1,5.7E1,6.7E1,5.91E1,1.7E1,2.005E3,2E1,2.3E1,3.4E1,2.003E3,7.8E1,3E0,1E1,7.5E1,5.6E1,2E0,1.7E1,1.8E1,1.6E1,1.8E1,2.002E3,1.8E1,1.6E1,2.008E3,2.017E3,2.017E3,4.7E1,3E0,5.91E1,1.999E3,1E1,3E0,1.12E2,2.3E1,4E0,2.3E1,2.012E3,1.6E1,2.023E3,4E0,-3.0067837E0,-1.7309984E0,-1.4075544E0,-1.1592587E0,-1.1986595E0,-9.3310523E-1,-8.463345E-1,-4.9331462E-1,-9.7787493E-1,-7.3273706E-1,-6.175116E-1,-4.1439626E-1,-1.028432E0,-3.4849387E-1,-5.3005274E-2,3.606915E-1,-6.281706E-1,-1.2315627E-1,-4.009254E-1,4.3329242E-1,-2.0609841E-1,1.8742656E-2,9.318032E-2,4.8979923E-1,1.4981522E-1,-1.4470103E-1,2.1014154E-1,8.425297E-1,4.4467103E-1,6.757618E-1,1.9527003E-1,5.9519804E-1,-3.211342E-1,-6.431111E-1,-4.6880584E-2,-2.8758845E-1,-7.006726E-1,-4.00686E-1,6.792111E-2,4.4611335E-1,-2.3851648E-1,7.766408E-2,2.5631118E-1,6.0656583E-1,-1.6319641E-1,2.064013E-1,1.1450795E0,1.7515959E0,4.1531256E-1,7.420043E-1,1.2927964E0,6.389824E-1,7.333809E-1,1.1670821E0,1.2572684E0,1.8528775E0,8.3588713E-1,1.1951897E0,1.8082536E0,2.155413E0,1.4817692E0,1.7509152E0,2.100477E0,2.4678009E0],"split_indices":[0,1,1,0,5,0,6,1,4,0,1,4,3,0,0,1,4,1,5,4,3,0,0,1,1,1,1,3,2,3,3,1,0,1,5,4,1,1,6,3,3,4,3,0,3,4,0,0,0,1,5,1,2,4,5,1,4,5,3,0,4,0,5,0,0,0,0,0,0,0,0,0,0,0,0,0,0,0,0,0,0,0,0,0,0,0,0,0,0,0,0,0,0,0,0,0,0,0,0,0,0,0,0,0,0,0,0,0,0,0,0,0,0,0,0,0,0,0,0,0,0,0,0,0,0,0,0],"split_type":[0,0,0,0,0,0,0,0,0,0,0,0,0,0,0,0,0,0,0,0,0,0,0,0,0,0,0,0,0,0,0,0,0,0,0,0,0,0,0,0,0,0,0,0,0,0,0,0,0,0,0,0,0,0,0,0,0,0,0,0,0,0,0,0,0,0,0,0,0,0,0,0,0,0,0,0,0,0,0,0,0,0,0,0,0,0,0,0,0,0,0,0,0,0,0,0,0,0,0,0,0,0,0,0,0,0,0,0,0,0,0,0,0,0,0,0,0,0,0,0,0,0,0,0,0,0,0],"sum_hessian":[5.70601E5,2.7843E5,2.92171E5,1.02896E5,1.75534E5,9.0557E4,2.01614E5,8.5895E4,1.7001E4,9.5517E4,8.0017E4,6.8154E4,2.2403E4,1.77525E5,2.4089E4,5.4085E4,3.181E4,1.3995E4,3.006E3,7.8413E4,1.7104E4,6.016E4,1.9857E4,4.2274E4,2.588E4,2.1329E4,1.074E3,1.44477E5,3.3048E4,1.7733E4,6.356E3,4.862E3,4.9223E4,2.454E4,7.27E3,2.788E3,1.1207E4,2.471E3,5.35E2,5.859E4,1.9823E4,1.4592E4,2.512E3,4.5846E4,1.4314E4,7.736E3,1.2121E4,1.0009E4,3.2265E4,2.27E3,2.361E4,6.351E3,1.4978E4,1.09E2,9.65E2,1.30463E5,1.4014E4,2.025E4,1.2798E4,1.6904E4,8.29E2,6.013E3,3.43E2,2.57E2,4.605E3,2.0626E4,2.8597E4,1.2114E4,1.2426E4,4.823E3,2.447E3,1.535E3,1.253E3,8.673E3,2.534E3,1.55E2,2.316E3,3.85E2,1.5E2,5.6947E4,1.643E3,1.954E4,2.83E2,1.0388E4,4.204E3,1.904E3,6.08E2,1.2652E4,3.3194E4,1.3463E4,8.51E2,5.288E3,2.448E3,8.507E3,3.614E3,6.841E3,3.168E3,2.2042E4,1.0223E4,8.78E2,1.392E3,1.9867E4,3.743E3,2.618E3,3.733E3,1.1314E4,3.664E3,4.1E1,6.8E1,7.36E2,2.29E2,9.0525E4,3.9938E4,1.0687E4,3.327E3,1.1203E4,9.047E3,1.1777E4,1.021E3,3.981E3,1.2923E4,4.6E2,3.69E2,4.203E3,1.81E3,1.68E2,1.75E2],"tree_param":{"num_deleted":"0","num_feature":"7","num_nodes":"127","size_leaf_vector":"1"}},{"base_weights":[3.3015258E-6,-1.2479008E0,1.189218E0,-2.5418704E0,-4.893893E-1,-1.2431853E-1,1.682798E0,-2.8486893E0,-1.5873733E0,-1.1350107E0,2.2668457E-1,-2.948402E-1,6.835641E-1,1.4192903E0,2.7498524E0,-3.701238E0,-2.6359758E0,-1.8693494E0,-1.0789689E0,-1.3319016E0,-2.4098065E-1,-4.995256E-2,8.236699E-1,-1.4416624E0,-2.056424E-1,3.441451E-1,1.4988477E0,9.45545E-1,2.252532E0,2.5855596E0,4.783165E0,-5.0072985E0,-3.4954455E0,-2.780625E0,-1.8756399E0,-1.958657E0,-1.4073347E-1,-1.3184034E0,-6.957059E-1,-1.7385052E0,-1.1742336E0,-3.1877777E-1,8.2401335E-1,-2.4394917E-1,6.087314E-1,1.5626285E0,7.1416605E-1,-2.0805402E0,-1.1408118E0,-3.3229625E-1,7.435967E-1,-1.340927E0,4.445318E-1,8.244432E-2,1.8929851E0,7.4332756E-1,1.6407496E0,1.9302909E0,2.9750125E0,2.2266855E0,3.4080424E0,4.95136E0,1.1453353E0,-2.1585758E0,-1.4165082E0,-1.0856133E0,-5.4266614E-1,-8.8057417E-1,-6.670189E-1,-6.1503196E-1,-3.775859E-1,-7.502638E-1,-5.439541E-1,-9.885954E-1,3.7092643E-4,-5.941565E-1,-3.619603E-1,-5.898747E-1,-1.7112911E-1,-4.2966875E-1,-6.116104E-1,-3.7847808E-1,-1.3984893E-1,-2.1223183E-1,-5.2475814E-2,3.4738398E-1,-6.864982E-2,-1.1793015E-1,1.2508652E-1,7.261776E-1,7.603976E-2,3.5659268E-1,5.633694E-1,1.6626108E-1,3.901727E-1,-5.307052E-1,-7.7327067E-1,-2.452955E-1,-4.3754646E-1,-1.0882894E-1,1.0874963E0,3.1691918E-1,1.6069029E-2,-5.376148E-1,-2.4552909E-1,7.704611E-2,3.5806534E-1,-1.02776445E-1,8.2106635E-2,4.746302E-1,8.7645537E-1,1.7659529E-1,5.037279E-1,1.0486444E0,3.74309E-1,5.073521E-1,8.5287964E-1,8.306101E-1,1.2260369E0,1.3504134E0,6.42877E-1,9.747751E-1,1.4101646E0,1.3746443E0,1.77255E0,2.7401426E-1,7.0940167E-1],"categories":[],"categories_nodes":[],"categories_segments":[],"categories_sizes":[],"default_left":[0,0,0,0,0,0,0,0,0,0,0,0,0,0,0,0,0,0,0,0,0,0,0,0,0,0,0,0,0,0,0,0,0,0,0,0,0,0,0,0,0,0,0,0,0,0,0,0,0,0,0,0,0,0,0,0,0,0,0,0,0,0,0,0,0,0,0,0,0,0,0,0,0,0,0,0,0,0,0,0,0,0,0,0,0,0,0,0,0,0,0,0,0,0,0,0,0,0,0,0,0,0,0,0,0,0,0,0,0,0,0,0,0,0,0,0,0,0,0,0,0,0,0,0,0,0,0],"id":2,"left_children":[1,3,5,7,9,11,13,15,17,19,21,23,25,27,29,31,33,35,37,39,41,43,45,47,49,51,53,55,57,59,61,63,65,67,69,71,73,75,77,79,81,83,85,87,89,91,93,95,97,99,101,103,105,107,109,111,113,115,117,119,121,123,125,-1,-1,-1,-1,-1,-1,-1,-1,-1,-1,-1,-1,-1,-1,-1,-1,-1,-1,-1,-1,-1,-1,-1,-1,-1,-1,-1,-1,-1,-1,-1,-1,-1,-1,-1,-1,-1,-1,-1,-1,-1,-1,-1,-1,-1,-1,-1,-1,-1,-1,-1,-1,-1,-1,-1,-1,-1,-1,-1,-1,-1,-1,-1,-1],"loss_changes":[8.46787E5,2.7327612E5,1.8942503E5,3.0133062E4,8.115175E4,1.09935E4,5.971275E4,1.411925E4,3.5877617E3,1.6248469E4,1.3744731E4,6.7402744E3,3.8484512E3,6.722916E4,1.4047906E4,4.1763594E3,6.852875E3,2.4852773E3,8.191885E2,4.8491875E3,1.3803225E3,7.267235E3,2.1322031E3,9.134033E2,7.3502983E3,1.6611266E3,2.282E3,1.5263961E4,1.4371219E4,1.1484906E4,1.9225938E3,1.3177422E3,2.79125E3,4.5099375E3,1.0717188E3,1.2067109E3,3.5462872E2,4.06542E2,5.462328E2,1.9427695E3,3.371664E3,8.679984E2,3.988465E2,4.3307085E3,8.328459E3,4.0048242E2,2.1528252E3,2.3478516E2,3.3156445E2,6.503269E3,1.553325E3,1.2972772E2,1.3029142E3,7.235435E1,1.0216963E3,1.2174293E4,1.7835062E4,9.3156875E3,4.365703E3,5.1605156E3,2.4238438E3,1.0582109E3,3.8797974E1,0E0,0E0,0E0,0E0,0E0,0E0,0E0,0E0,0E0,0E0,0E0,0E0,0E0,0E0,0E0,0E0,0E0,0E0,0E0,0E0,0E0,0E0,0E0,0E0,0E0,0E0,0E0,0E0,0E0,0E0,0E0,0E0,0E0,0E0,0E0,0E0,0E0,0E0,0E0,0E0,0E0,0E0,0E0,0E0,0E0,0E0,0E0,0E0,0E0,0E0,0E0,0E0,0E0,0E0,0E0,0E0,0E0,0E0,0E0,0E0,0E0,0E0,0E0,0E0],"parents":[2147483647,0,0,1,1,2,2,3,3,4,4,5,5,6,6,7,7,8,8,9,9,10,10,11,11,12,12,13,13,14,14,15,15,16,16,17,17,18,18,19,19,20,20,21,21,22,22,23,23,24,24,25,25,26,26,27,27,28,28,29,29,30,30,31,31,32,32,33,33,34,34,35,35,36,36,37,37,38,38,39,39,40,40,41,41,42,42,43,43,44,44,45,45,46,46,47,47,48,48,49,49,50,50,51,51,52,52,53,53,54,54,55,55,56,56,57,57,58,58,59,59,60,60,61,61,62,62],"right_children":[2,4,6,8,10,12,14,16,18,20,22,24,26,28,30,32,34,36,38,40,42,44,46,48,50,52,54,56,58,60,62,64,66,68,70,72,74,76,78,80,82,84,86,88,90,92,94,96,98,100,102,104,106,108,110,112,114,116,118,120,122,124,126,-1,-1,-1,-1,-1,-1,-1,-1,-1,-1,-1,-1,-1,-1,-1,-1,-1,-1,-1,-1,-1,-1,-1,-1,-1,-1,-1,-1,-1,-1,-1,-1,-1,-1,-1,-1,-1,-1,-1,-1,-1,-1,-1,-1,-1,-1,-1,-1,-1,-1,-1,-1,-1,-1,-1,-1,-1,-1,-1,-1,-1,-1,-1,-1],"split_conditions":[2.01E3,8.5E1,3E0,2.007E3,1.1E2,2.022E3,2.005E3,6.47E1,2.009E3,2.008E3,1.3E2,5.8E1,2.001E3,1.17E2,2.6E1,5.2E1,1.6E1,1.9E1,1E1,4E0,1.7E1,1.8E1,2.001E3,4.6E1,1.8E1,5.8E1,2E0,1.8E1,1.38E2,9.7E1,2.3E1,3.4E1,1.9E1,7.8E1,3E0,6.47E1,1.974E3,6.47E1,5.7E1,6E0,1.3E1,4E0,7E0,1.3E1,2.1E1,1E1,2.008E3,2.017E3,2.016E3,8E0,2.1E1,5.2E1,1.4E1,2.023E3,1.7E1,2.022E3,2.1E1,1.8E1,2.022E3,2E0,1.15E2,4E0,9.7E1,-2.1585758E0,-1.4165082E0,-1.0856133E0,-5.4266614E-1,-8.8057417E-1,-6.670189E-1,-6.1503196E-1,-3.775859E-1,-7.502638E-1,-5.439541E-1,-9.885954E-1,3.7092643E-4,-5.941565E-1,-3.619603E-1,-5.898747E-1,-1.7112911E-1,-4.2966875E-1,-6.116104E-1,-3.7847808E-1,-1.3984893E-1,-2.1223183E-1,-5.2475814E-2,3.4738398E-1,-6.864982E-2,-1.1793015E-1,1.2508652E-1,7.261776E-1,7.603976E-2,3.5659268E-1,5.633694E-1,1.6626108E-1,3.901727E-1,-5.307052E-1,-7.7327067E-1,-2.452955E-1,-4.3754646E-1,-1.0882894E-1,1.0874963E0,3.1691918E-1,1.6069029E-2,-5.376148E-1,-2.4552909E-1,7.704611E-2,3.5806534E-1,-1.02776445E-1,8.2106635E-2,4.746302E-1,8.7645537E-1,1.7659529E-1,5.037279E-1,1.0486444E0,3.74309E-1,5.073521E-1,8.5287964E-1,8.306101E-1,1.2260369E0,1.3504134E0,6.42877E-1,9.747751E-1,1.4101646E0,1.3746443E0,1.77255E0,2.7401426E-1,7.0940167E-1],"split_indices":[0,1,5,0,1,0,2,1,0,0,1,1,2,1,3,1,4,4,4,6,3,4,0,1,4,1,5,4,1,1,4,1,4,1,5,1,2,1,1,4,3,6,6,3,4,4,0,0,0,6,4,1,4,0,3,0,4,4,0,4,1,5,1,0,0,0,0,0,0,0,0,0,0,0,0,0,0,0,0,0,0,0,0,0,0,0,0,0,0,0,0,0,0,0,0,0,0,0,0,0,0,0,0,0,0,0,0,0,0,0,0,0,0,0,0,0,0,0,0,0,0,0,0,0,0,0,0],"split_type":[0,0,0,0,0,0,0,0,0,0,0,0,0,0,0,0,0,0,0,0,0,0,0,0,0,0,0,0,0,0,0,0,0,0,0,0,0,0,0,0,0,0,0,0,0,0,0,0,0,0,0,0,0,0,0,0,0,0,0,0,0,0,0,0,0,0,0,0,0,0,0,0,0,0,0,0,0,0,0,0,0,0,0,0,0,0,0,0,0,0,0,0,0,0,0,0,0,0,0,0,0,0,0,0,0,0,0,0,0,0,0,0,0,0,0,0,0,0,0,0,0,0,0,0,0,0,0],"sum_hessian":[5.70601E5,2.7843E5,2.92171E5,1.02896E5,1.75534E5,7.9801E4,2.1237E5,7.7866E4,2.503E4,9.2308E4,8.3226E4,6.5893E4,1.3908E4,1.70312E5,4.2058E4,1.5548E4,6.2318E4,1.61E4,8.93E3,7.5648E4,1.666E4,5.6872E4,2.6354E4,4.755E3,6.1138E4,9.82E3,4.088E3,1.08579E5,6.1733E4,3.8914E4,3.144E3,2.116E3,1.3432E4,5.2357E4,9.961E3,1.5309E4,7.91E2,5.496E3,3.434E3,2.1137E4,5.4511E4,1.5526E4,1.134E3,4.3933E4,1.2939E4,3.401E3,2.2953E4,1.522E3,3.233E3,5.3941E4,7.197E3,5.52E2,9.268E3,8.9E2,3.198E3,8.4113E4,2.4466E4,4.2692E4,1.9041E4,2.7093E4,1.1821E4,3.005E3,1.39E2,2.44E2,1.872E3,1.2517E4,9.15E2,4.0984E4,1.1373E4,7.765E3,2.196E3,3.238E3,1.2071E4,3.4E1,7.57E2,7.94E2,4.702E3,3.08E2,3.126E3,1.0463E4,1.0674E4,4.8524E4,5.987E3,4.194E3,1.1332E4,8.61E2,2.73E2,3.5844E4,8.089E3,2.121E3,1.0818E4,1.556E3,1.845E3,1.8034E4,4.919E3,9.36E2,5.86E2,1.603E3,1.63E3,5.3529E4,4.12E2,4.952E3,2.245E3,2.96E2,2.56E2,7.411E3,1.857E3,2.76E2,6.14E2,2.456E3,7.42E2,7.2182E4,1.1931E4,4.278E3,2.0188E4,3.3829E4,8.863E3,1.6061E4,2.98E3,9.62E2,2.6131E4,1.0528E4,1.293E3,2.169E3,8.36E2,1.17E2,2.2E1],"tree_param":{"num_deleted":"0","num_feature":"7","num_nodes":"127","size_leaf_vector":"1"}},{"base_weights":[3.5549895E-6,-9.679308E-1,7.602402E-1,-1.8421178E0,-3.985455E-1,-8.2857765E-2,1.1413242E0,-2.1610622E0,-1.5241839E0,-8.5398924E-1,8.80068E-2,-1.5773813E-1,1.4805689E0,9.1234314E-1,1.8091053E0,-2.9627554E0,-1.9828792E0,-1.6745578E0,-1.0611428E0,-9.390027E-1,-2.5158796E-1,-1.0126553E-1,6.2576354E-1,-8.0256665E-1,4.1695563E-3,1.0970738E0,2.9131143E0,8.256766E-1,2.6205182E0,1.4514465E0,2.2560134E0,-3.7349665E0,-2.6925652E0,-2.114554E0,-1.3317285E0,-1.7739831E0,-1.1976439E0,-1.2800001E0,-5.3312045E-1,-3.3204725E-1,-1.0169216E0,1.1791204E0,-5.4321617E-1,-4.2176306E-1,1.3953608E-1,9.226396E-1,3.103414E-1,-9.7168106E-1,-4.9709004E-1,-2.2062175E-1,3.8861382E-1,7.7119726E-1,2.0291617E0,3.0296369E0,-7.4966475E-2,5.0238425E-1,1.1799597E0,2.816857E0,9.39998E-1,1.0483531E0,1.9082355E0,2.141482E0,3.1103048E0,-1.6643534E0,-1.071814E0,-9.060623E-1,-5.672788E-1,-5.153977E-1,-6.8150055E-1,-4.5969066E-1,-2.4987426E-1,-5.555057E-1,-3.956637E-1,-4.233292E-1,-2.4942598E-1,-2.223696E-1,-4.2257637E-1,-3.8083556E-1,4.1132807E-3,-1.6458932E-1,1.9468925E-3,-3.4224355E-1,-1.5438633E-1,5.897062E-2,6.033904E-1,-2.233843E-2,-2.503746E-1,4.8562676E-2,-2.2801115E-1,5.7135046E-1,1.2548891E-2,1.5721983E-1,3.3735597E-1,4.5330003E-2,2.7806723E-1,-3.520792E-1,-2.2067694E-1,2.690927E-2,-2.1282454E-1,5.777139E-2,-1.1986445E-1,1.04765445E-1,9.845439E-1,-3.3730103E-3,3.5295844E-1,6.686499E-1,2.1132793E-2,6.254366E-1,1.0282173E0,-5.405256E-2,1.2870413E-1,1.06020086E-1,3.8222256E-1,1.9388555E-1,4.0894362E-1,7.297835E-1,1.1614403E0,1.690275E0,2.6628277E-1,2.3871307E-1,4.4097933E-1,6.70465E-1,4.1322196E-1,5.175373E-1,7.1884096E-1,8.810366E-1,1.5001621E0],"categories":[],"categories_nodes":[],"categories_segments":[],"categories_sizes":[],"default_left":[0,0,0,0,0,0,0,0,0,0,0,0,0,0,0,0,0,0,0,0,0,0,0,0,0,0,0,0,0,0,0,0,0,0,0,0,0,0,0,0,0,0,0,0,0,0,0,0,0,0,0,0,0,0,0,0,0,0,0,0,0,0,0,0,0,0,0,0,0,0,0,0,0,0,0,0,0,0,0,0,0,0,0,0,0,0,0,0,0,0,0,0,0,0,0,0,0,0,0,0,0,0,0,0,0,0,0,0,0,0,0,0,0,0,0,0,0,0,0,0,0,0,0,0,0,0,0],"id":3,"left_children":[1,3,5,7,9,11,13,15,17,19,21,23,25,27,29,31,33,35,37,39,41,43,45,47,49,51,53,55,57,59,61,63,65,67,69,71,73,75,77,79,81,83,85,87,89,91,93,95,97,99,101,103,105,107,109,111,113,115,117,119,121,123,125,-1,-1,-1,-1,-1,-1,-1,-1,-1,-1,-1,-1,-1,-1,-1,-1,-1,-1,-1,-1,-1,-1,-1,-1,-1,-1,-1,-1,-1,-1,-1,-1,-1,-1,-1,-1,-1,-1,-1,-1,-1,-1,-1,-1,-1,-1,-1,-1,-1,-1,-1,-1,-1,-1,-1,-1,-1,-1,-1,-1,-1,-1,-1,-1],"loss_changes":[4.1988212E5,1.2494078E5,1.026813E5,1.0038844E4,3.368421E4,1.1646841E4,3.3655188E4,7.0590625E3,3.451914E3,4.0206875E3,7.480368E3,9.912083E3,2.4973389E3,2.4263625E4,8.982531E3,1.8734375E3,3.4664531E3,1.7741875E3,1.4044121E3,3.2537578E3,4.0513933E3,4.195347E3,1.7914961E3,9.841504E2,6.5580815E3,1.0891294E3,3.346045E2,1.7866062E4,2.610629E3,5.7476562E3,2.4432266E3,6.822031E2,1.7476914E3,2.094875E3,6.8018066E2,1.094625E3,5.044209E2,5.95001E2,1.4344037E3,5.7402325E2,3.7942578E3,1.3440559E3,1.1015632E3,4.604352E3,5.352443E3,7.9283887E2,9.1070544E2,5.843594E2,8.460447E2,3.5403027E3,3.1909634E3,8.431272E2,3.631255E2,3.4602734E2,1.8969804E0,9.376838E3,7.2757188E3,2.8699219E3,2.0249927E2,1.7660059E3,2.5367969E3,2.3349688E3,9.6631445E2,0E0,0E0,0E0,0E0,0E0,0E0,0E0,0E0,0E0,0E0,0E0,0E0,0E0,0E0,0E0,0E0,0E0,0E0,0E0,0E0,0E0,0E0,0E0,0E0,0E0,0E0,0E0,0E0,0E0,0E0,0E0,0E0,0E0,0E0,0E0,0E0,0E0,0E0,0E0,0E0,0E0,0E0,0E0,0E0,0E0,0E0,0E0,0E0,0E0,0E0,0E0,0E0,0E0,0E0,0E0,0E0,0E0,0E0,0E0,0E0,0E0,0E0,0E0,0E0],"parents":[2147483647,0,0,1,1,2,2,3,3,4,4,5,5,6,6,7,7,8,8,9,9,10,10,11,11,12,12,13,13,14,14,15,15,16,16,17,17,18,18,19,19,20,20,21,21,22,22,23,23,24,24,25,25,26,26,27,27,28,28,29,29,30,30,31,31,32,32,33,33,34,34,35,35,36,36,37,37,38,38,39,39,40,40,41,41,42,42,43,43,44,44,45,45,46,46,47,47,48,48,49,49,50,50,51,51,52,52,53,53,54,54,55,55,56,56,57,57,58,58,59,59,60,60,61,61,62,62],"right_children":[2,4,6,8,10,12,14,16,18,20,22,24,26,28,30,32,34,36,38,40,42,44,46,48,50,52,54,56,58,60,62,64,66,68,70,72,74,76,78,80,82,84,86,88,90,92,94,96,98,100,102,104,106,108,110,112,114,116,118,120,122,124,126,-1,-1,-1,-1,-1,-1,-1,-1,-1,-1,-1,-1,-1,-1,-1,-1,-1,-1,-1,-1,-1,-1,-1,-1,-1,-1,-1,-1,-1,-1,-1,-1,-1,-1,-1,-1,-1,-1,-1,-1,-1,-1,-1,-1,-1,-1,-1,-1,-1,-1,-1,-1,-1,-1,-1,-1,-1,-1,-1,-1,-1,-1,-1,-1],"split_conditions":[2.009E3,8.91E1,8.5E1,2.004E3,1.1E2,1.7E1,2.021E3,6.47E1,7.5E1,1.8E1,1.36E2,2.011E3,2.6E1,1.8E1,4E0,5.7E1,1.6E1,2.008E3,4E0,2.001E3,1.9E1,1E1,2.004E3,7.2E1,6.9E1,6.88E1,2E1,4E0,2.3E1,2.005E3,1E1,3.7E1,1.4E1,2.001E3,1.9E1,1.6E1,1E1,1.981E3,3E0,1E1,2.007E3,1.989E3,1.993E3,6E0,1.2E1,1.992E3,2.008E3,8E0,1.981E3,2.015E3,7E0,1E1,2.1E1,8E0,2.023E3,2.005E3,2.011E3,1.8E1,1.975E3,2.023E3,2.3E1,8E0,2.2E1,-1.6643534E0,-1.071814E0,-9.060623E-1,-5.672788E-1,-5.153977E-1,-6.8150055E-1,-4.5969066E-1,-2.4987426E-1,-5.555057E-1,-3.956637E-1,-4.233292E-1,-2.4942598E-1,-2.223696E-1,-4.2257637E-1,-3.8083556E-1,4.1132807E-3,-1.6458932E-1,1.9468925E-3,-3.4224355E-1,-1.5438633E-1,5.897062E-2,6.033904E-1,-2.233843E-2,-2.503746E-1,4.8562676E-2,-2.2801115E-1,5.7135046E-1,1.2548891E-2,1.5721983E-1,3.3735597E-1,4.5330003E-2,2.7806723E-1,-3.520792E-1,-2.2067694E-1,2.690927E-2,-2.1282454E-1,5.777139E-2,-1.1986445E-1,1.04765445E-1,9.845439E-1,-3.3730103E-3,3.5295844E-1,6.686499E-1,2.1132793E-2,6.254366E-1,1.0282173E0,-5.405256E-2,1.2870413E-1,1.06020086E-1,3.8222256E-1,1.9388555E-1,4.0894362E-1,7.297835E-1,1.1614403E0,1.690275E0,2.6628277E-1,2.3871307E-1,4.4097933E-1,6.70465E-1,4.1322196E-1,5.175373E-1,7.1884096E-1,8.810366E-1,1.5001621E0],"split_indices":[0,1,1,0,1,3,0,1,1,4,1,0,3,3,5,1,4,0,6,0,4,4,0,1,1,1,4,5,4,2,6,1,4,0,4,4,4,2,5,4,0,2,2,4,4,2,0,3,2,0,6,4,4,4,0,2,0,4,2,0,4,3,4,0,0,0,0,0,0,0,0,0,0,0,0,0,0,0,0,0,0,0,0,0,0,0,0,0,0,0,0,0,0,0,0,0,0,0,0,0,0,0,0,0,0,0,0,0,0,0,0,0,0,0,0,0,0,0,0,0,0,0,0,0,0,0,0],"split_type":[0,0,0,0,0,0,0,0,0,0,0,0,0,0,0,0,0,0,0,0,0,0,0,0,0,0,0,0,0,0,0,0,0,0,0,0,0,0,0,0,0,0,0,0,0,0,0,0,0,0,0,0,0,0,0,0,0,0,0,0,0,0,0,0,0,0,0,0,0,0,0,0,0,0,0,0,0,0,0,0,0,0,0,0,0,0,0,0,0,0,0,0,0,0,0,0,0,0,0,0,0,0,0,0,0,0,0,0,0,0,0,0,0,0,0,0,0,0,0,0,0,0,0,0,0,0,0],"sum_hessian":[5.70601E5,2.51012E5,3.19589E5,9.9006E4,1.52006E5,9.9487E4,2.20102E5,4.9424E4,4.9582E4,7.8513E4,7.3493E4,9.494E4,4.547E3,1.63901E5,5.6201E4,8.987E3,4.0437E4,3.7427E4,1.2155E4,6.8803E4,9.71E3,5.436E4,1.9133E4,1.9054E4,7.5886E4,3.587E3,9.6E2,1.55987E5,7.914E3,3.1218E4,2.4983E4,2.329E3,6.658E3,3.3635E4,6.802E3,3.097E4,6.457E3,8.593E3,3.562E3,7.828E3,6.0975E4,1.644E3,8.066E3,2.3321E4,3.1039E4,9.856E3,9.277E3,1.2264E4,6.79E3,4.7886E4,2.8E4,2.658E3,9.29E2,9.24E2,3.6E1,8.1561E4,7.4426E4,7.086E3,8.28E2,1.6584E4,1.4634E4,2.203E4,2.953E3,1.91E2,2.138E3,4.726E3,1.932E3,9.545E3,2.409E4,4.851E3,1.951E3,2.6453E4,4.517E3,4.079E3,2.378E3,1.656E3,6.937E3,1.518E3,2.044E3,4.774E3,3.054E3,4.8911E4,1.2064E4,7.54E2,8.9E2,3.092E3,4.974E3,8.557E3,1.4764E4,1.628E3,2.9411E4,3.314E3,6.542E3,7.373E3,1.904E3,6.61E3,5.654E3,1.804E3,4.986E3,1.447E4,3.3416E4,2.7624E4,3.76E2,9.07E2,1.751E3,8.43E2,8.6E1,2.74E2,6.5E2,3E1,6E0,6.8363E4,1.3198E4,1.9019E4,5.5407E4,5.194E3,1.892E3,9E0,8.19E2,1.037E4,6.214E3,9.059E3,5.575E3,8.361E3,1.3669E4,2.705E3,2.48E2],"tree_param":{"num_deleted":"0","num_feature":"7","num_nodes":"127","size_leaf_vector":"1"}},{"base_weights":[3.6170902E-6,-5.5757266E-1,6.625943E-1,-9.2083126E-1,9.199519E-2,-3.333402E-2,9.0229523E-1,-1.2703986E0,-6.059834E-1,-8.293856E-2,3.924335E-1,-1.595397E-1,6.815767E-1,7.448004E-1,1.5396249E0,-1.4641702E0,-6.719391E-1,-8.0769366E-1,-2.146517E-1,-2.7371076E-1,3.33759E-1,3.3354446E-1,1.4678283E0,-2.2195543E-1,1.1208391E0,-2.3025344E-1,8.9321005E-1,6.283416E-1,1.584664E0,1.7758738E0,8.655816E-1,-1.7415819E0,-1.2599777E0,-8.3818084E-1,-3.983964E-1,-3.869937E-1,-8.7290245E-1,-4.7584113E-1,1.9405074E-2,3.731069E-1,-3.6866105E-1,1.7951748E0,2.6157567E-1,2.6006296E-1,9.1634357E-1,2.096662E0,6.8668795E-1,1.849837E-1,-4.3781134E-1,-1.1095263E0,1.2969037E0,-6.887111E-1,8.062742E-2,2.180666E0,6.822753E-1,4.973228E-1,1.1542952E0,1.4976003E0,2.9720395E0,1.500299E0,3.101887E0,7.526421E-1,1.710294E0,-8.257777E-1,-5.003051E-1,-3.8905838E-1,-1.1882952E-1,-2.3118985E-1,-4.427318E-1,-1.5014118E-1,1.602023E-1,-1.6901354E-1,-3.6118805E-2,-3.0986738E-1,-1.989139E-1,-1.4759114E-1,1.1617627E0,2.4742539E-1,-1.2783258E-2,9.324787E-2,5.6903493E-1,-1.2721384E-1,2.2818331E-1,3.329084E-1,7.5880307E-1,3.3554457E-2,2.5163853E-1,5.76951E-3,1.350991E-1,2.1361768E-1,3.7810642E-1,5.1339966E-1,8.006002E-1,6.460124E-2,3.766226E-1,-7.819599E-2,1.08456716E-1,-1.8866186E-1,4.4718802E-2,-2.0000936E-1,-3.881288E-1,2.510401E-1,4.7533256E-1,-1.5375328E-1,-3.2441032E-1,-4.1442953E-2,7.885632E-2,7.1245325E-1,6.446818E-2,9.295319E-2,3.564262E-1,2.5297147E-1,9.71371E-2,2.5026095E-1,4.1535643E-1,4.223108E-1,7.5209194E-1,1.2479287E0,3.565114E-1,5.949073E-1,1.7352103E-1,7.7464867E-1,1.0488055E0,8.6127296E-2,2.88721E-1,5.4983854E-1,2.3395938E-1],"categories":[],"categories_nodes":[],"categories_segments":[],"categories_sizes":[],"default_left":[0,0,0,0,0,0,0,0,0,0,0,0,0,0,0,0,0,0,0,0,0,0,0,0,0,0,0,0,0,0,0,0,0,0,0,0,0,0,0,0,0,0,0,0,0,0,0,0,0,0,0,0,0,0,0,0,0,0,0,0,0,0,0,0,0,0,0,0,0,0,0,0,0,0,0,0,0,0,0,0,0,0,0,0,0,0,0,0,0,0,0,0,0,0,0,0,0,0,0,0,0,0,0,0,0,0,0,0,0,0,0,0,0,0,0,0,0,0,0,0,0,0,0,0,0,0,0],"id":4,"left_children":[1,3,5,7,9,11,13,15,17,19,21,23,25,27,29,31,33,35,37,39,41,43,45,47,49,51,53,55,57,59,61,63,65,67,69,71,73,75,77,79,81,83,85,87,89,91,93,95,97,99,101,103,105,107,109,111,113,115,117,119,121,123,125,-1,-1,-1,-1,-1,-1,-1,-1,-1,-1,-1,-1,-1,-1,-1,-1,-1,-1,-1,-1,-1,-1,-1,-1,-1,-1,-1,-1,-1,-1,-1,-1,-1,-1,-1,-1,-1,-1,-1,-1,-1,-1,-1,-1,-1,-1,-1,-1,-1,-1,-1,-1,-1,-1,-1,-1,-1,-1,-1,-1,-1,-1,-1,-1],"loss_changes":[2.108057E5,7.311385E4,4.349635E4,2.1871297E4,5.8407817E3,6.027141E3,1.946711E4,1.0919969E4,8.252922E3,5.583373E3,2.5896782E3,4.5374014E3,1.9342808E3,1.5210531E4,6.1192734E3,4.0290156E3,1.0472549E3,1.8925234E3,2.1740703E3,2.9589578E3,2.3265486E3,1.660315E3,1.04246E3,4.755624E3,1.0365061E3,2.6916913E2,2.2088076E3,9.411273E3,2.2866445E3,1.0397383E4,9.5116846E2,2.2524219E3,1.3053906E3,6.166582E2,8.2871643E2,4.353225E2,2.0052812E3,1.1786428E3,9.3679193E2,5.8495105E2,2.6276372E3,5.2178735E2,1.816484E3,1.5777112E3,3.0478906E2,2.5833008E2,2.5371185E2,1.4762319E3,3.9666323E3,1.54717865E1,3.232378E2,5.2581146E1,4.486923E1,4.3678613E2,1.3166104E3,6.5632754E3,2.0068672E3,1.6162578E3,2.367669E3,1.0484402E4,1.00140625E3,8.590215E2,1.3364575E2,0E0,0E0,0E0,0E0,0E0,0E0,0E0,0E0,0E0,0E0,0E0,0E0,0E0,0E0,0E0,0E0,0E0,0E0,0E0,0E0,0E0,0E0,0E0,0E0,0E0,0E0,0E0,0E0,0E0,0E0,0E0,0E0,0E0,0E0,0E0,0E0,0E0,0E0,0E0,0E0,0E0,0E0,0E0,0E0,0E0,0E0,0E0,0E0,0E0,0E0,0E0,0E0,0E0,0E0,0E0,0E0,0E0,0E0,0E0,0E0,0E0,0E0,0E0,0E0],"parents":[2147483647,0,0,1,1,2,2,3,3,4,4,5,5,6,6,7,7,8,8,9,9,10,10,11,11,12,12,13,13,14,14,15,15,16,16,17,17,18,18,19,19,20,20,21,21,22,22,23,23,24,24,25,25,26,26,27,27,28,28,29,29,30,30,31,31,32,32,33,33,34,34,35,35,36,36,37,37,38,38,39,39,40,40,41,41,42,42,43,43,44,44,45,45,46,46,47,47,48,48,49,49,50,50,51,51,52,52,53,53,54,54,55,55,56,56,57,57,58,58,59,59,60,60,61,61,62,62],"right_children":[2,4,6,8,10,12,14,16,18,20,22,24,26,28,30,32,34,36,38,40,42,44,46,48,50,52,54,56,58,60,62,64,66,68,70,72,74,76,78,80,82,84,86,88,90,92,94,96,98,100,102,104,106,108,110,112,114,116,118,120,122,124,126,-1,-1,-1,-1,-1,-1,-1,-1,-1,-1,-1,-1,-1,-1,-1,-1,-1,-1,-1,-1,-1,-1,-1,-1,-1,-1,-1,-1,-1,-1,-1,-1,-1,-1,-1,-1,-1,-1,-1,-1,-1,-1,-1,-1,-1,-1,-1,-1,-1,-1,-1,-1,-1,-1,-1,-1,-1,-1,-1,-1,-1,-1,-1,-1],"split_conditions":[2.011E3,1.05E2,7.8E1,8E1,1.24E2,2.002E3,1.3E1,2.008E3,2.007E3,2.008E3,2.2E1,1.9E1,2E0,1.32E2,2.3E1,2.003E3,1E1,2.001E3,8E0,2.001E3,1.979E3,1.3E1,1.993E3,2.015E3,1.974E3,2.021E3,6.6E1,2.022E3,2.2E1,1.8E1,2.023E3,5.9E1,1.9E1,9E0,1.3E1,1E1,1.992E3,9E0,2E0,2.2E1,1.8E1,1E1,1.3E1,1E1,1.7E1,2.007E3,2.001E3,2.012E3,2.022E3,1.972E3,8E0,2.015E3,2.023E3,2.2E1,2.022E3,2.015E3,1E1,1.56E2,1.993E3,1.2E1,1.998E3,6E0,1.8E1,-8.257777E-1,-5.003051E-1,-3.8905838E-1,-1.1882952E-1,-2.3118985E-1,-4.427318E-1,-1.5014118E-1,1.602023E-1,-1.6901354E-1,-3.6118805E-2,-3.0986738E-1,-1.989139E-1,-1.4759114E-1,1.1617627E0,2.4742539E-1,-1.2783258E-2,9.324787E-2,5.6903493E-1,-1.2721384E-1,2.2818331E-1,3.329084E-1,7.5880307E-1,3.3554457E-2,2.5163853E-1,5.76951E-3,1.350991E-1,2.1361768E-1,3.7810642E-1,5.1339966E-1,8.006002E-1,6.460124E-2,3.766226E-1,-7.819599E-2,1.08456716E-1,-1.8866186E-1,4.4718802E-2,-2.0000936E-1,-3.881288E-1,2.510401E-1,4.7533256E-1,-1.5375328E-1,-3.2441032E-1,-4.1442953E-2,7.885632E-2,7.1245325E-1,6.446818E-2,9.295319E-2,3.564262E-1,2.5297147E-1,9.71371E-2,2.5026095E-1,4.1535643E-1,4.223108E-1,7.5209194E-1,1.2479287E0,3.565114E-1,5.949073E-1,1.7352103E-1,7.7464867E-1,1.0488055E0,8.6127296E-2,2.88721E-1,5.4983854E-1,2.3395938E-1],"split_indices":[0,1,1,1,1,2,3,0,0,0,4,4,5,1,4,0,4,0,3,0,2,3,2,0,2,0,1,0,4,4,0,1,4,4,3,4,2,6,4,4,3,4,3,4,3,0,2,0,0,2,3,2,0,4,0,0,4,1,2,4,2,6,3,0,0,0,0,0,0,0,0,0,0,0,0,0,0,0,0,0,0,0,0,0,0,0,0,0,0,0,0,0,0,0,0,0,0,0,0,0,0,0,0,0,0,0,0,0,0,0,0,0,0,0,0,0,0,0,0,0,0,0,0,0,0,0,0],"split_type":[0,0,0,0,0,0,0,0,0,0,0,0,0,0,0,0,0,0,0,0,0,0,0,0,0,0,0,0,0,0,0,0,0,0,0,0,0,0,0,0,0,0,0,0,0,0,0,0,0,0,0,0,0,0,0,0,0,0,0,0,0,0,0,0,0,0,0,0,0,0,0,0,0,0,0,0,0,0,0,0,0,0,0,0,0,0,0,0,0,0,0,0,0,0,0,0,0,0,0,0,0,0,0,0,0,0,0,0,0,0,0,0,0,0,0,0,0,0,0,0,0,0,0,0,0,0,0],"sum_hessian":[5.70601E5,3.09855E5,2.60746E5,1.98723E5,1.11132E5,6.6801E4,1.93945E5,9.4169E4,1.04554E5,7.0236E4,4.0896E4,5.6778E4,1.0023E4,1.55515E5,3.843E4,7.1136E4,2.3033E4,6.8992E4,3.5562E4,4.8179E4,2.2057E4,3.8773E4,2.123E3,5.4139E4,2.639E3,1.888E3,8.135E3,1.36577E5,1.8938E4,2.8456E4,9.974E3,3.016E4,4.0976E4,1.4326E4,8.707E3,9.259E3,5.9733E4,1.6807E4,1.8755E4,6.167E3,4.2012E4,1.038E3,2.1019E4,3.4432E4,4.341E3,1.176E3,9.47E2,1.8764E4,3.5375E4,1.93E2,2.446E3,7.63E2,1.125E3,1.145E3,6.99E3,1.0934E5,2.7237E4,1.782E4,1.118E3,2.356E4,4.896E3,8.798E3,1.176E3,2.054E3,2.8106E4,3.9298E4,1.678E3,1.2954E4,1.372E3,7.848E3,8.59E2,5.572E3,3.687E3,3.3893E4,2.584E4,1.6745E4,6.2E1,1.341E3,1.7414E4,5.925E3,2.42E2,4.0048E4,1.964E3,5.37E2,5.01E2,1.669E4,4.329E3,1.5197E4,1.9235E4,2.724E3,1.617E3,7.03E2,4.73E2,5.18E2,4.29E2,5.324E3,1.344E4,2.6687E4,8.688E3,5.7E1,1.36E2,9.41E2,1.505E3,5.27E2,2.36E2,5.11E2,6.14E2,1.042E3,1.03E2,4.026E3,2.964E3,3.6527E4,7.2813E4,1.1395E4,1.5842E4,1.6363E4,1.457E3,6.71E2,4.47E2,1.5463E4,8.097E3,2.112E3,2.784E3,2.733E3,6.065E3,1.039E3,1.37E2],"tree_param":{"num_deleted":"0","num_feature":"7","num_nodes":"127","size_leaf_vector":"1"}},{"base_weights":[5.703156E-6,-3.9029962E-1,4.6382165E-1,-6.445845E-1,6.4404346E-2,2.4124216E-1,8.4896743E-1,-9.558625E-1,-4.680442E-1,-7.4763566E-2,3.252698E-1,6.1018646E-2,8.1174743E-1,2.4230835E0,7.992094E-1,-1.126371E0,-5.9522206E-1,-6.1259216E-1,-1.7876384E-1,-2.0874879E-1,2.5197706E-1,1.8192795E-1,6.4151764E-1,-5.772441E-2,4.8969036E-1,1.2253631E0,5.703398E-1,1.8501838E0,3.4417484E0,7.050987E-1,1.6072178E0,-2.0263374E0,-1.0837628E0,-7.905465E-1,-3.814742E-1,-7.726918E-1,-4.728471E-1,-2.857689E-1,4.0762687E-1,-4.7620535E-1,-1.4664932E-2,2.3183423E-1,4.086414E0,4.632563E-1,-1.3122417E-2,1.906242E0,5.95513E-1,-7.547125E-1,3.922367E-3,6.6651386E-1,4.475139E-2,7.0423144E-1,3.039075E0,3.642835E-2,7.640866E-1,1.53952E0,2.589241E0,3.6560566E0,2.1186426E0,1.02992E0,5.218893E-1,1.4663892E0,2.3869424E0,-9.1214734E-1,-5.6578934E-1,-3.755523E-1,-2.7572832E-1,-3.0313465E-1,-1.8273231E-1,-1.699526E-1,-2.1772534E-2,-2.3425898E-1,1.2495747E0,-1.4865845E-1,2.2728908E-1,1.3230452E-1,-1.0773296E-1,3.8864577E-1,-5.4201046E-3,2.5086117E-1,-1.7294542E-1,5.605685E-1,-3.103985E-2,2.945477E-2,1.4577939E-1,1.0901914E0,1.5003071E0,8.552022E-2,2.6770172E-1,-2.7236557E-2,1.8457913E-1,4.0804136E-1,9.798515E-1,1.6298868E-1,4.1429216E-1,-4.101308E-1,-1.8446994E-1,8.946441E-2,-4.2732604E-2,1.5248589E-1,5.199289E-1,-1.9132815E-1,8.301776E-2,6.7032045E-1,1.4818394E-1,1.0357304E0,7.704898E-1,-2.4584188E-1,5.9181843E-2,8.7854373E-1,1.3333185E-1,4.8603144E-1,3.2047775E-1,8.9164585E-1,6.271473E-1,8.2556885E-1,1.2288941E0,7.1321493E-1,4.5200098E-1,2.5443166E-1,8.872668E-1,7.179067E-2,2.1402818E-1,2.824912E-1,5.157657E-1,4.8900992E-1,7.668082E-1],"categories":[],"categories_nodes":[],"categories_segments":[],"categories_sizes":[],"default_left":[0,0,0,0,0,0,0,0,0,0,0,0,0,0,0,0,0,0,0,0,0,0,0,0,0,0,0,0,0,0,0,0,0,0,0,0,0,0,0,0,0,0,0,0,0,0,0,0,0,0,0,0,0,0,0,0,0,0,0,0,0,0,0,0,0,0,0,0,0,0,0,0,0,0,0,0,0,0,0,0,0,0,0,0,0,0,0,0,0,0,0,0,0,0,0,0,0,0,0,0,0,0,0,0,0,0,0,0,0,0,0,0,0,0,0,0,0,0,0,0,0,0,0,0,0,0,0],"id":5,"left_children":[1,3,5,7,9,11,13,15,17,19,21,23,25,27,29,31,33,35,37,39,41,43,45,47,49,51,53,55,57,59,61,63,65,67,69,71,73,75,77,79,81,83,85,87,89,91,93,95,97,99,101,103,105,107,109,111,113,115,117,119,121,123,125,-1,-1,-1,-1,-1,-1,-1,-1,-1,-1,-1,-1,-1,-1,-1,-1,-1,-1,-1,-1,-1,-1,-1,-1,-1,-1,-1,-1,-1,-1,-1,-1,-1,-1,-1,-1,-1,-1,-1,-1,-1,-1,-1,-1,-1,-1,-1,-1,-1,-1,-1,-1,-1,-1,-1,-1,-1,-1,-1,-1,-1,-1,-1,-1],"loss_changes":[1.0329585E5,3.582685E4,2.2352469E4,1.0920258E4,4.0345784E3,1.6990463E4,7.4793594E3,4.422117E3,5.302293E3,3.1726272E3,1.7525193E3,6.3921963E3,3.9608105E3,1.7064863E3,7.039051E3,1.8719062E3,9.6374365E2,1.8916016E3,2.6511191E3,2.6678188E3,1.6272395E3,1.4598977E3,7.0121533E2,4.2253755E3,2.1430576E3,1.3818076E4,2.591191E3,4.2924902E2,2.9725684E2,4.9340977E3,1.0596855E3,3.1313672E2,1.2900625E3,4.810796E2,6.30036E2,1.5900723E3,1.2600283E3,1.904584E3,2.464442E3,2.8443384E3,4.9805557E3,7.119219E2,4.2879395E1,8.3271875E2,7.667225E2,3.1331396E2,4.7694287E2,6.839155E2,3.891623E3,3.2893965E3,1.2265436E3,3.6540112E3,6.335137E2,9.182065E2,1.2715652E4,4.9653076E1,1.0469263E2,3.5887305E2,2.2545532E1,1.0478861E4,2.869337E3,1.0848496E3,1.8820703E2,0E0,0E0,0E0,0E0,0E0,0E0,0E0,0E0,0E0,0E0,0E0,0E0,0E0,0E0,0E0,0E0,0E0,0E0,0E0,0E0,0E0,0E0,0E0,0E0,0E0,0E0,0E0,0E0,0E0,0E0,0E0,0E0,0E0,0E0,0E0,0E0,0E0,0E0,0E0,0E0,0E0,0E0,0E0,0E0,0E0,0E0,0E0,0E0,0E0,0E0,0E0,0E0,0E0,0E0,0E0,0E0,0E0,0E0,0E0,0E0,0E0,0E0,0E0,0E0],"parents":[2147483647,0,0,1,1,2,2,3,3,4,4,5,5,6,6,7,7,8,8,9,9,10,10,11,11,12,12,13,13,14,14,15,15,16,16,17,17,18,18,19,19,20,20,21,21,22,22,23,23,24,24,25,25,26,26,27,27,28,28,29,29,30,30,31,31,32,32,33,33,34,34,35,35,36,36,37,37,38,38,39,39,40,40,41,41,42,42,43,43,44,44,45,45,46,46,47,47,48,48,49,49,50,50,51,51,52,52,53,53,54,54,55,55,56,56,57,57,58,58,59,59,60,60,61,61,62,62],"right_children":[2,4,6,8,10,12,14,16,18,20,22,24,26,28,30,32,34,36,38,40,42,44,46,48,50,52,54,56,58,60,62,64,66,68,70,72,74,76,78,80,82,84,86,88,90,92,94,96,98,100,102,104,106,108,110,112,114,116,118,120,122,124,126,-1,-1,-1,-1,-1,-1,-1,-1,-1,-1,-1,-1,-1,-1,-1,-1,-1,-1,-1,-1,-1,-1,-1,-1,-1,-1,-1,-1,-1,-1,-1,-1,-1,-1,-1,-1,-1,-1,-1,-1,-1,-1,-1,-1,-1,-1,-1,-1,-1,-1,-1,-1,-1,-1,-1,-1,-1,-1,-1,-1,-1,-1,-1,-1],"split_conditions":[2.011E3,1.05E2,1.05E2,7.2E1,1.1E1,2.005E3,2E0,2.007E3,2.007E3,7E0,2.008E3,1.6E1,1.2E1,1.994E3,2.006E3,2E0,8E0,8E0,1.8E1,1E1,1.5E1,2.003E3,2E0,6.2E1,1.999E3,1E1,1.8E1,1.26E2,1.3E1,1.993E3,1.7E1,3.7E1,8E0,2.009E3,1E1,9E0,1.8E1,2E0,2.1E1,2E0,1.2E1,1.6E1,1.56E2,1.6E1,1.8E1,1.998E3,2.3E1,2E0,2.015E3,2.2E1,1.8E1,2E0,1.8E1,2.014E3,2E1,1.985E3,1.986E3,1.998E3,2.3E1,2.2E1,8E0,1E1,2.009E3,-9.1214734E-1,-5.6578934E-1,-3.755523E-1,-2.7572832E-1,-3.0313465E-1,-1.8273231E-1,-1.699526E-1,-2.1772534E-2,-2.3425898E-1,1.2495747E0,-1.4865845E-1,2.2728908E-1,1.3230452E-1,-1.0773296E-1,3.8864577E-1,-5.4201046E-3,2.5086117E-1,-1.7294542E-1,5.605685E-1,-3.103985E-2,2.945477E-2,1.4577939E-1,1.0901914E0,1.5003071E0,8.552022E-2,2.6770172E-1,-2.7236557E-2,1.8457913E-1,4.0804136E-1,9.798515E-1,1.6298868E-1,4.1429216E-1,-4.101308E-1,-1.8446994E-1,8.946441E-2,-4.2732604E-2,1.5248589E-1,5.199289E-1,-1.9132815E-1,8.301776E-2,6.7032045E-1,1.4818394E-1,1.0357304E0,7.704898E-1,-2.4584188E-1,5.9181843E-2,8.7854373E-1,1.3333185E-1,4.8603144E-1,3.2047775E-1,8.9164585E-1,6.271473E-1,8.2556885E-1,1.2288941E0,7.1321493E-1,4.5200098E-1,2.5443166E-1,8.872668E-1,7.179067E-2,2.1402818E-1,2.824912E-1,5.157657E-1,4.8900992E-1,7.668082E-1],"split_indices":[0,1,1,1,3,2,4,0,0,6,0,4,4,2,2,5,3,3,4,4,6,0,4,1,2,4,4,1,6,2,6,1,3,0,4,6,3,4,4,4,4,4,1,4,3,2,3,5,0,4,4,4,3,2,4,2,2,2,3,4,3,4,2,0,0,0,0,0,0,0,0,0,0,0,0,0,0,0,0,0,0,0,0,0,0,0,0,0,0,0,0,0,0,0,0,0,0,0,0,0,0,0,0,0,0,0,0,0,0,0,0,0,0,0,0,0,0,0,0,0,0,0,0,0,0,0,0],"split_type":[0,0,0,0,0,0,0,0,0,0,0,0,0,0,0,0,0,0,0,0,0,0,0,0,0,0,0,0,0,0,0,0,0,0,0,0,0,0,0,0,0,0,0,0,0,0,0,0,0,0,0,0,0,0,0,0,0,0,0,0,0,0,0,0,0,0,0,0,0,0,0,0,0,0,0,0,0,0,0,0,0,0,0,0,0,0,0,0,0,0,0,0,0,0,0,0,0,0,0,0,0,0,0,0,0,0,0,0,0,0,0,0,0,0,0,0,0,0,0,0,0,0,0,0,0,0,0],"sum_hessian":[5.70601E5,3.09855E5,2.60746E5,1.98723E5,1.11132E5,1.65248E5,9.5498E4,7.1917E4,1.26806E5,7.247E4,3.8662E4,1.25578E5,3.967E4,2.926E3,9.2572E4,4.883E4,2.3087E4,8.4555E4,4.2251E4,5.1395E4,2.1075E4,2.6604E4,1.2058E4,9.8338E4,2.724E4,1.462E4,2.505E4,1.873E3,1.053E3,8.2915E4,9.657E3,2.207E3,4.6623E4,1.2063E4,1.1024E4,3.9407E4,4.5148E4,3.5731E4,6.52E3,2.1612E4,2.9783E4,2.0965E4,1.1E2,1.0893E4,1.5711E4,4.23E2,1.1635E4,7.991E3,9.0347E4,1.9493E4,7.747E3,1.1357E4,3.263E3,6.67E3,1.838E4,1.319E3,5.54E2,9.06E2,1.47E2,2.9901E4,5.3014E4,8.18E3,1.477E3,2.68E2,1.939E3,2.3072E4,2.3551E4,5.453E3,6.61E3,6.894E3,4.13E3,3.9342E4,6.5E1,4.4331E4,8.17E2,3.275E3,3.2456E4,2.113E3,4.407E3,1.534E3,2.0078E4,1.341E3,2.8442E4,1.3739E4,7.226E3,7.4E1,3.6E1,7.697E3,3.196E3,1.3983E4,1.728E3,3.02E2,1.21E2,1.091E4,7.25E2,1.485E3,6.506E3,3.0009E4,6.0338E4,1.6975E4,2.518E3,1.965E3,5.782E3,1.372E3,9.985E3,1.737E3,1.526E3,1.055E3,5.615E3,2.365E3,1.6015E4,1.126E3,1.93E2,3.13E2,2.41E2,2.97E2,6.09E2,1.03E2,4.4E1,2.7324E4,2.577E3,2.1417E4,3.1597E4,2.66E3,5.52E3,2.7E2,1.207E3],"tree_param":{"num_deleted":"0","num_feature":"7","num_nodes":"127","size_leaf_vector":"1"}},{"base_weights":[8.582017E-6,-3.7476078E-1,2.4651E-1,-6.6951364E-1,-1.4010176E-1,-8.174462E-3,4.4312692E-1,-9.9368495E-1,-6.022092E-1,3.3854482E-1,-2.1355689E-1,-7.802496E-2,6.854211E-1,6.788344E-2,5.686386E-1,-1.0522492E0,-4.781552E-2,-6.2521064E-1,2.8230134E-1,3.7842136E-2,6.564202E-1,-3.1852576E-1,4.871272E-2,-2.035129E-1,2.2716315E-1,1.6712382E0,5.6692195E-1,-4.4914496E-1,1.4344665E-1,5.032138E-1,1.2537618E0,-1.3035237E0,-8.834352E-1,-8.957964E-1,1.8536334E-1,-7.150933E-1,-4.5019832E-1,1.3677569E-1,9.083141E-1,7.3824297E-3,1.0162407E0,4.0455538E-1,8.74466E-1,-5.8823484E-1,-1.2681511E-1,1.8221568E-1,-4.51305E-1,-2.5390616E-1,4.3527436E-1,1.2325352E-3,4.1298696E-1,1.3395693E0,3.372121E0,2.3171456E-1,7.056793E-1,-8.950524E-1,-3.0865782E-1,8.240545E-2,7.9432094E-1,1.3465309E0,4.6406704E-1,1.1605195E0,1.6756759E0,-2.5736547E-1,-4.5862854E-1,-2.7040222E-1,6.600632E-1,-3.0434096E-1,4.5416348E-2,1.522519E-1,-1.0981102E-2,-1.9508599E-1,-4.0206066E-1,-3.174451E-2,-1.5872425E-1,-8.593646E-2,1.1135615E-1,7.1364313E-1,2.042517E-1,-7.342626E-3,1.9139417E-1,-1.1103673E0,3.3884498E-1,1.6401723E-1,-7.0451446E-2,2.4941586E-1,4.6382532E-1,-8.228351E-2,-2.7159443E-1,2.238395E-1,-6.836957E-2,1.2548105E-2,3.2026675E-1,-1.5536395E-1,4.557292E-1,-1.2922418E-1,-3.402835E-2,9.674155E-2,2.708146E-1,-1.9822799E-2,1.8060027E-1,2.7117097E-1,8.2073644E-2,3.195718E-1,5.355997E-1,1.3225962E0,9.248093E-1,5.0629184E-2,2.922897E-1,1.4866665E-1,2.6845104E-1,-6.61111E-1,-2.346085E-1,-1.2318412E-1,8.393897E-2,-1.6390555E-2,8.992139E-2,8.758985E-2,2.734451E-1,2.741752E-1,6.469168E-1,5.6896776E-2,1.866655E-1,3.078971E-1,4.3042207E-1,5.731052E-1,2.4106197E-1],"categories":[],"categories_nodes":[],"categories_segments":[],"categories_sizes":[],"default_left":[0,0,0,0,0,0,0,0,0,0,0,0,0,0,0,0,0,0,0,0,0,0,0,0,0,0,0,0,0,0,0,0,0,0,0,0,0,0,0,0,0,0,0,0,0,0,0,0,0,0,0,0,0,0,0,0,0,0,0,0,0,0,0,0,0,0,0,0,0,0,0,0,0,0,0,0,0,0,0,0,0,0,0,0,0,0,0,0,0,0,0,0,0,0,0,0,0,0,0,0,0,0,0,0,0,0,0,0,0,0,0,0,0,0,0,0,0,0,0,0,0,0,0,0,0,0,0],"id":6,"left_children":[1,3,5,7,9,11,13,15,17,19,21,23,25,27,29,31,33,35,37,39,41,43,45,47,49,51,53,55,57,59,61,63,65,67,69,71,73,75,77,79,81,83,85,87,89,91,93,95,97,99,101,103,105,107,109,111,113,115,117,119,121,123,125,-1,-1,-1,-1,-1,-1,-1,-1,-1,-1,-1,-1,-1,-1,-1,-1,-1,-1,-1,-1,-1,-1,-1,-1,-1,-1,-1,-1,-1,-1,-1,-1,-1,-1,-1,-1,-1,-1,-1,-1,-1,-1,-1,-1,-1,-1,-1,-1,-1,-1,-1,-1,-1,-1,-1,-1,-1,-1,-1,-1,-1,-1,-1,-1],"loss_changes":[5.2712797E4,1.5658986E4,1.7236156E4,2.1892148E3,4.431726E3,7.2651143E3,9.148434E3,9.555488E2,1.6906602E3,1.6029144E3,3.0084692E3,5.2175713E3,1.6024434E3,1.9020995E3,6.5243086E3,6.888047E2,1.9902501E2,1.2738887E3,1.9175072E2,2.567312E2,4.4753442E2,4.0352266E3,2.0850444E3,3.107737E3,1.6665315E3,8.295322E2,5.6957983E2,3.8875366E2,1.687607E3,4.38625E3,4.9867383E2,6.5488574E2,5.3664453E2,2.7081345E1,5.6473625E1,2.1674336E3,7.465049E2,1.6957909E2,1.3236255E2,1.6797293E2,1.3911081E2,3.4393433E2,1.2604541E2,3.227753E3,4.0253264E3,3.0640608E3,8.634127E2,2.2229102E3,3.720641E2,7.2448755E2,1.4905061E3,1.5019336E2,6.992114E1,1.6750565E2,3.441045E2,2.194845E2,2.832735E2,1.1567264E3,2.142168E2,2.0645273E3,5.5105215E3,3.8202734E2,4.6951416E2,0E0,0E0,0E0,0E0,0E0,0E0,0E0,0E0,0E0,0E0,0E0,0E0,0E0,0E0,0E0,0E0,0E0,0E0,0E0,0E0,0E0,0E0,0E0,0E0,0E0,0E0,0E0,0E0,0E0,0E0,0E0,0E0,0E0,0E0,0E0,0E0,0E0,0E0,0E0,0E0,0E0,0E0,0E0,0E0,0E0,0E0,0E0,0E0,0E0,0E0,0E0,0E0,0E0,0E0,0E0,0E0,0E0,0E0,0E0,0E0,0E0,0E0,0E0,0E0],"parents":[2147483647,0,0,1,1,2,2,3,3,4,4,5,5,6,6,7,7,8,8,9,9,10,10,11,11,12,12,13,13,14,14,15,15,16,16,17,17,18,18,19,19,20,20,21,21,22,22,23,23,24,24,25,25,26,26,27,27,28,28,29,29,30,30,31,31,32,32,33,33,34,34,35,35,36,36,37,37,38,38,39,39,40,40,41,41,42,42,43,43,44,44,45,45,46,46,47,47,48,48,49,49,50,50,51,51,52,52,53,53,54,54,55,55,56,56,57,57,58,58,59,59,60,60,61,61,62,62],"right_children":[2,4,6,8,10,12,14,16,18,20,22,24,26,28,30,32,34,36,38,40,42,44,46,48,50,52,54,56,58,60,62,64,66,68,70,72,74,76,78,80,82,84,86,88,90,92,94,96,98,100,102,104,106,108,110,112,114,116,118,120,122,124,126,-1,-1,-1,-1,-1,-1,-1,-1,-1,-1,-1,-1,-1,-1,-1,-1,-1,-1,-1,-1,-1,-1,-1,-1,-1,-1,-1,-1,-1,-1,-1,-1,-1,-1,-1,-1,-1,-1,-1,-1,-1,-1,-1,-1,-1,-1,-1,-1,-1,-1,-1,-1,-1,-1,-1,-1,-1,-1,-1,-1,-1,-1,-1,-1],"split_conditions":[2.008E3,9.2E1,8E0,6.47E1,2.001E3,8E0,3E0,1.9E1,1.7E1,1.16E2,1.6E1,1.6E1,1.985E3,5.91E1,2.023E3,2.003E3,5.9E1,1E1,2.007E3,2.2E1,1E1,1.992E3,1.999E3,2.023E3,9.7E1,1.3E1,2.012E3,4.7E1,2.023E3,2E0,1.7E1,2.001E3,1.994E3,2.007E3,2E1,9E0,1.2E1,1E1,6E0,1.997E3,1.981E3,9E0,2.2E1,6E0,6E0,2.2E1,1.8E1,3E0,4E0,2.023E3,1.989E3,1.5E2,8.5E1,2.2E1,1.2E1,3.7E1,1.9E1,1E1,1.978E3,1.994E3,1E1,1.12E2,2.3E1,-2.5736547E-1,-4.5862854E-1,-2.7040222E-1,6.600632E-1,-3.0434096E-1,4.5416348E-2,1.522519E-1,-1.0981102E-2,-1.9508599E-1,-4.0206066E-1,-3.174451E-2,-1.5872425E-1,-8.593646E-2,1.1135615E-1,7.1364313E-1,2.042517E-1,-7.342626E-3,1.9139417E-1,-1.1103673E0,3.3884498E-1,1.6401723E-1,-7.0451446E-2,2.4941586E-1,4.6382532E-1,-8.228351E-2,-2.7159443E-1,2.238395E-1,-6.836957E-2,1.2548105E-2,3.2026675E-1,-1.5536395E-1,4.557292E-1,-1.2922418E-1,-3.402835E-2,9.674155E-2,2.708146E-1,-1.9822799E-2,1.8060027E-1,2.7117097E-1,8.2073644E-2,3.195718E-1,5.355997E-1,1.3225962E0,9.248093E-1,5.0629184E-2,2.922897E-1,1.4866665E-1,2.6845104E-1,-6.61111E-1,-2.346085E-1,-1.2318412E-1,8.393897E-2,-1.6390555E-2,8.992139E-2,8.758985E-2,2.734451E-1,2.741752E-1,6.469168E-1,5.6896776E-2,1.866655E-1,3.078971E-1,4.3042207E-1,5.731052E-1,2.4106197E-1],"split_indices":[0,1,3,1,0,6,5,4,3,1,4,4,2,1,0,0,1,4,0,4,4,2,2,0,1,6,0,1,0,4,3,0,2,0,4,4,4,4,4,2,2,4,4,4,4,4,3,3,5,0,2,1,1,4,6,1,4,4,2,2,4,1,4,0,0,0,0,0,0,0,0,0,0,0,0,0,0,0,0,0,0,0,0,0,0,0,0,0,0,0,0,0,0,0,0,0,0,0,0,0,0,0,0,0,0,0,0,0,0,0,0,0,0,0,0,0,0,0,0,0,0,0,0,0,0,0,0],"split_type":[0,0,0,0,0,0,0,0,0,0,0,0,0,0,0,0,0,0,0,0,0,0,0,0,0,0,0,0,0,0,0,0,0,0,0,0,0,0,0,0,0,0,0,0,0,0,0,0,0,0,0,0,0,0,0,0,0,0,0,0,0,0,0,0,0,0,0,0,0,0,0,0,0,0,0,0,0,0,0,0,0,0,0,0,0,0,0,0,0,0,0,0,0,0,0,0,0,0,0,0,0,0,0,0,0,0,0,0,0,0,0,0,0,0,0,0,0,0,0,0,0,0,0,0,0,0,0],"sum_hessian":[5.70601E5,2.26397E5,3.44204E5,1.00349E5,1.26048E5,1.49958E5,1.94246E5,1.7252E4,8.3097E4,1.677E4,1.09278E5,1.36238E5,1.372E4,4.8687E4,1.45559E5,1.6246E4,1.006E3,8.0991E4,2.106E3,8.618E3,8.152E3,7.8043E4,3.1235E4,9.6542E4,3.9696E4,1.472E3,1.2248E4,6.208E3,4.2479E4,1.32871E5,1.2688E4,6.528E3,9.718E3,2.17E2,7.89E2,5.3509E4,2.7482E4,1.709E3,3.97E2,8.358E3,2.6E2,3.783E3,4.369E3,3.2425E4,4.5618E4,2.4653E4,6.582E3,8.9483E4,7.059E3,1.7915E4,2.1781E4,1.232E3,2.4E2,3.586E3,8.662E3,1.487E3,4.721E3,3.8837E4,3.642E3,5.894E3,1.26977E5,1.0392E4,2.296E3,2.192E3,4.336E3,9.662E3,5.6E1,1.95E2,2.2E1,3.22E2,4.67E2,4.8483E4,5.026E3,5.122E3,2.236E4,6.09E2,1.1E3,5.3E1,3.44E2,7.956E3,4.02E2,6E0,2.54E2,3.095E3,6.88E2,4.106E3,2.63E2,1.6293E4,1.6132E4,4.734E3,4.0884E4,2.1279E4,3.374E3,6.367E3,2.15E2,3.9614E4,4.9869E4,5.687E3,1.372E3,1.611E4,1.805E3,4.817E3,1.6964E4,7.63E2,4.69E2,5.2E1,1.88E2,3.306E3,2.8E2,4.104E3,4.558E3,1.18E2,1.369E3,4.024E3,6.97E2,2.3818E4,1.5019E4,6.89E2,2.953E3,3.842E3,2.052E3,4.6425E4,8.0552E4,6.978E3,3.414E3,1.809E3,4.87E2],"tree_param":{"num_deleted":"0","num_feature":"7","num_nodes":"127","size_leaf_vector":"1"}},{"base_weights":[8.481983E-6,-1.940353E-1,2.6604554E-1,-3.099148E-1,8.357308E-2,1.5460122E-1,5.812386E-1,-3.8133824E-1,-5.0914757E-2,-7.8322895E-2,1.9744943E-1,6.331801E-1,7.179109E-2,1.0586278E0,5.1240975E-1,-4.5241994E-1,-8.837718E-2,8.891742E-1,-1.2826186E-1,-1.6822584E-1,1.4118148E-1,1.3145626E-1,5.562249E-1,5.2946955E-1,1.1965538E0,-1.04023255E-1,3.586703E-1,8.367061E-1,2.3148668E0,4.7207305E-1,1.5923574E0,-3.228928E-1,-6.456288E-1,-1.5581285E0,-6.1056614E-2,7.797336E-1,2.5445726E0,-6.7322576E-1,7.39185E-2,-2.6695424E-1,1.6647784E-2,1.0961026E0,1.20749705E-1,4.2557035E-2,4.036972E-1,5.1333463E-1,1.3391261E0,1.0837591E-1,5.8267856E-1,1.0069913E0,1.6315688E0,-1.9651088E-1,2.8605008E-1,-3.1008976E-2,4.5151973E-1,6.719883E-1,1.5176364E0,1.6253064E0,2.779642E0,3.7091693E-1,8.4066343E-1,1.7531278E0,3.515635E-1,-4.975441E-2,-1.4978628E-1,-2.1036313E-1,-8.826224E-2,-5.606133E-1,-3.4327564E-1,-3.856398E-2,1.02107644E-1,4.2085162E-1,1.6811016E-1,2.460617E-1,9.193161E-1,-2.2798815E-1,-1.8386833E-2,5.307692E-1,-6.9541726E-3,3.1822023E-3,-1.1761809E-1,1.2674327E-1,-4.8731275E-2,1.6122623E-1,4.959203E-1,8.539737E-2,6.9172177E-3,1.1849657E-1,-1.444599E-2,4.7976124E-1,3.7222404E-2,1.4560705E-1,3.860613E-1,3.5198992E-1,7.381797E-1,-1.1911926E-1,6.058732E-2,1.376363E-1,2.2986345E-1,5.636478E-1,2.8331286E-1,5.894729E-1,3.7039357E-1,-3.5650444E-3,-1.3601297E-1,2.3072214E-1,2.23913E-2,-1.7316279E-1,2.0593284E-2,4.5448408E-1,1.2512992E-1,3.151157E-1,1.1633001E-1,1.1105973E0,4.4399795E-1,4.3523517E-1,8.732492E-1,7.312756E-1,9.08277E-1,7.744132E-2,2.3105735E-1,2.4623267E-1,6.4595276E-1,2.664821E-1,5.839143E-1,9.6029334E-2,7.7479E-1],"categories":[],"categories_nodes":[],"categories_segments":[],"categories_sizes":[],"default_left":[0,0,0,0,0,0,0,0,0,0,0,0,0,0,0,0,0,0,0,0,0,0,0,0,0,0,0,0,0,0,0,0,0,0,0,0,0,0,0,0,0,0,0,0,0,0,0,0,0,0,0,0,0,0,0,0,0,0,0,0,0,0,0,0,0,0,0,0,0,0,0,0,0,0,0,0,0,0,0,0,0,0,0,0,0,0,0,0,0,0,0,0,0,0,0,0,0,0,0,0,0,0,0,0,0,0,0,0,0,0,0,0,0,0,0,0,0,0,0,0,0,0,0,0,0,0,0],"id":7,"left_children":[1,3,5,7,9,11,13,15,17,19,21,23,25,27,29,31,33,35,37,39,41,43,45,47,49,51,53,55,57,59,61,63,65,67,69,71,73,75,77,79,81,83,85,87,89,91,93,95,97,99,101,103,105,107,109,111,113,115,117,119,121,123,125,-1,-1,-1,-1,-1,-1,-1,-1,-1,-1,-1,-1,-1,-1,-1,-1,-1,-1,-1,-1,-1,-1,-1,-1,-1,-1,-1,-1,-1,-1,-1,-1,-1,-1,-1,-1,-1,-1,-1,-1,-1,-1,-1,-1,-1,-1,-1,-1,-1,-1,-1,-1,-1,-1,-1,-1,-1,-1,-1,-1,-1,-1,-1,-1],"loss_changes":[2.9456062E4,1.0614034E4,8.453355E3,4.306043E3,1.7913798E3,7.046113E3,2.0653555E3,3.799539E3,3.6586504E3,7.91798E2,1.3505183E3,1.5320967E3,7.6447417E3,2.207789E3,2.393081E3,3.6745195E3,1.4304148E3,6.924541E2,5.122612E3,5.195785E2,2.2732315E2,1.166033E3,2.973252E2,4.9619678E2,3.3578027E2,3.3903325E3,2.0838481E3,7.5476074E2,3.8020312E2,1.974623E3,3.943247E2,2.4350342E3,1.1509375E3,8.3050415E1,9.475659E2,4.9017676E2,2.1188489E2,6.6766846E2,5.582395E3,6.4439233E2,7.20208E2,7.564783E1,1.8273763E2,1.1611924E3,3.9645278E3,1.8159717E2,8.491266E1,1.1753375E2,4.4696582E2,1.5458154E2,1.6311938E2,3.6025073E3,1.839153E3,6.032606E2,1.7021973E3,5.828474E2,1.0674072E2,1.0662903E2,5.894043E1,1.8712764E3,2.9723486E2,2.9221484E2,1.556999E1,0E0,0E0,0E0,0E0,0E0,0E0,0E0,0E0,0E0,0E0,0E0,0E0,0E0,0E0,0E0,0E0,0E0,0E0,0E0,0E0,0E0,0E0,0E0,0E0,0E0,0E0,0E0,0E0,0E0,0E0,0E0,0E0,0E0,0E0,0E0,0E0,0E0,0E0,0E0,0E0,0E0,0E0,0E0,0E0,0E0,0E0,0E0,0E0,0E0,0E0,0E0,0E0,0E0,0E0,0E0,0E0,0E0,0E0,0E0,0E0,0E0,0E0,0E0,0E0],"parents":[2147483647,0,0,1,1,2,2,3,3,4,4,5,5,6,6,7,7,8,8,9,9,10,10,11,11,12,12,13,13,14,14,15,15,16,16,17,17,18,18,19,19,20,20,21,21,22,22,23,23,24,24,25,25,26,26,27,27,28,28,29,29,30,30,31,31,32,32,33,33,34,34,35,35,36,36,37,37,38,38,39,39,40,40,41,41,42,42,43,43,44,44,45,45,46,46,47,47,48,48,49,49,50,50,51,51,52,52,53,53,54,54,55,55,56,56,57,57,58,58,59,59,60,60,61,61,62,62],"right_children":[2,4,6,8,10,12,14,16,18,20,22,24,26,28,30,32,34,36,38,40,42,44,46,48,50,52,54,56,58,60,62,64,66,68,70,72,74,76,78,80,82,84,86,88,90,92,94,96,98,100,102,104,106,108,110,112,114,116,118,120,122,124,126,-1,-1,-1,-1,-1,-1,-1,-1,-1,-1,-1,-1,-1,-1,-1,-1,-1,-1,-1,-1,-1,-1,-1,-1,-1,-1,-1,-1,-1,-1,-1,-1,-1,-1,-1,-1,-1,-1,-1,-1,-1,-1,-1,-1,-1,-1,-1,-1,-1,-1,-1,-1,-1,-1,-1,-1,-1,-1,-1,-1,-1,-1,-1,-1],"split_conditions":[2.012E3,4E0,1.12E2,1.996E3,8E0,2.014E3,1.985E3,1.6E1,6E0,5E0,1.43E2,2.002E3,2.021E3,1.7E1,2E1,1.985E3,4.8E1,5E0,7E0,1.6E1,2E0,1.8E1,1.7E1,6.47E1,2.006E3,2.006E3,1.982E3,1.37E2,1.2E2,2.022E3,2.3E1,6E0,1.4E1,2.006E3,2.2E1,2E0,6.2E1,6E0,9E0,1.21E2,2.004E3,1.987E3,2.004E3,6E0,2.1E1,2.2E1,1.56E2,2E0,1E1,6E0,7E0,2.018E3,2.012E3,1.972E3,2E0,2.018E3,3E0,1.982E3,2E1,1.43E2,1.64E2,4E0,2.018E3,-4.975441E-2,-1.4978628E-1,-2.1036313E-1,-8.826224E-2,-5.606133E-1,-3.4327564E-1,-3.856398E-2,1.02107644E-1,4.2085162E-1,1.6811016E-1,2.460617E-1,9.193161E-1,-2.2798815E-1,-1.8386833E-2,5.307692E-1,-6.9541726E-3,3.1822023E-3,-1.1761809E-1,1.2674327E-1,-4.8731275E-2,1.6122623E-1,4.959203E-1,8.539737E-2,6.9172177E-3,1.1849657E-1,-1.444599E-2,4.7976124E-1,3.7222404E-2,1.4560705E-1,3.860613E-1,3.5198992E-1,7.381797E-1,-1.1911926E-1,6.058732E-2,1.376363E-1,2.2986345E-1,5.636478E-1,2.8331286E-1,5.894729E-1,3.7039357E-1,-3.5650444E-3,-1.3601297E-1,2.3072214E-1,2.23913E-2,-1.7316279E-1,2.0593284E-2,4.5448408E-1,1.2512992E-1,3.151157E-1,1.1633001E-1,1.1105973E0,4.4399795E-1,4.3523517E-1,8.732492E-1,7.312756E-1,9.08277E-1,7.744132E-2,2.3105735E-1,2.4623267E-1,6.4595276E-1,2.664821E-1,5.839143E-1,9.6029334E-2,7.7479E-1],"split_indices":[0,5,1,2,3,0,2,4,4,5,1,2,0,4,3,2,1,4,4,4,4,4,3,1,2,2,2,1,1,0,4,4,4,0,4,4,1,6,4,1,0,2,0,4,4,4,1,5,4,4,6,0,2,2,4,0,5,2,4,1,1,4,2,0,0,0,0,0,0,0,0,0,0,0,0,0,0,0,0,0,0,0,0,0,0,0,0,0,0,0,0,0,0,0,0,0,0,0,0,0,0,0,0,0,0,0,0,0,0,0,0,0,0,0,0,0,0,0,0,0,0,0,0,0,0,0,0],"split_type":[0,0,0,0,0,0,0,0,0,0,0,0,0,0,0,0,0,0,0,0,0,0,0,0,0,0,0,0,0,0,0,0,0,0,0,0,0,0,0,0,0,0,0,0,0,0,0,0,0,0,0,0,0,0,0,0,0,0,0,0,0,0,0,0,0,0,0,0,0,0,0,0,0,0,0,0,0,0,0,0,0,0,0,0,0,0,0,0,0,0,0,0,0,0,0,0,0,0,0,0,0,0,0,0,0,0,0,0,0,0,0,0,0,0,0,0,0,0,0,0,0,0,0,0,0,0,0],"sum_hessian":[5.70601E5,3.29944E5,2.40657E5,2.32778E5,9.7166E4,1.77794E5,6.2863E4,1.82461E5,5.0317E4,4.0123E4,5.7043E4,2.6226E4,1.51568E5,7.921E3,5.4942E4,1.46834E5,3.5627E4,3.825E3,4.6492E4,2.8465E4,1.1658E4,4.8181E4,8.862E3,2.2149E4,4.077E3,9.3975E4,5.7593E4,6.732E3,1.189E3,5.2964E4,1.978E3,8.7904E4,5.893E4,6.5E2,3.4977E4,3.588E3,2.37E2,1.2581E4,3.3911E4,1.8556E4,9.909E3,2.44E2,1.1414E4,3.6321E4,1.186E4,8.402E3,4.6E2,2.485E3,1.9664E4,2.84E3,1.237E3,7.5964E4,1.8011E4,1.1082E4,4.6511E4,5.421E3,1.311E3,4.79E2,7.1E2,4.1559E4,1.1405E4,1.751E3,2.27E2,4.6503E4,4.1401E4,5.0882E4,8.048E3,3.71E2,2.79E2,2.9943E4,5.034E3,9.34E2,2.654E3,5.5E1,1.82E2,1.1019E4,1.562E3,1.837E3,3.2074E4,5.765E3,1.2791E4,3.034E3,6.875E3,1.22E2,1.22E2,4.262E3,7.152E3,7.435E3,2.8886E4,2.248E3,9.612E3,8.109E3,2.93E2,4.01E2,5.9E1,3.88E2,2.097E3,1.174E4,7.924E3,1.9E2,2.65E3,6.72E2,5.65E2,4.4197E4,3.1767E4,5.483E3,1.2528E4,1.71E3,9.372E3,1.458E3,4.5053E4,2.325E3,3.096E3,2.2E1,1.289E3,4.22E2,5.7E1,2.99E2,4.11E2,3.2406E4,9.153E3,1.1235E4,1.7E2,3.2E2,1.431E3,2.24E2,3E0],"tree_param":{"num_deleted":"0","num_feature":"7","num_nodes":"127","size_leaf_vector":"1"}},{"base_weights":[1.01060605E-5,-1.8404151E-1,1.4456849E-1,-3.495026E-1,-5.3355604E-2,3.7932348E-2,3.4238318E-1,-4.2483506E-1,-1.5164644E-1,5.040883E-1,-7.75393E-2,-1.0884772E-1,1.8120314E-1,3.179472E-1,1.2158766E0,-5.768345E-1,-3.320291E-1,-2.643883E-1,4.014732E-3,4.2758507E-1,1.6977506E0,-2.2595228E-1,4.067177E-2,7.078764E-2,-3.455236E-1,1.0834819E0,8.547704E-2,2.9113838E-1,1.0335257E0,1.0385256E0,1.6147981E0,-2.5253135E-1,-7.522054E-1,-5.50295E-1,-2.8183255E-1,-1.8077904E-1,-8.7055963E-1,5.6221074E-1,-9.851449E-2,3.4791622E-1,8.9685166E-1,1.415448E0,2.163933E0,-1.0503735E-1,-7.085253E-1,1.693945E0,-4.5390334E-2,-5.5024642E-2,7.2926867E-1,-6.6992295E-1,-1.2704806E-1,2.2714885E-1,2.3347762E0,-1.7787653E-1,2.1940948E-1,2.5327954E-1,7.523365E-1,4.3478984E-1,1.1606835E0,4.412306E-1,1.1986178E0,2.0845103E0,1.0971179E0,-1.5579087E-1,-5.1187113E-2,-2.97253E-1,-2.0166802E-1,-2.51411E-1,-1.3063993E-1,6.990869E-2,-9.328284E-2,-8.531906E-2,1.9261922E-1,-5.399634E-1,-4.2344064E-2,-1.4102629E-1,2.532368E-1,-7.859893E-2,3.8666736E-2,-6.804952E-1,1.07085444E-1,-1.3622692E-2,3.0791757E-1,4.5247573E-1,3.3394834E-1,5.1265043E-1,7.549484E-1,-6.852557E-2,5.8936226E-1,-3.0712944E-1,-4.217605E-2,3.0895862E-1,7.442869E-1,8.261795E-2,-4.6387237E-2,-4.3510653E-2,2.4811664E-1,9.953872E-2,5.6232476E-1,-2.1776392E-1,3.1414694E-1,1.2193838E-1,-1.4769329E-1,-2.6020112E-2,2.2498162E-1,5.041794E-1,8.927472E-1,7.3921517E-3,-2.0201592E-1,1.0419395E-1,-1.4113559E-2,5.4347247E-2,1.4142165E-1,3.3213818E-1,1.5189382E-1,-1.2947522E-1,2.2104019E-1,2.3799342E-1,3.91762E-1,3.467E-1,-4.9872577E-1,4.4373173E-1,2.0442523E-1,7.1142423E-1,4.8001698E-1,8.6215377E-1,2.9179722E-1],"categories":[],"categories_nodes":[],"categories_segments":[],"categories_sizes":[],"default_left":[0,0,0,0,0,0,0,0,0,0,0,0,0,0,0,0,0,0,0,0,0,0,0,0,0,0,0,0,0,0,0,0,0,0,0,0,0,0,0,0,0,0,0,0,0,0,0,0,0,0,0,0,0,0,0,0,0,0,0,0,0,0,0,0,0,0,0,0,0,0,0,0,0,0,0,0,0,0,0,0,0,0,0,0,0,0,0,0,0,0,0,0,0,0,0,0,0,0,0,0,0,0,0,0,0,0,0,0,0,0,0,0,0,0,0,0,0,0,0,0,0,0,0,0,0,0,0],"id":8,"left_children":[1,3,5,7,9,11,13,15,17,19,21,23,25,27,29,31,33,35,37,39,41,43,45,47,49,51,53,55,57,59,61,63,65,67,69,71,73,75,77,79,81,83,85,87,89,91,93,95,97,99,101,103,105,107,109,111,113,115,117,119,121,123,125,-1,-1,-1,-1,-1,-1,-1,-1,-1,-1,-1,-1,-1,-1,-1,-1,-1,-1,-1,-1,-1,-1,-1,-1,-1,-1,-1,-1,-1,-1,-1,-1,-1,-1,-1,-1,-1,-1,-1,-1,-1,-1,-1,-1,-1,-1,-1,-1,-1,-1,-1,-1,-1,-1,-1,-1,-1,-1,-1,-1,-1,-1,-1,-1],"loss_changes":[1.5181529E4,5.427701E3,6.741435E3,1.6509336E3,1.8905996E3,4.3667656E3,2.389086E3,1.1315537E3,5.3607825E2,5.322051E2,2.3581704E3,4.3607915E3,9.075986E3,2.0888047E3,2.1507617E2,1.7295176E3,5.456411E2,8.977073E2,7.3433655E2,2.0472308E2,4.5542114E1,3.4772441E3,1.0645746E4,4.830855E3,3.1366313E3,1.0799693E4,3.350918E3,1.8325283E3,2.9915674E2,2.014602E2,2.273186E2,2.3315778E2,3.764873E2,3.0754956E2,6.069905E2,1.3273375E3,1.4552068E3,5.7952136E2,4.0297513E2,1.1063794E2,9.71532E1,5.7164917E0,2.0342957E1,1.2168207E4,2.137584E3,1.9342617E3,2.4919636E3,3.8869805E3,4.257375E3,1.7113721E3,5.1538057E3,9.8203143E2,1.7163535E3,3.2139604E3,2.1462903E3,1.5258706E3,6.9477E2,1.8036823E2,1.7266895E2,6.705955E2,2.4094629E2,6.748218E1,9.798303E1,0E0,0E0,0E0,0E0,0E0,0E0,0E0,0E0,0E0,0E0,0E0,0E0,0E0,0E0,0E0,0E0,0E0,0E0,0E0,0E0,0E0,0E0,0E0,0E0,0E0,0E0,0E0,0E0,0E0,0E0,0E0,0E0,0E0,0E0,0E0,0E0,0E0,0E0,0E0,0E0,0E0,0E0,0E0,0E0,0E0,0E0,0E0,0E0,0E0,0E0,0E0,0E0,0E0,0E0,0E0,0E0,0E0,0E0,0E0,0E0,0E0,0E0,0E0,0E0],"parents":[2147483647,0,0,1,1,2,2,3,3,4,4,5,5,6,6,7,7,8,8,9,9,10,10,11,11,12,12,13,13,14,14,15,15,16,16,17,17,18,18,19,19,20,20,21,21,22,22,23,23,24,24,25,25,26,26,27,27,28,28,29,29,30,30,31,31,32,32,33,33,34,34,35,35,36,36,37,37,38,38,39,39,40,40,41,41,42,42,43,43,44,44,45,45,46,46,47,47,48,48,49,49,50,50,51,51,52,52,53,53,54,54,55,55,56,56,57,57,58,58,59,59,60,60,61,61,62,62],"right_children":[2,4,6,8,10,12,14,16,18,20,22,24,26,28,30,32,34,36,38,40,42,44,46,48,50,52,54,56,58,60,62,64,66,68,70,72,74,76,78,80,82,84,86,88,90,92,94,96,98,100,102,104,106,108,110,112,114,116,118,120,122,124,126,-1,-1,-1,-1,-1,-1,-1,-1,-1,-1,-1,-1,-1,-1,-1,-1,-1,-1,-1,-1,-1,-1,-1,-1,-1,-1,-1,-1,-1,-1,-1,-1,-1,-1,-1,-1,-1,-1,-1,-1,-1,-1,-1,-1,-1,-1,-1,-1,-1,-1,-1,-1,-1,-1,-1,-1,-1,-1,-1,-1,-1,-1,-1,-1],"split_conditions":[2.009E3,9.2E1,1.1E1,1.1E1,2E0,1E1,2.9E1,2.003E3,1E1,1.998E3,1E1,6E0,1.2E1,1E1,9.8E1,2.001E3,6.47E1,9E0,1.1E1,1.28E2,2.007E3,9E0,1.2E1,1.989E3,7E0,7.8E1,1.6E1,2.016E3,4E0,8E0,7E0,6.7E1,6.7E1,4E0,1.973E3,8E0,1.979E3,3E0,1.8E1,1.972E3,1.982E3,1.8E1,1.04E2,8E0,1.997E3,1.995E3,2.002E3,5E0,4E0,1.71E2,9E0,1.975E3,1.99E3,1.5E1,2.3E1,1.13E2,1.3E1,9.3E1,2.016E3,6E0,1.2E1,1.2E1,1.05E2,-1.5579087E-1,-5.1187113E-2,-2.97253E-1,-2.0166802E-1,-2.51411E-1,-1.3063993E-1,6.990869E-2,-9.328284E-2,-8.531906E-2,1.9261922E-1,-5.399634E-1,-4.2344064E-2,-1.4102629E-1,2.532368E-1,-7.859893E-2,3.8666736E-2,-6.804952E-1,1.07085444E-1,-1.3622692E-2,3.0791757E-1,4.5247573E-1,3.3394834E-1,5.1265043E-1,7.549484E-1,-6.852557E-2,5.8936226E-1,-3.0712944E-1,-4.217605E-2,3.0895862E-1,7.442869E-1,8.261795E-2,-4.6387237E-2,-4.3510653E-2,2.4811664E-1,9.953872E-2,5.6232476E-1,-2.1776392E-1,3.1414694E-1,1.2193838E-1,-1.4769329E-1,-2.6020112E-2,2.2498162E-1,5.041794E-1,8.927472E-1,7.3921517E-3,-2.0201592E-1,1.0419395E-1,-1.4113559E-2,5.4347247E-2,1.4142165E-1,3.3213818E-1,1.5189382E-1,-1.2947522E-1,2.2104019E-1,2.3799342E-1,3.91762E-1,3.467E-1,-4.9872577E-1,4.4373173E-1,2.0442523E-1,7.1142423E-1,4.8001698E-1,8.6215377E-1,2.9179722E-1],"split_indices":[0,1,3,3,4,4,3,0,4,2,4,4,4,6,1,0,1,4,4,1,0,4,4,2,4,1,4,2,4,4,6,1,1,4,2,4,2,6,4,2,2,3,1,4,2,2,0,4,4,1,4,2,2,4,4,1,4,1,0,4,4,4,1,0,0,0,0,0,0,0,0,0,0,0,0,0,0,0,0,0,0,0,0,0,0,0,0,0,0,0,0,0,0,0,0,0,0,0,0,0,0,0,0,0,0,0,0,0,0,0,0,0,0,0,0,0,0,0,0,0,0,0,0,0,0,0,0],"split_type":[0,0,0,0,0,0,0,0,0,0,0,0,0,0,0,0,0,0,0,0,0,0,0,0,0,0,0,0,0,0,0,0,0,0,0,0,0,0,0,0,0,0,0,0,0,0,0,0,0,0,0,0,0,0,0,0,0,0,0,0,0,0,0,0,0,0,0,0,0,0,0,0,0,0,0,0,0,0,0,0,0,0,0,0,0,0,0,0,0,0,0,0,0,0,0,0,0,0,0,0,0,0,0,0,0,0,0,0,0,0,0,0,0,0,0,0,0,0,0,0,0,0,0,0,0,0,0],"sum_hessian":[5.70601E5,2.51012E5,3.19589E5,1.10768E5,1.40244E5,2.07651E5,1.11938E5,8.0223E4,3.0545E4,5.831E3,1.34413E5,1.02569E5,1.05082E5,1.08892E5,3.046E3,3.0412E4,4.9811E4,1.7715E4,1.283E4,5.48E3,3.51E2,5.9594E4,7.4819E4,5.8311E4,4.4258E4,1.0079E4,9.5003E4,1.0496E5,3.932E3,2.109E3,9.37E2,1.0674E4,1.9738E4,9.313E3,4.0498E4,1.5568E4,2.147E3,1.991E3,1.0839E4,4.685E3,7.95E2,2.19E2,1.32E2,4.7654E4,1.194E4,3.702E3,7.1117E4,4.8957E4,9.354E3,1.7811E4,2.6447E4,5.984E3,4.095E3,3.2027E4,6.2976E4,9.6998E4,7.962E3,6.89E2,3.243E3,4.46E2,1.663E3,4.91E2,4.46E2,2.507E3,8.167E3,4.954E3,1.4784E4,2.656E3,6.657E3,2.167E3,3.8331E4,1.3827E4,1.741E3,9.44E2,1.203E3,4.27E2,1.564E3,6.306E3,4.533E3,1.6E1,4.669E3,9.6E1,6.99E2,1.67E2,5.2E1,5.8E1,7.4E1,4.4973E4,2.681E3,7.678E3,4.262E3,2.008E3,1.694E3,1.8065E4,5.3052E4,4.4424E4,4.533E3,6.944E3,2.41E3,1.7249E4,5.62E2,1.0748E4,1.5699E4,3.739E3,2.245E3,2.027E3,2.068E3,2.2735E4,9.292E3,4.2551E4,2.0425E4,7.2896E4,2.4102E4,3.26E3,4.702E3,1.78E2,5.11E2,9.19E2,2.324E3,3.33E2,1.13E2,1.078E3,5.85E2,3.08E2,1.83E2,2.9E1,4.17E2],"tree_param":{"num_deleted":"0","num_feature":"7","num_nodes":"127","size_leaf_vector":"1"}},{"base_weights":[9.107766E-6,-1.9654436E-1,7.754078E-2,-4.0481952E-1,-1.3057974E-1,-3.2374814E-2,2.1877986E-1,-1.914681E-1,-4.8604912E-1,-6.790464E-1,-1.02514654E-1,-6.48269E-2,2.5295365E-1,8.7961686E-1,1.8606476E-1,-3.9785814E-1,-1.023985E-1,-5.734872E-1,-2.8970113E-1,-1.5649104E0,-6.264759E-1,-2.2891808E-1,1.8966405E-2,-2.6994982E-1,-1.459256E-2,2.2569746E-1,2.3177364E0,6.147162E-1,1.4397156E0,-4.5685035E-1,2.312945E-1,-4.6750066E-1,4.7617865E-1,-2.7533698E-1,-9.3641033E-4,-6.394915E-1,-2.745637E-1,-4.5231193E-1,-1.996225E-1,-1.2753134E0,-2.046911E0,-7.534349E-1,-3.4677905E-1,-2.4867876E-1,1.3777946E-1,-7.89064E-2,1.6190612E-1,1.3856518E-1,-2.9201946E-1,-5.958009E-2,1.8792285E-1,3.669883E-1,1.1523413E-1,2.7064452E0,1.3668894E0,8.5415924E-1,3.372741E-1,1.9655969E0,8.0117035E-1,5.6235272E-2,-5.3650814E-1,6.4383155E-1,1.8103299E-1,-2.5100324E-1,-1.0239815E-1,-1.9709459E-1,2.5012448E-1,2.007547E-2,-1.5838155E-1,7.3107327E-3,-1.532386E-1,-1.6268635E-1,-2.495331E-1,-1.5038177E-1,-5.861498E-4,-2.1564019E-1,-7.216527E-2,-7.383781E-2,1.595535E-2,-4.5959035E-1,-3.1399277E-1,-7.0521086E-1,-5.138327E-1,-1.9995795E-1,-3.161213E-1,-1.7149235E-1,-6.338413E-2,-5.6475937E-2,-1.4517869E-1,-5.9234876E-2,7.0120245E-2,-7.5547234E-3,-1.580427E-1,2.2819306E-1,1.1852083E-2,1.8087773E-2,4.5415458E-1,-2.3204999E-1,-7.55819E-2,1.0691883E-1,-2.7111202E-2,2.906866E-1,-9.203702E-3,6.630521E-2,1.5245742E-1,-8.097939E-2,7.58329E-2,8.7280595E-1,3.9833385E-1,3.8142332E-1,9.872753E-1,1.7077397E-1,3.1280187E-1,2.2645839E-1,3.3358283E-2,4.0716675E-1,7.211852E-1,3.4876335E-1,7.370496E-2,-1.8971408E-2,7.064783E-2,-2.2326908E-1,-6.608209E-2,1.2969106E-1,4.835022E-1,-1.5663439E-1,8.0289185E-2],"categories":[],"categories_nodes":[],"categories_segments":[],"categories_sizes":[],"default_left":[0,0,0,0,0,0,0,0,0,0,0,0,0,0,0,0,0,0,0,0,0,0,0,0,0,0,0,0,0,0,0,0,0,0,0,0,0,0,0,0,0,0,0,0,0,0,0,0,0,0,0,0,0,0,0,0,0,0,0,0,0,0,0,0,0,0,0,0,0,0,0,0,0,0,0,0,0,0,0,0,0,0,0,0,0,0,0,0,0,0,0,0,0,0,0,0,0,0,0,0,0,0,0,0,0,0,0,0,0,0,0,0,0,0,0,0,0,0,0,0,0,0,0,0,0,0,0],"id":9,"left_children":[1,3,5,7,9,11,13,15,17,19,21,23,25,27,29,31,33,35,37,39,41,43,45,47,49,51,53,55,57,59,61,63,65,67,69,71,73,75,77,79,81,83,85,87,89,91,93,95,97,99,101,103,105,107,109,111,113,115,117,119,121,123,125,-1,-1,-1,-1,-1,-1,-1,-1,-1,-1,-1,-1,-1,-1,-1,-1,-1,-1,-1,-1,-1,-1,-1,-1,-1,-1,-1,-1,-1,-1,-1,-1,-1,-1,-1,-1,-1,-1,-1,-1,-1,-1,-1,-1,-1,-1,-1,-1,-1,-1,-1,-1,-1,-1,-1,-1,-1,-1,-1,-1,-1,-1,-1,-1],"loss_changes":[8.695448E3,2.2174937E3,6.3524883E3,6.727622E2,1.8868228E3,2.130716E3,3.8714717E3,1.9675696E2,4.826372E2,2.7757275E2,1.7907495E3,2.128967E3,1.3221777E3,1.2530063E3,4.9618076E3,1.9645532E2,1.3120587E2,3.837246E2,1.2683539E2,4.6042297E1,1.9989551E2,4.1414233E2,8.3193506E2,3.664663E2,1.5120778E3,3.6193298E2,1.12358154E2,3.8084375E2,9.102871E2,4.5842627E2,3.3053984E3,1.3908685E2,9.654671E1,2.3910416E2,6.0872345E1,2.976582E2,2.174408E2,1.7415424E2,6.557553E1,1.1853729E1,1.1889648E1,1.0086694E2,5.3506775E1,7.707981E2,9.400284E1,8.493017E2,1.7711486E3,2.2407297E2,7.4403516E2,1.7393499E3,5.1506807E3,2.0966089E2,6.8960547E2,5.9921997E1,1.5493286E1,1.65104E2,2.5075662E2,3.9588232E2,2.4575562E2,3.2295494E1,6.376013E2,3.544164E3,8.652897E3,0E0,0E0,0E0,0E0,0E0,0E0,0E0,0E0,0E0,0E0,0E0,0E0,0E0,0E0,0E0,0E0,0E0,0E0,0E0,0E0,0E0,0E0,0E0,0E0,0E0,0E0,0E0,0E0,0E0,0E0,0E0,0E0,0E0,0E0,0E0,0E0,0E0,0E0,0E0,0E0,0E0,0E0,0E0,0E0,0E0,0E0,0E0,0E0,0E0,0E0,0E0,0E0,0E0,0E0,0E0,0E0,0E0,0E0,0E0,0E0,0E0,0E0,0E0,0E0],"parents":[2147483647,0,0,1,1,2,2,3,3,4,4,5,5,6,6,7,7,8,8,9,9,10,10,11,11,12,12,13,13,14,14,15,15,16,16,17,17,18,18,19,19,20,20,21,21,22,22,23,23,24,24,25,25,26,26,27,27,28,28,29,29,30,30,31,31,32,32,33,33,34,34,35,35,36,36,37,37,38,38,39,39,40,40,41,41,42,42,43,43,44,44,45,45,46,46,47,47,48,48,49,49,50,50,51,51,52,52,53,53,54,54,55,55,56,56,57,57,58,58,59,59,60,60,61,61,62,62],"right_children":[2,4,6,8,10,12,14,16,18,20,22,24,26,28,30,32,34,36,38,40,42,44,46,48,50,52,54,56,58,60,62,64,66,68,70,72,74,76,78,80,82,84,86,88,90,92,94,96,98,100,102,104,106,108,110,112,114,116,118,120,122,124,126,-1,-1,-1,-1,-1,-1,-1,-1,-1,-1,-1,-1,-1,-1,-1,-1,-1,-1,-1,-1,-1,-1,-1,-1,-1,-1,-1,-1,-1,-1,-1,-1,-1,-1,-1,-1,-1,-1,-1,-1,-1,-1,-1,-1,-1,-1,-1,-1,-1,-1,-1,-1,-1,-1,-1,-1,-1,-1,-1,-1,-1,-1,-1,-1],"split_conditions":[8E1,2.004E3,2.012E3,2.001E3,2E0,9E0,2E0,1.978E3,2.003E3,3.7E1,8E0,3E0,1.4E1,1.987E3,3E0,1.9E1,4E0,1.6E1,6.7E1,2.014E3,2.012E3,2.023E3,1E1,2E0,1.8E1,2.005E3,2.009E3,2.019E3,2.006E3,2.014E3,6E0,8E0,1.975E3,2E0,7.5E1,9E0,1.984E3,1E1,1.6E1,8E0,8E0,2.018E3,2.021E3,2.018E3,1.978E3,9E0,1.1E1,1.998E3,3E0,2E0,2.1E1,8E0,2.007E3,1.6E1,1.998E3,9.2E1,1E0,1.998E3,1.7E1,2.013E3,2.021E3,5E0,7E0,-2.5100324E-1,-1.0239815E-1,-1.9709459E-1,2.5012448E-1,2.007547E-2,-1.5838155E-1,7.3107327E-3,-1.532386E-1,-1.6268635E-1,-2.495331E-1,-1.5038177E-1,-5.861498E-4,-2.1564019E-1,-7.216527E-2,-7.383781E-2,1.595535E-2,-4.5959035E-1,-3.1399277E-1,-7.0521086E-1,-5.138327E-1,-1.9995795E-1,-3.161213E-1,-1.7149235E-1,-6.338413E-2,-5.6475937E-2,-1.4517869E-1,-5.9234876E-2,7.0120245E-2,-7.5547234E-3,-1.580427E-1,2.2819306E-1,1.1852083E-2,1.8087773E-2,4.5415458E-1,-2.3204999E-1,-7.55819E-2,1.0691883E-1,-2.7111202E-2,2.906866E-1,-9.203702E-3,6.630521E-2,1.5245742E-1,-8.097939E-2,7.58329E-2,8.7280595E-1,3.9833385E-1,3.8142332E-1,9.872753E-1,1.7077397E-1,3.1280187E-1,2.2645839E-1,3.3358283E-2,4.0716675E-1,7.211852E-1,3.4876335E-1,7.370496E-2,-1.8971408E-2,7.064783E-2,-2.2326908E-1,-6.608209E-2,1.2969106E-1,4.835022E-1,-1.5663439E-1,8.0289185E-2],"split_indices":[1,0,0,0,5,6,4,2,0,1,3,3,6,2,4,4,4,4,1,0,2,0,4,4,4,0,0,0,2,0,4,4,2,4,1,4,2,4,4,3,3,0,0,0,2,4,4,2,4,4,4,3,0,4,2,1,4,2,3,0,0,4,4,0,0,0,0,0,0,0,0,0,0,0,0,0,0,0,0,0,0,0,0,0,0,0,0,0,0,0,0,0,0,0,0,0,0,0,0,0,0,0,0,0,0,0,0,0,0,0,0,0,0,0,0,0,0,0,0,0,0,0,0,0,0,0,0],"split_type":[0,0,0,0,0,0,0,0,0,0,0,0,0,0,0,0,0,0,0,0,0,0,0,0,0,0,0,0,0,0,0,0,0,0,0,0,0,0,0,0,0,0,0,0,0,0,0,0,0,0,0,0,0,0,0,0,0,0,0,0,0,0,0,0,0,0,0,0,0,0,0,0,0,0,0,0,0,0,0,0,0,0,0,0,0,0,0,0,0,0,0,0,0,0,0,0,0,0,0,0,0,0,0,0,0,0,0,0,0,0,0,0,0,0,0,0,0,0,0,0,0,0,0,0,0,0,0],"sum_hessian":[5.70601E5,1.61408E5,4.09193E5,3.8824E4,1.22584E5,2.30113E5,1.7908E5,1.0706E4,2.8118E4,5.967E3,1.16617E5,2.06614E5,2.3499E4,8.447E3,1.70633E5,3.227E3,7.479E3,1.9454E4,8.664E3,3.34E2,5.633E3,5.7151E4,5.9466E4,4.0645E4,1.65969E5,2.3193E4,3.06E2,5.735E3,2.712E3,1.1215E4,1.59418E5,2.989E3,2.38E2,2.765E3,4.714E3,1.5935E4,3.519E3,3.088E3,5.576E3,2.09E2,1.25E2,3.874E3,1.759E3,5.4229E4,2.922E3,3.5297E4,2.4169E4,2.083E3,3.8562E4,1.35802E5,3.0167E4,1.0176E4,1.3017E4,2.17E2,8.9E1,3.078E3,2.657E3,1.487E3,1.225E3,1.507E3,9.708E3,1.7313E4,1.42105E5,7.61E2,2.228E3,5.7E1,1.81E2,1.174E3,1.591E3,4.491E3,2.23E2,1.0585E4,5.35E3,1.921E3,1.598E3,1.367E3,1.721E3,4.71E3,8.66E2,9.8E1,1.11E2,6.5E1,6E1,3.005E3,8.69E2,6.61E2,1.098E3,4.3147E4,1.1082E4,6.5E2,2.272E3,3.1517E4,3.78E3,4.102E3,2.0067E4,1.971E3,1.12E2,2.963E3,3.5599E4,9.359E3,1.26443E5,6.597E3,2.357E4,5.004E3,5.172E3,3.425E3,9.592E3,1.89E2,2.8E1,8.5E1,4E0,1.226E3,1.852E3,9.33E2,1.724E3,6.23E2,8.64E2,7.42E2,4.83E2,9.04E2,6.03E2,5.859E3,3.849E3,1.4208E4,3.105E3,1.5582E4,1.26523E5],"tree_param":{"num_deleted":"0","num_feature":"7","num_nodes":"127","size_leaf_vector":"1"}},{"base_weights":[6.6084162E-6,-2.0599368E-1,5.02455E-2,-2.1429177E-1,1.1876922E0,-8.623731E-2,1.2444613E-1,-3.0963615E-1,-1.1782931E-1,1.8550519E0,1.8721204E-1,1.4611544E-1,-1.2890407E-1,2.1264805E-2,2.2457874E-1,-4.658551E-1,-2.6653692E-1,5.275578E-1,-1.3680808E-1,2.774856E0,1.6326139E0,-5.159488E-2,8.934554E-1,3.7839416E-2,4.4640556E-1,-1.5908405E-1,1.3616432E-1,-1.0281309E-2,4.058197E-1,1.8580352E-1,6.0595083E-1,-2.996094E-1,-5.269901E-1,-1.9122273E-1,-4.0643397E-1,4.0930507E-1,1.5193106E0,-1.5380314E-1,2.702489E-1,3.750923E0,2.56949E0,2.0382717E0,1.3463265E0,-9.316007E-1,7.546061E-2,9.351637E-1,-4.809438E-1,-8.033568E-2,1.5053584E-1,1.1829876E0,3.942417E-1,-1.9508709E-1,-5.941163E-2,3.134341E-1,-1.781516E-1,-2.6052773E-1,1.8042443E-2,6.2289417E-1,2.23292E-1,8.9623433E-1,1.6246967E-1,7.830145E-1,3.2645237E-1,-1.1278418E-1,-2.5841257E-2,-1.7283015E-1,-9.773124E-2,-7.3910095E-2,1.6935394E-3,-1.7089297E-1,-5.9877615E-2,3.382585E-2,1.9429906E-1,5.1413834E-1,6.6661716E-2,-1.3962021E-1,-4.0355723E-2,4.9712382E-2,1.8735737E-1,1.4297045E0,9.160043E-1,7.353786E-1,1.1608664E0,5.4977965E-1,8.5881555E-1,3.3007038E-1,7.7457076E-1,-3.9835522E-1,-2.1367759E-2,1.4796625E-1,-3.405797E-2,2.2393738E-1,3.9088953E-1,-6.861513E-2,-5.8314456E-3,8.803586E-2,1.5114658E-2,2.4958067E-1,4.3803078E-1,9.184852E-3,1.4812467E-1,-6.332751E-2,8.514447E-2,2.0434052E-2,-7.194222E-2,-4.166112E-1,1.0324535E-1,-6.066921E-2,1.264476E-1,-9.568663E-2,8.972076E-2,4.7143828E-2,-1.4343003E-2,8.958097E-2,3.2890078E-1,-1.5934232E-1,1.1673168E-1,2.1163897E-1,5.34243E-1,3.5253935E-2,1.3396908E-1,1.7991382E-1,4.6382195E-1,-7.6177776E-2,1.9531053E-1],"categories":[],"categories_nodes":[],"categories_segments":[],"categories_sizes":[],"default_left":[0,0,0,0,0,0,0,0,0,0,0,0,0,0,0,0,0,0,0,0,0,0,0,0,0,0,0,0,0,0,0,0,0,0,0,0,0,0,0,0,0,0,0,0,0,0,0,0,0,0,0,0,0,0,0,0,0,0,0,0,0,0,0,0,0,0,0,0,0,0,0,0,0,0,0,0,0,0,0,0,0,0,0,0,0,0,0,0,0,0,0,0,0,0,0,0,0,0,0,0,0,0,0,0,0,0,0,0,0,0,0,0,0,0,0,0,0,0,0,0,0,0,0,0,0],"id":10,"left_children":[1,3,5,7,9,11,13,15,17,19,21,23,25,27,29,31,33,35,37,39,41,43,45,47,49,51,53,55,57,59,61,63,65,67,69,71,73,75,77,79,81,83,85,87,89,91,-1,93,95,97,99,101,103,105,107,109,111,113,115,117,119,121,123,-1,-1,-1,-1,-1,-1,-1,-1,-1,-1,-1,-1,-1,-1,-1,-1,-1,-1,-1,-1,-1,-1,-1,-1,-1,-1,-1,-1,-1,-1,-1,-1,-1,-1,-1,-1,-1,-1,-1,-1,-1,-1,-1,-1,-1,-1,-1,-1,-1,-1,-1,-1,-1,-1,-1,-1,-1,-1,-1,-1,-1,-1],"loss_changes":[5.9052656E3,1.2937314E3,4.645595E3,1.0227793E3,4.418319E2,1.6016553E3,3.0702715E3,3.7648047E2,6.7709955E2,8.035266E1,4.4799446E1,8.1488965E2,1.0919319E3,1.7755293E3,2.2300864E3,1.2280908E2,4.617998E2,1.8493774E2,3.7150806E2,1.3858948E1,3.6561768E1,2.2242119E1,7.070175E0,2.453521E2,2.5500488E2,4.397207E2,7.774121E2,9.587443E2,4.3955212E2,2.269185E3,6.8865674E2,5.2946747E1,8.72583E1,3.093816E2,5.1777075E2,9.9661255E1,4.2174194E1,3.096975E2,7.9616486E1,7.036087E0,8.271851E0,2.1405579E1,5.654239E1,8.407816E0,1.3710041E1,4.285549E0,0E0,8.1227905E1,1.3494337E2,4.2365723E1,2.2439496E2,6.900012E2,7.481205E2,4.6638025E2,7.263005E1,4.496823E2,1.1130642E3,7.7794763E2,7.5409314E2,7.34218E2,1.6927375E3,1.1913984E3,1.01695435E3,0E0,0E0,0E0,0E0,0E0,0E0,0E0,0E0,0E0,0E0,0E0,0E0,0E0,0E0,0E0,0E0,0E0,0E0,0E0,0E0,0E0,0E0,0E0,0E0,0E0,0E0,0E0,0E0,0E0,0E0,0E0,0E0,0E0,0E0,0E0,0E0,0E0,0E0,0E0,0E0,0E0,0E0,0E0,0E0,0E0,0E0,0E0,0E0,0E0,0E0,0E0,0E0,0E0,0E0,0E0,0E0,0E0,0E0,0E0,0E0,0E0,0E0],"parents":[2147483647,0,0,1,1,2,2,3,3,4,4,5,5,6,6,7,7,8,8,9,9,10,10,11,11,12,12,13,13,14,14,15,15,16,16,17,17,18,18,19,19,20,20,21,21,22,22,23,23,24,24,25,25,26,26,27,27,28,28,29,29,30,30,31,31,32,32,33,33,34,34,35,35,36,36,37,37,38,38,39,39,40,40,41,41,42,42,43,43,44,44,45,45,47,47,48,48,49,49,50,50,51,51,52,52,53,53,54,54,55,55,56,56,57,57,58,58,59,59,60,60,61,61,62,62],"right_children":[2,4,6,8,10,12,14,16,18,20,22,24,26,28,30,32,34,36,38,40,42,44,46,48,50,52,54,56,58,60,62,64,66,68,70,72,74,76,78,80,82,84,86,88,90,92,-1,94,96,98,100,102,104,106,108,110,112,114,116,118,120,122,124,-1,-1,-1,-1,-1,-1,-1,-1,-1,-1,-1,-1,-1,-1,-1,-1,-1,-1,-1,-1,-1,-1,-1,-1,-1,-1,-1,-1,-1,-1,-1,-1,-1,-1,-1,-1,-1,-1,-1,-1,-1,-1,-1,-1,-1,-1,-1,-1,-1,-1,-1,-1,-1,-1,-1,-1,-1,-1,-1,-1,-1,-1],"split_conditions":[3E0,1.3E1,2.007E3,9.5E1,1.973E3,2.001E3,9.5E1,2.004E3,2E0,8.5E1,1.13E2,1.991E3,7E0,2.016E3,2.005E3,2.001E3,2.016E3,1.998E3,2.023E3,2.003E3,2.008E3,3E0,2.013E3,3E0,5E0,1.996E3,2.005E3,6.2E1,1.3E1,2E0,2.3E1,3E0,1.4E1,2.012E3,2.021E3,2.008E3,2.006E3,3E0,1.8E1,8E1,2.022E3,1.53E2,2.021E3,9.3E1,8.5E1,1.7E1,-4.809438E-1,1.978E3,6E0,4E0,7E0,2.2E1,1.3E1,1.983E3,1.6E2,1.9E1,1.981E3,8E0,1.6E1,1.998E3,1.38E2,1.8E1,2.013E3,-1.1278418E-1,-2.5841257E-2,-1.7283015E-1,-9.773124E-2,-7.3910095E-2,1.6935394E-3,-1.7089297E-1,-5.9877615E-2,3.382585E-2,1.9429906E-1,5.1413834E-1,6.6661716E-2,-1.3962021E-1,-4.0355723E-2,4.9712382E-2,1.8735737E-1,1.4297045E0,9.160043E-1,7.353786E-1,1.1608664E0,5.4977965E-1,8.5881555E-1,3.3007038E-1,7.7457076E-1,-3.9835522E-1,-2.1367759E-2,1.4796625E-1,-3.405797E-2,2.2393738E-1,3.9088953E-1,-6.861513E-2,-5.8314456E-3,8.803586E-2,1.5114658E-2,2.4958067E-1,4.3803078E-1,9.184852E-3,1.4812467E-1,-6.332751E-2,8.514447E-2,2.0434052E-2,-7.194222E-2,-4.166112E-1,1.0324535E-1,-6.066921E-2,1.264476E-1,-9.568663E-2,8.972076E-2,4.7143828E-2,-1.4343003E-2,8.958097E-2,3.2890078E-1,-1.5934232E-1,1.1673168E-1,2.1163897E-1,5.34243E-1,3.5253935E-2,1.3396908E-1,1.7991382E-1,4.6382195E-1,-7.6177776E-2,1.9531053E-1],"split_indices":[3,6,0,1,2,0,1,0,4,1,1,2,6,2,2,0,0,2,0,0,0,4,2,5,4,2,0,1,4,4,4,5,4,0,0,0,2,4,4,1,0,1,0,1,1,4,0,2,4,4,4,4,4,2,1,4,2,4,4,2,1,4,2,0,0,0,0,0,0,0,0,0,0,0,0,0,0,0,0,0,0,0,0,0,0,0,0,0,0,0,0,0,0,0,0,0,0,0,0,0,0,0,0,0,0,0,0,0,0,0,0,0,0,0,0,0,0,0,0,0,0,0,0,0,0],"split_type":[0,0,0,0,0,0,0,0,0,0,0,0,0,0,0,0,0,0,0,0,0,0,0,0,0,0,0,0,0,0,0,0,0,0,0,0,0,0,0,0,0,0,0,0,0,0,0,0,0,0,0,0,0,0,0,0,0,0,0,0,0,0,0,0,0,0,0,0,0,0,0,0,0,0,0,0,0,0,0,0,0,0,0,0,0,0,0,0,0,0,0,0,0,0,0,0,0,0,0,0,0,0,0,0,0,0,0,0,0,0,0,0,0,0,0,0,0,0,0,0,0,0,0,0,0],"sum_hessian":[5.70601E5,1.11873E5,4.58728E5,1.11211E5,6.62E2,1.61559E5,2.97169E5,5.5929E4,5.5282E4,3.97E2,2.65E2,2.5064E4,1.36495E5,1.46357E5,1.50812E5,1.2093E4,4.3836E4,1.579E3,5.3703E4,7.7E1,3.2E2,1.98E2,6.7E1,1.8422E4,6.642E3,1.22543E5,1.3952E4,1.35261E5,1.1096E4,1.36894E5,1.3918E4,3.252E3,8.841E3,2.8496E4,1.534E4,1.411E3,1.68E2,5.1551E4,2.152E3,1.3E1,6.4E1,1.32E2,1.88E2,2.5E1,1.73E2,6.6E1,1E0,8.992E3,9.43E3,4.39E2,6.203E3,9.0024E4,3.2519E4,8.921E3,5.031E3,1.3753E4,1.21508E5,5.068E3,6.028E3,4.353E3,1.32541E5,8.52E3,5.398E3,2.395E3,8.57E2,7.106E3,1.735E3,2.2261E4,6.235E3,8.574E3,6.766E3,6.29E2,7.82E2,1.46E2,2.2E1,3.004E3,4.8547E4,1.662E3,4.9E2,5E0,8E0,5.9E1,5E0,1.06E2,2.6E1,1.57E2,3.1E1,1.7E1,8E0,5.4E1,1.19E2,4.4E1,2.2E1,2.616E3,6.376E3,3.885E3,5.545E3,1.94E2,2.45E2,1.333E3,4.87E3,8.7113E4,2.911E3,1.9051E4,1.3468E4,1.58E2,8.763E3,4.837E3,1.94E2,1.2453E4,1.3E3,3.9041E4,8.2467E4,3.008E3,2.06E3,1.086E3,4.942E3,3.581E3,7.72E2,1.14433E5,1.8108E4,6.87E3,1.65E3,1.936E3,3.462E3],"tree_param":{"num_deleted":"0","num_feature":"7","num_nodes":"125","size_leaf_vector":"1"}},{"base_weights":[7.080656E-6,-8.41926E-2,8.196346E-2,-1.8513098E-2,-4.552992E-1,7.2904855E-1,-2.5737905E-3,-8.975626E-2,8.392429E-1,-7.42453E-1,-3.3216495E-2,3.252448E-1,1.7565254E0,-2.0470147E-1,1.07168496E-1,4.450764E-2,-4.1929683E-1,3.6348614E-1,2.321328E0,-5.0550854E-1,-1.098935E0,9.005409E-2,-6.3983184E-1,8.485752E-2,8.8931185E-1,1.8982399E0,9.887683E-1,-6.0493004E-2,-5.504121E-1,1.9619142E-1,-1.0861024E-1,-1.0432027E-1,3.6069146E-1,-1.5647588E0,-2.8555897E-1,1.0543697E-1,6.792151E-1,2.6094713E0,1.6380187E0,-3.9110307E-2,-7.0822483E-1,-1.1962718E0,-5.735074E-1,1.758973E-1,-2.140167E-1,-8.725323E-1,-3.466985E-1,-1.669768E-1,3.1068686E-1,1.3147898E0,6.572631E-1,2.3358197E0,1.5027776E0,2.4796903E0,8.725731E-1,-2.263542E-1,5.99857E-1,-1.2162722E0,-4.4144446E-1,1.3152729E-1,7.8748965E-1,1.4624839E0,-1.560237E-1,4.5339312E-2,-8.519035E-2,6.593211E-2,3.6648396E-1,-5.326981E-1,-2.9985705E-1,-1.1100034E-1,1.3384895E-2,9.500446E-2,-1.587008E-1,1.1399949E-1,3.1680456E-1,6.8969536E-1,8.868646E-1,5.6086576E-1,1.698862E-1,4.4246413E-2,-7.84294E-2,-1.7843895E-1,-3.522775E-1,-5.282204E-1,-3.057102E-1,6.789056E-2,-2.211684E-1,-1.1233705E-1,6.929028E-2,-2.6949855E-2,-1.608404E-1,-8.510291E-2,-3.5489416E-1,-1.2641697E-1,4.0281393E-2,-8.581301E-2,4.391685E-2,1.9786905E-1,1.6955039E-2,2.3876874E-1,5.008329E-1,7.656951E-2,3.723555E-1,8.104776E-1,5.539473E-1,3.042856E-1,4.9409178E-1,6.128166E-1,8.730318E-1,3.5784024E-1,1.4274171E-1,3.9172084E-3,-1.8095116E-1,1.0916082E-1,3.0092838E-1,-5.1913357E-1,-3.0692366E-1,-7.668922E-2,-2.4217053E-1,1.9318169E-2,2.0895775E-1,-5.945506E-1,2.6895204E-1,1.1326582E-1,6.271518E-1,-1.0489634E-1,3.4573372E-2],"categories":[],"categories_nodes":[],"categories_segments":[],"categories_sizes":[],"default_left":[0,0,0,0,0,0,0,0,0,0,0,0,0,0,0,0,0,0,0,0,0,0,0,0,0,0,0,0,0,0,0,0,0,0,0,0,0,0,0,0,0,0,0,0,0,0,0,0,0,0,0,0,0,0,0,0,0,0,0,0,0,0,0,0,0,0,0,0,0,0,0,0,0,0,0,0,0,0,0,0,0,0,0,0,0,0,0,0,0,0,0,0,0,0,0,0,0,0,0,0,0,0,0,0,0,0,0,0,0,0,0,0,0,0,0,0,0,0,0,0,0,0,0,0,0,0,0],"id":11,"left_children":[1,3,5,7,9,11,13,15,17,19,21,23,25,27,29,31,33,35,37,39,41,43,45,47,49,51,53,55,57,59,61,63,65,67,69,71,73,75,77,79,81,83,85,87,89,91,93,95,97,99,101,103,105,107,109,111,113,115,117,119,121,123,125,-1,-1,-1,-1,-1,-1,-1,-1,-1,-1,-1,-1,-1,-1,-1,-1,-1,-1,-1,-1,-1,-1,-1,-1,-1,-1,-1,-1,-1,-1,-1,-1,-1,-1,-1,-1,-1,-1,-1,-1,-1,-1,-1,-1,-1,-1,-1,-1,-1,-1,-1,-1,-1,-1,-1,-1,-1,-1,-1,-1,-1,-1,-1,-1],"loss_changes":[3.9375474E3,6.859995E3,1.5817551E4,1.461281E4,5.1293506E3,1.3861971E4,5.672871E3,9.768942E3,1.2930059E4,2.127163E3,1.2813862E3,3.252144E3,1.0251035E3,4.4864375E3,3.1839463E3,7.38205E3,9.791028E3,1.1309387E3,8.765137E2,1.4304202E3,5.140576E2,3.7172705E2,1.9726099E2,9.5649146E2,7.0733545E2,1.3762129E3,2.5395227E2,6.9552446E3,1.9217554E3,4.4864897E3,3.606009E3,4.8950527E3,6.091032E3,7.961123E2,1.5957329E3,1.0238023E3,7.036941E2,3.362129E2,3.2771875E2,1.9018542E2,5.5723486E2,8.483262E2,2.0592682E2,3.3659973E2,1.2534244E2,2.9470935E2,4.605699E1,2.9668518E2,7.8620575E2,4.6504443E2,1.0886356E3,6.750801E2,2.9400586E2,1.8865356E1,1.7296643E2,4.5788896E3,1.2129238E3,3.6958008E2,1.547124E3,4.011922E3,3.4922217E3,9.659116E2,2.4683286E3,0E0,0E0,0E0,0E0,0E0,0E0,0E0,0E0,0E0,0E0,0E0,0E0,0E0,0E0,0E0,0E0,0E0,0E0,0E0,0E0,0E0,0E0,0E0,0E0,0E0,0E0,0E0,0E0,0E0,0E0,0E0,0E0,0E0,0E0,0E0,0E0,0E0,0E0,0E0,0E0,0E0,0E0,0E0,0E0,0E0,0E0,0E0,0E0,0E0,0E0,0E0,0E0,0E0,0E0,0E0,0E0,0E0,0E0,0E0,0E0,0E0,0E0,0E0,0E0],"parents":[2147483647,0,0,1,1,2,2,3,3,4,4,5,5,6,6,7,7,8,8,9,9,10,10,11,11,12,12,13,13,14,14,15,15,16,16,17,17,18,18,19,19,20,20,21,21,22,22,23,23,24,24,25,25,26,26,27,27,28,28,29,29,30,30,31,31,32,32,33,33,34,34,35,35,36,36,37,37,38,38,39,39,40,40,41,41,42,42,43,43,44,44,45,45,46,46,47,47,48,48,49,49,50,50,51,51,52,52,53,53,54,54,55,55,56,56,57,57,58,58,59,59,60,60,61,61,62,62],"right_children":[2,4,6,8,10,12,14,16,18,20,22,24,26,28,30,32,34,36,38,40,42,44,46,48,50,52,54,56,58,60,62,64,66,68,70,72,74,76,78,80,82,84,86,88,90,92,94,96,98,100,102,104,106,108,110,112,114,116,118,120,122,124,126,-1,-1,-1,-1,-1,-1,-1,-1,-1,-1,-1,-1,-1,-1,-1,-1,-1,-1,-1,-1,-1,-1,-1,-1,-1,-1,-1,-1,-1,-1,-1,-1,-1,-1,-1,-1,-1,-1,-1,-1,-1,-1,-1,-1,-1,-1,-1,-1,-1,-1,-1,-1,-1,-1,-1,-1,-1,-1,-1,-1,-1,-1,-1,-1],"split_conditions":[1E1,9E0,1.2E1,8E0,1.997E3,1.987E3,1.6E1,6E0,1.99E3,6E0,2.003E3,7.2E1,2.6E1,1.5E1,2.3E1,4E0,1.982E3,6.8E1,1.8E1,8.5E1,1.994E3,1.4E1,2.011E3,1.974E3,1.1E1,1.1E1,2.004E3,1.4E1,1.99E3,2.2E1,1.99E3,2E0,1.989E3,1.981E3,7E0,2.016E3,1.984E3,2.012E3,7E0,1.985E3,2.017E3,2.004E3,2.001E3,2.003E3,1.7E1,2.014E3,1.13E2,3E0,1.1E1,2.007E3,1.982E3,2.004E3,2.007E3,2.01E3,2.021E3,1.3E1,2.012E3,1.982E3,2.015E3,2.002E3,1.975E3,2.007E3,7E0,4.5339312E-2,-8.519035E-2,6.593211E-2,3.6648396E-1,-5.326981E-1,-2.9985705E-1,-1.1100034E-1,1.3384895E-2,9.500446E-2,-1.587008E-1,1.1399949E-1,3.1680456E-1,6.8969536E-1,8.868646E-1,5.6086576E-1,1.698862E-1,4.4246413E-2,-7.84294E-2,-1.7843895E-1,-3.522775E-1,-5.282204E-1,-3.057102E-1,6.789056E-2,-2.211684E-1,-1.1233705E-1,6.929028E-2,-2.6949855E-2,-1.608404E-1,-8.510291E-2,-3.5489416E-1,-1.2641697E-1,4.0281393E-2,-8.581301E-2,4.391685E-2,1.9786905E-1,1.6955039E-2,2.3876874E-1,5.008329E-1,7.656951E-2,3.723555E-1,8.104776E-1,5.539473E-1,3.042856E-1,4.9409178E-1,6.128166E-1,8.730318E-1,3.5784024E-1,1.4274171E-1,3.9172084E-3,-1.8095116E-1,1.0916082E-1,3.0092838E-1,-5.1913357E-1,-3.0692366E-1,-7.668922E-2,-2.4217053E-1,1.9318169E-2,2.0895775E-1,-5.945506E-1,2.6895204E-1,1.1326582E-1,6.271518E-1,-1.0489634E-1,3.4573372E-2],"split_indices":[4,4,4,4,2,2,4,4,2,6,2,1,3,4,4,4,2,1,3,1,2,3,2,2,4,4,2,4,2,4,2,4,2,2,6,0,2,0,6,2,0,0,0,0,3,0,1,6,4,0,2,2,0,0,0,4,0,2,0,2,2,0,6,0,0,0,0,0,0,0,0,0,0,0,0,0,0,0,0,0,0,0,0,0,0,0,0,0,0,0,0,0,0,0,0,0,0,0,0,0,0,0,0,0,0,0,0,0,0,0,0,0,0,0,0,0,0,0,0,0,0,0,0,0,0,0,0],"split_type":[0,0,0,0,0,0,0,0,0,0,0,0,0,0,0,0,0,0,0,0,0,0,0,0,0,0,0,0,0,0,0,0,0,0,0,0,0,0,0,0,0,0,0,0,0,0,0,0,0,0,0,0,0,0,0,0,0,0,0,0,0,0,0,0,0,0,0,0,0,0,0,0,0,0,0,0,0,0,0,0,0,0,0,0,0,0,0,0,0,0,0,0,0,0,0,0,0,0,0,0,0,0,0,0,0,0,0,0,0,0,0,0,0,0,0,0,0,0,0,0,0,0,0,0,0,0,0],"sum_hessian":[5.70601E5,2.81448E5,2.89153E5,2.39127E5,4.2321E4,3.3411E4,2.55742E5,2.20789E5,1.8338E4,2.5186E4,1.7135E4,2.3985E4,9.426E3,8.9992E4,1.6575E5,1.56874E5,6.3915E4,1.3882E4,4.456E3,1.513E4,1.0056E4,1.4241E4,2.894E3,1.6818E4,7.167E3,7.957E3,1.469E3,6.3503E4,2.6489E4,1.1734E5,4.841E4,1.06666E5,5.0208E4,6.682E3,5.7233E4,7.639E3,6.243E3,3.134E3,1.322E3,4.584E3,1.0546E4,8.484E3,1.572E3,1.1106E4,3.135E3,1.613E3,1.281E3,7.951E3,8.867E3,2.529E3,4.638E3,3.777E3,4.18E3,1.06E2,1.363E3,5.0755E4,1.2748E4,3.725E3,2.2764E4,1.05773E5,1.1567E4,1.418E3,4.6992E4,4.4041E4,6.2625E4,4.3146E4,7.062E3,4.866E3,1.816E3,4.5577E4,1.1656E4,5.731E3,1.908E3,3.48E3,2.763E3,1.654E3,1.48E3,1.087E3,2.35E2,2.492E3,2.092E3,8.482E3,2.064E3,2.027E3,6.457E3,2.67E2,1.305E3,1.01E3,1.0096E4,2.263E3,8.72E2,5.57E2,1.056E3,1.109E3,1.72E2,5.762E3,2.189E3,3.737E3,5.13E3,1.027E3,1.502E3,2.747E3,1.891E3,2.161E3,1.616E3,9.53E2,3.227E3,5.3E1,5.3E1,7.54E2,6.09E2,3.1036E4,1.9719E4,8.042E3,4.706E3,1.017E3,2.708E3,1.5096E4,7.668E3,9.454E4,1.1233E4,4.38E2,1.1129E4,5.2E2,8.98E2,2.742E4,1.9572E4],"tree_param":{"num_deleted":"0","num_feature":"7","num_nodes":"127","size_leaf_vector":"1"}},{"base_weights":[6.5538734E-6,-1.8234296E-2,3.4825563E-1,-8.765066E-2,5.074854E-2,2.742979E-1,5.7364935E-1,-2.1605979E-1,-5.4988626E-2,2.258176E-1,1.7809318E-2,3.1031457E-1,-3.7784162E-1,9.9597234E-1,3.3321378E-1,-4.3750224E-1,-1.8969923E-1,-4.2916417E-1,-4.5925103E-2,1.6008613E-1,1.3000126E0,-2.9214692E-1,7.206865E-2,7.785092E-2,3.753602E-1,-4.433121E-1,-7.825802E-2,6.868681E-1,1.6977054E0,1.7072178E-1,5.6484085E-1,-7.3267466E-1,-3.682684E-1,-2.9161636E-2,-2.4550603E-1,-8.088124E-1,-3.3744803E-1,-1.064258E-1,6.5578353E-3,-1.3664867E-2,5.1845E-1,9.5407134E-1,1.6911851E0,-1.3526871E0,-2.3869139E-1,6.47362E-1,3.4339897E-2,1.5586086E-1,-9.7111404E-2,9.6485764E-1,3.5192856E-1,-5.575168E-1,-2.575823E-1,-3.792604E-1,2.6303004E-2,4.89207E-1,1.4641804E0,2.0646496E0,1.0827681E0,1.9689242E0,1.4069603E-1,3.2300606E-2,8.500839E-1,-4.1896063E-1,-2.0338057E-1,-1.6430888E-1,-6.500443E-2,-4.4444405E-2,4.3316536E-2,8.051864E-2,-7.7434435E-2,-1.6937679E-2,-2.6242727E-1,-1.2648295E-1,-5.7006925E-2,-7.856182E-3,-1.5657324E-1,5.4440312E-2,-2.7796125E-2,5.2219734E-2,-8.071326E-2,1.0179112E-1,1.8394586E-1,4.161434E-1,1.2030198E-1,5.3137904E-1,1.6726807E-1,-3.481067E-1,-6.3651156E-1,-8.268803E-2,2.2470303E-1,-1.7413326E-2,3.968478E-1,-9.6256025E-2,2.711142E-2,-2.4808621E-2,6.706028E-2,-9.88346E-2,7.613077E-2,1.3032487E-1,3.7088472E-1,9.194273E-2,2.0007376E-1,-2.2786428E-1,-1.4787148E-1,-1.3014355E-1,-3.3566765E-2,-7.04542E-2,-2.1748275E-1,-1.0221188E-2,9.443532E-2,1.7492358E-2,1.8610846E-1,-1.52068E-1,4.6523795E-1,6.9386846E-1,3.542282E-1,2.5858423E-1,5.732882E-1,1.3924468E-1,9.4475585E-1,-2.1258881E-2,7.129227E-2,-5.0694477E-2,1.7002353E-1,4.342115E-2,2.7806827E-1],"categories":[],"categories_nodes":[],"categories_segments":[],"categories_sizes":[],"default_left":[0,0,0,0,0,0,0,0,0,0,0,0,0,0,0,0,0,0,0,0,0,0,0,0,0,0,0,0,0,0,0,0,0,0,0,0,0,0,0,0,0,0,0,0,0,0,0,0,0,0,0,0,0,0,0,0,0,0,0,0,0,0,0,0,0,0,0,0,0,0,0,0,0,0,0,0,0,0,0,0,0,0,0,0,0,0,0,0,0,0,0,0,0,0,0,0,0,0,0,0,0,0,0,0,0,0,0,0,0,0,0,0,0,0,0,0,0,0,0,0,0,0,0,0,0,0,0],"id":12,"left_children":[1,3,5,7,9,11,13,15,17,19,21,23,25,27,29,31,33,35,37,39,41,43,45,47,49,51,53,55,57,59,61,63,65,67,69,71,73,75,77,79,81,83,85,87,89,91,93,95,97,99,101,103,105,107,109,111,113,115,117,119,121,123,125,-1,-1,-1,-1,-1,-1,-1,-1,-1,-1,-1,-1,-1,-1,-1,-1,-1,-1,-1,-1,-1,-1,-1,-1,-1,-1,-1,-1,-1,-1,-1,-1,-1,-1,-1,-1,-1,-1,-1,-1,-1,-1,-1,-1,-1,-1,-1,-1,-1,-1,-1,-1,-1,-1,-1,-1,-1,-1,-1,-1,-1,-1,-1,-1],"loss_changes":[3.6246965E3,2.5963545E3,4.733181E2,1.1334368E3,1.5682075E3,5.0227295E2,7.1225903E2,3.1982178E2,7.306203E2,3.0405215E3,3.8493738E3,3.06375E2,2.1894287E1,5.516992E2,1.6819809E2,1.18986084E2,4.3871716E2,1.7726874E2,6.679441E2,2.5268774E3,3.3559375E2,1.9328894E3,4.227803E3,6.048658E1,2.1854883E2,1.9378128E1,6.3655376E0,2.7123804E2,1.7503809E2,1.4165878E2,2.7988214E2,3.992914E1,1.2834766E2,2.6087723E2,2.3547095E2,4.9074463E1,5.085266E1,3.257561E3,1.9546809E3,1.3102882E3,2.2469775E2,3.1547363E2,1.0543506E2,2.4141504E2,1.1842274E3,5.712183E3,3.63805E3,4.9498642E1,1.1138399E2,8.689844E1,2.179159E2,7.2530518E0,8.929539E0,2.4878798E0,2.625969E0,7.95629E1,6.131781E1,1.0625757E2,5.2794983E1,7.603932E1,5.303762E1,6.923029E1,6.4898315E1,0E0,0E0,0E0,0E0,0E0,0E0,0E0,0E0,0E0,0E0,0E0,0E0,0E0,0E0,0E0,0E0,0E0,0E0,0E0,0E0,0E0,0E0,0E0,0E0,0E0,0E0,0E0,0E0,0E0,0E0,0E0,0E0,0E0,0E0,0E0,0E0,0E0,0E0,0E0,0E0,0E0,0E0,0E0,0E0,0E0,0E0,0E0,0E0,0E0,0E0,0E0,0E0,0E0,0E0,0E0,0E0,0E0,0E0,0E0,0E0,0E0,0E0,0E0,0E0],"parents":[2147483647,0,0,1,1,2,2,3,3,4,4,5,5,6,6,7,7,8,8,9,9,10,10,11,11,12,12,13,13,14,14,15,15,16,16,17,17,18,18,19,19,20,20,21,21,22,22,23,23,24,24,25,25,26,26,27,27,28,28,29,29,30,30,31,31,32,32,33,33,34,34,35,35,36,36,37,37,38,38,39,39,40,40,41,41,42,42,43,43,44,44,45,45,46,46,47,47,48,48,49,49,50,50,51,51,52,52,53,53,54,54,55,55,56,56,57,57,58,58,59,59,60,60,61,61,62,62],"right_children":[2,4,6,8,10,12,14,16,18,20,22,24,26,28,30,32,34,36,38,40,42,44,46,48,50,52,54,56,58,60,62,64,66,68,70,72,74,76,78,80,82,84,86,88,90,92,94,96,98,100,102,104,106,108,110,112,114,116,118,120,122,124,126,-1,-1,-1,-1,-1,-1,-1,-1,-1,-1,-1,-1,-1,-1,-1,-1,-1,-1,-1,-1,-1,-1,-1,-1,-1,-1,-1,-1,-1,-1,-1,-1,-1,-1,-1,-1,-1,-1,-1,-1,-1,-1,-1,-1,-1,-1,-1,-1,-1,-1,-1,-1,-1,-1,-1,-1,-1,-1,-1,-1,-1,-1,-1,-1],"split_conditions":[2.023E3,9.7E1,1.8E1,3E0,6E0,1.7E1,2.3E1,6.2E1,2E0,5E0,7E0,1.984E3,1.13E2,1.997E3,7E0,4.8E1,1.98E3,4.3E1,8E0,1.989E3,1.984E3,1.987E3,9E0,8.5E1,2E0,1.1E1,2.001E3,2.2E1,1.8E1,1.99E3,2.008E3,3.4E1,1E1,7.2E1,1E0,1.969E3,1.986E3,6E0,1.2E1,1.986E3,4E0,1.979E3,2.6E1,1.4E1,1.75E2,1.989E3,1E1,1.974E3,1.03E2,1.994E3,1.24E2,3E0,2.016E3,1.24E2,1.31E2,6.8E1,1.975E3,2E1,1.002E2,1.977E3,9.2E1,1.23E2,7.4E1,-4.1896063E-1,-2.0338057E-1,-1.6430888E-1,-6.500443E-2,-4.4444405E-2,4.3316536E-2,8.051864E-2,-7.7434435E-2,-1.6937679E-2,-2.6242727E-1,-1.2648295E-1,-5.7006925E-2,-7.856182E-3,-1.5657324E-1,5.4440312E-2,-2.7796125E-2,5.2219734E-2,-8.071326E-2,1.0179112E-1,1.8394586E-1,4.161434E-1,1.2030198E-1,5.3137904E-1,1.6726807E-1,-3.481067E-1,-6.3651156E-1,-8.268803E-2,2.2470303E-1,-1.7413326E-2,3.968478E-1,-9.6256025E-2,2.711142E-2,-2.4808621E-2,6.706028E-2,-9.88346E-2,7.613077E-2,1.3032487E-1,3.7088472E-1,9.194273E-2,2.0007376E-1,-2.2786428E-1,-1.4787148E-1,-1.3014355E-1,-3.3566765E-2,-7.04542E-2,-2.1748275E-1,-1.0221188E-2,9.443532E-2,1.7492358E-2,1.8610846E-1,-1.52068E-1,4.6523795E-1,6.9386846E-1,3.542282E-1,2.5858423E-1,5.732882E-1,1.3924468E-1,9.4475585E-1,-2.1258881E-2,7.129227E-2,-5.0694477E-2,1.7002353E-1,4.342115E-2,2.7806827E-1],"split_indices":[0,1,4,3,4,4,4,1,5,4,4,2,1,2,6,1,2,1,4,2,2,2,4,1,4,3,2,4,3,2,2,1,4,1,4,2,2,4,4,2,5,2,3,3,1,2,4,2,1,2,1,3,2,1,1,1,2,4,1,2,1,1,1,0,0,0,0,0,0,0,0,0,0,0,0,0,0,0,0,0,0,0,0,0,0,0,0,0,0,0,0,0,0,0,0,0,0,0,0,0,0,0,0,0,0,0,0,0,0,0,0,0,0,0,0,0,0,0,0,0,0,0,0,0,0,0,0],"split_type":[0,0,0,0,0,0,0,0,0,0,0,0,0,0,0,0,0,0,0,0,0,0,0,0,0,0,0,0,0,0,0,0,0,0,0,0,0,0,0,0,0,0,0,0,0,0,0,0,0,0,0,0,0,0,0,0,0,0,0,0,0,0,0,0,0,0,0,0,0,0,0,0,0,0,0,0,0,0,0,0,0,0,0,0,0,0,0,0,0,0,0,0,0,0,0,0,0,0,0,0,0,0,0,0,0,0,0,0,0,0,0,0,0,0,0,0,0,0,0,0,0,0,0,0,0,0,0],"sum_hessian":[5.70601E5,5.42201E5,2.84E4,2.70252E5,2.71949E5,2.1384E4,7.016E3,5.4801E4,2.15451E5,4.3064E4,2.28885E5,2.0265E4,1.119E3,2.545E3,4.471E3,5.829E3,4.8972E4,5.095E3,2.10356E5,4.0581E4,2.483E3,3.4098E4,1.94787E5,4.431E3,1.5834E4,9.18E2,2.01E2,1.767E3,7.78E2,2.628E3,1.843E3,1.107E3,4.722E3,1.2633E4,3.6339E4,9.91E2,4.104E3,9.7715E4,1.12641E5,2.733E4,1.3251E4,1.318E3,1.165E3,1.636E3,3.2462E4,1.1988E4,1.82799E5,3.065E3,1.366E3,6.05E2,1.5229E4,5.68E2,3.5E2,5.2E1,1.49E2,1.409E3,3.58E2,4.87E2,2.91E2,4.3E1,2.585E3,6.43E2,1.2E3,8.4E1,1.023E3,2.162E3,2.56E3,7.495E3,5.138E3,8.7E2,3.5469E4,8E1,9.11E2,2.612E3,1.492E3,8.1899E4,1.5816E4,4.0768E4,7.1873E4,1.5751E4,1.1579E4,4.583E3,8.668E3,7.39E2,5.79E2,1.088E3,7.7E1,1.309E3,3.27E2,3.1292E4,1.17E3,5.864E3,6.124E3,2.4907E4,1.57892E5,6.77E2,2.388E3,8.22E2,5.44E2,2.05E2,4E2,1.3309E4,1.92E3,1.37E2,4.31E2,1.58E2,1.92E2,3.7E1,1.5E1,1.23E2,2.6E1,3.29E2,1.08E3,1.5E1,3.43E2,3.8E2,1.07E2,2.3E2,6.1E1,1.9E1,2.4E1,8.12E2,1.773E3,4.67E2,1.76E2,1.18E2,1.082E3],"tree_param":{"num_deleted":"0","num_feature":"7","num_nodes":"127","size_leaf_vector":"1"}},{"base_weights":[5.4492143E-6,-6.571443E-2,5.2961867E-2,-1.6615644E-1,-3.3920035E-2,3.2676492E-2,2.3619947E-1,-4.8319024E-1,-1.5118569E-1,7.3062164E-1,-4.0511914E-2,3.6651215E-3,1.4221409E-1,2.0592865E-1,5.1341283E-1,-6.0244566E-1,-3.3297738E-1,-2.7622327E-1,-1.2350464E-1,2.4339026E-2,1.3676289E0,2.492167E-1,-5.67032E-2,2.696622E-2,-7.775672E-1,5.894247E-1,-4.08757E-2,1.3923712E-1,2.993518E-1,3.2833293E-1,6.509432E-1,-5.352506E-1,-9.103839E-1,4.9524624E-2,-4.3195066E-1,-1.1835122E-1,-3.635548E-1,-8.671377E-2,-2.436479E-1,-1.1280175E0,1.1155945E-1,8.536019E-1,2.019239E0,1.8454997E-1,1.0511807E0,-3.307379E-1,-3.2792635E-2,-2.9807536E-2,1.297072E-1,-5.418458E-1,-1.247401E0,3.0049446E-1,1.2720162E0,2.832099E-1,-1.2364295E-1,5.835744E-1,1.1765855E-1,3.4502235E-1,7.437513E-2,4.6642762E-1,-3.0338117E-1,1.1427583E0,5.957564E-1,-2.5591174E-1,-1.3687688E-1,-4.910829E-1,-2.4510981E-1,9.719881E-2,-2.2504221E-1,-2.5433964E-1,-1.1893079E-1,-4.844899E-2,3.7345022E-2,-1.5386821E-1,-9.0326354E-2,-9.777241E-3,-5.9936076E-2,-1.4095463E-1,-1.84002E-2,-9.19258E-1,-2.9055133E-1,7.2480865E-2,-1.8566309E-1,6.834677E-2,3.606267E-1,2.612623E-1,8.473371E-1,9.688177E-3,9.352637E-2,4.0341154E-1,1.9875488E-1,-1.0351318E-1,1.858221E-1,4.4541407E-2,-1.7635409E-2,-5.4601602E-2,-1.0585424E-3,6.437999E-2,-2.0772574E-2,-1.385766E-1,-3.265561E-1,-3.067681E-1,-5.2410203E-1,1.0732458E-3,2.2431205E-1,5.586299E-1,1.5462378E-1,-1.1117388E-1,1.7680709E-1,-8.410553E-2,3.432267E-2,1.0524494E-1,3.2816896E-1,2.3038095E-2,1.070244E-1,7.914624E-2,2.5138414E-1,6.766808E-1,1.2953271E-2,1.24358125E-1,3.0935E-1,-7.704269E-2,-2.3225491E-1,8.260573E-2,4.4054163E-1,1.7088367E-1,3.8594535E-1],"categories":[],"categories_nodes":[],"categories_segments":[],"categories_sizes":[],"default_left":[0,0,0,0,0,0,0,0,0,0,0,0,0,0,0,0,0,0,0,0,0,0,0,0,0,0,0,0,0,0,0,0,0,0,0,0,0,0,0,0,0,0,0,0,0,0,0,0,0,0,0,0,0,0,0,0,0,0,0,0,0,0,0,0,0,0,0,0,0,0,0,0,0,0,0,0,0,0,0,0,0,0,0,0,0,0,0,0,0,0,0,0,0,0,0,0,0,0,0,0,0,0,0,0,0,0,0,0,0,0,0,0,0,0,0,0,0,0,0,0,0,0,0,0,0,0,0],"id":13,"left_children":[1,3,5,7,9,11,13,15,17,19,21,23,25,27,29,31,33,35,37,39,41,43,45,47,49,51,53,55,57,59,61,63,65,67,69,71,73,75,77,79,81,83,85,87,89,91,93,95,97,99,101,103,105,107,109,111,113,115,117,119,121,123,125,-1,-1,-1,-1,-1,-1,-1,-1,-1,-1,-1,-1,-1,-1,-1,-1,-1,-1,-1,-1,-1,-1,-1,-1,-1,-1,-1,-1,-1,-1,-1,-1,-1,-1,-1,-1,-1,-1,-1,-1,-1,-1,-1,-1,-1,-1,-1,-1,-1,-1,-1,-1,-1,-1,-1,-1,-1,-1,-1,-1,-1,-1,-1,-1],"loss_changes":[1.985856E3,8.130941E2,1.1745027E3,2.9048462E2,9.74615E2,9.040513E2,2.6419934E2,4.9330017E1,2.0229004E2,7.4359906E2,8.9947375E2,4.0942944E3,4.8776396E3,1.7686243E2,7.8791016E1,3.1632874E1,4.6306015E1,1.4602435E2,2.1152826E2,7.872007E1,2.9064136E2,5.261416E2,1.1898457E3,1.2739769E3,7.2118945E2,3.412542E3,1.1337197E3,1.5878064E2,1.2146643E2,1.1536566E2,4.8018738E1,3.1538422E1,1.8279572E1,5.509443E1,1.4183899E1,3.9547707E1,6.3535583E1,2.2422653E2,4.6265582E2,1.6317345E1,6.9233315E1,1.05836395E2,3.5363074E2,1.8184827E2,8.608197E1,1.9808325E2,7.869132E2,5.6261566E2,1.3129106E3,1.8933643E2,2.4398975E2,1.6143372E3,2.2971895E3,1.7210027E3,1.2560022E3,9.093445E1,1.543364E2,3.933297E2,1.3559296E2,3.1617264E1,5.0757427E0,5.038559E1,2.861853E1,0E0,0E0,0E0,0E0,0E0,0E0,0E0,0E0,0E0,0E0,0E0,0E0,0E0,0E0,0E0,0E0,0E0,0E0,0E0,0E0,0E0,0E0,0E0,0E0,0E0,0E0,0E0,0E0,0E0,0E0,0E0,0E0,0E0,0E0,0E0,0E0,0E0,0E0,0E0,0E0,0E0,0E0,0E0,0E0,0E0,0E0,0E0,0E0,0E0,0E0,0E0,0E0,0E0,0E0,0E0,0E0,0E0,0E0,0E0,0E0,0E0,0E0,0E0,0E0],"parents":[2147483647,0,0,1,1,2,2,3,3,4,4,5,5,6,6,7,7,8,8,9,9,10,10,11,11,12,12,13,13,14,14,15,15,16,16,17,17,18,18,19,19,20,20,21,21,22,22,23,23,24,24,25,25,26,26,27,27,28,28,29,29,30,30,31,31,32,32,33,33,34,34,35,35,36,36,37,37,38,38,39,39,40,40,41,41,42,42,43,43,44,44,45,45,46,46,47,47,48,48,49,49,50,50,51,51,52,52,53,53,54,54,55,55,56,56,57,57,58,58,59,59,60,60,61,61,62,62],"right_children":[2,4,6,8,10,12,14,16,18,20,22,24,26,28,30,32,34,36,38,40,42,44,46,48,50,52,54,56,58,60,62,64,66,68,70,72,74,76,78,80,82,84,86,88,90,92,94,96,98,100,102,104,106,108,110,112,114,116,118,120,122,124,126,-1,-1,-1,-1,-1,-1,-1,-1,-1,-1,-1,-1,-1,-1,-1,-1,-1,-1,-1,-1,-1,-1,-1,-1,-1,-1,-1,-1,-1,-1,-1,-1,-1,-1,-1,-1,-1,-1,-1,-1,-1,-1,-1,-1,-1,-1,-1,-1,-1,-1,-1,-1,-1,-1,-1,-1,-1,-1,-1,-1,-1,-1,-1,-1],"split_conditions":[8E0,7.2E1,2.022E3,4.8E1,1.974E3,1.8E1,2.024E3,1.977E3,2.003E3,1.1E1,2E0,1.7E1,2.1E1,9.9E1,1E1,2.016E3,2.008E3,2.001E3,2.018E3,8E0,1.973E3,1.998E3,3E0,1.995E3,2.015E3,1.988E3,1.993E3,1E0,2.3E1,9E0,1.2E1,1E0,3.4E1,6E0,2.01E3,1.4E1,4E0,1.984E3,2.021E3,2.001E3,2.019E3,9E0,2.01E3,2.008E3,2.004E3,1.55E2,6E0,6.7E1,1.3E1,2.003E3,2.003E3,1.9E1,1.8E1,2.2E1,7E0,1.4E1,7E0,1.8E1,1.99E3,8E0,8E0,1.977E3,2.02E3,-2.5591174E-1,-1.3687688E-1,-4.910829E-1,-2.4510981E-1,9.719881E-2,-2.2504221E-1,-2.5433964E-1,-1.1893079E-1,-4.844899E-2,3.7345022E-2,-1.5386821E-1,-9.0326354E-2,-9.777241E-3,-5.9936076E-2,-1.4095463E-1,-1.84002E-2,-9.19258E-1,-2.9055133E-1,7.2480865E-2,-1.8566309E-1,6.834677E-2,3.606267E-1,2.612623E-1,8.473371E-1,9.688177E-3,9.352637E-2,4.0341154E-1,1.9875488E-1,-1.0351318E-1,1.858221E-1,4.4541407E-2,-1.7635409E-2,-5.4601602E-2,-1.0585424E-3,6.437999E-2,-2.0772574E-2,-1.385766E-1,-3.265561E-1,-3.067681E-1,-5.2410203E-1,1.0732458E-3,2.2431205E-1,5.586299E-1,1.5462378E-1,-1.1117388E-1,1.7680709E-1,-8.410553E-2,3.432267E-2,1.0524494E-1,3.2816896E-1,2.3038095E-2,1.070244E-1,7.914624E-2,2.5138414E-1,6.766808E-1,1.2953271E-2,1.24358125E-1,3.0935E-1,-7.704269E-2,-2.3225491E-1,8.260573E-2,4.4054163E-1,1.7088367E-1,3.8594535E-1],"split_indices":[3,1,0,1,2,4,0,2,0,4,4,4,4,1,4,0,0,0,0,4,2,2,4,2,0,2,2,6,4,4,4,4,1,4,0,4,4,2,0,0,0,6,0,0,2,1,4,1,4,2,2,4,3,4,6,4,6,4,2,4,6,2,2,0,0,0,0,0,0,0,0,0,0,0,0,0,0,0,0,0,0,0,0,0,0,0,0,0,0,0,0,0,0,0,0,0,0,0,0,0,0,0,0,0,0,0,0,0,0,0,0,0,0,0,0,0,0,0,0,0,0,0,0,0,0,0,0],"split_type":[0,0,0,0,0,0,0,0,0,0,0,0,0,0,0,0,0,0,0,0,0,0,0,0,0,0,0,0,0,0,0,0,0,0,0,0,0,0,0,0,0,0,0,0,0,0,0,0,0,0,0,0,0,0,0,0,0,0,0,0,0,0,0,0,0,0,0,0,0,0,0,0,0,0,0,0,0,0,0,0,0,0,0,0,0,0,0,0,0,0,0,0,0,0,0,0,0,0,0,0,0,0,0,0,0,0,0,0,0,0,0,0,0,0,0,0,0,0,0,0,0,0,0,0,0,0,0],"sum_hessian":[5.70601E5,2.54616E5,3.15985E5,6.1218E4,1.93398E5,2.84491E5,3.1494E4,2.76E3,5.8458E4,1.653E3,1.91745E5,2.24921E5,5.957E4,2.8394E4,3.1E3,1.538E3,1.222E3,1.0595E4,4.7863E4,7.84E2,8.69E2,1.0148E4,1.81597E5,2.18407E5,6.514E3,1.7304E4,4.2266E4,1.6568E4,1.1826E4,1.322E3,1.778E3,1.263E3,2.75E2,2.51E2,9.71E2,3.774E3,6.821E3,3.6643E4,1.122E4,5.5E1,7.29E2,4.86E2,3.83E2,